{"learner":{"attributes":{"best_iteration":"73","best_score":"4.020395197986085","scikit_learn":"{\"_estimator_type\": \"regressor\"}"},"feature_names":["Tuesday","Wednesday","Thursday","Friday","Saturday","Sunday","Monday","Winter","Spring","Summer","Fall","is_holiday","day_before_holiday","day_after_holiday","TMAX (Degrees Fahrenheit)","TMIN (Degrees Fahrenheit)","PRCP (Inches)","roll14","roll30","lag7"],"feature_types":["int","int","int","int","int","int","int","int","int","int","int","int","int","int","float","float","float","float","float","float"],"gradient_booster":{"model":{"gbtree_model_param":{"num_parallel_tree":"1","num_trees":"104"},"iteration_indptr":[0,1,2,3,4,5,6,7,8,9,10,11,12,13,14,15,16,17,18,19,20,21,22,23,24,25,26,27,28,29,30,31,32,33,34,35,36,37,38,39,40,41,42,43,44,45,46,47,48,49,50,51,52,53,54,55,56,57,58,59,60,61,62,63,64,65,66,67,68,69,70,71,72,73,74,75,76,77,78,79,80,81,82,83,84,85,86,87,88,89,90,91,92,93,94,95,96,97,98,99,100,101,102,103,104],"tree_info":[0,0,0,0,0,0,0,0,0,0,0,0,0,0,0,0,0,0,0,0,0,0,0,0,0,0,0,0,0,0,0,0,0,0,0,0,0,0,0,0,0,0,0,0,0,0,0,0,0,0,0,0,0,0,0,0,0,0,0,0,0,0,0,0,0,0,0,0,0,0,0,0,0,0,0,0,0,0,0,0,0,0,0,0,0,0,0,0,0,0,0,0,0,0,0,0,0,0,0,0,0,0,0,0],"trees":[{"base_weights":[1.2102146E-7,-4.308204E0,1.626847E0,-4.8703322E0,-1.3158019E0,9.541233E-1,7.4883647E0,-1.679882E-1,-9.8314196E-2,4.8927203E-2,-1.0419617E-1,-9.894237E-4,7.4733734E-2,1.9821963E-1,4.770714E-1],"categories":[],"categories_nodes":[],"categories_segments":[],"categories_sizes":[],"default_left":[0,0,0,0,0,0,0,0,0,0,0,0,0,0,0],"id":0,"left_children":[1,3,5,7,9,11,13,-1,-1,-1,-1,-1,-1,-1,-1],"loss_changes":[1.0611307E4,6.9166895E2,4.326412E3,3.8714355E2,4.3159958E2,1.4975392E3,7.3260986E2,0E0,0E0,0E0,0E0,0E0,0E0,0E0,0E0],"parents":[2147483647,0,0,1,1,2,2,3,3,4,4,5,5,6,6],"right_children":[2,4,6,8,10,12,14,-1,-1,-1,-1,-1,-1,-1,-1],"split_conditions":[1.3642858E1,1.6E1,2.1571428E1,6.9E1,3.8E1,1.7285715E1,8.1E1,-1.679882E-1,-9.8314196E-2,4.8927203E-2,-1.0419617E-1,-9.894237E-4,7.4733734E-2,1.9821963E-1,4.770714E-1],"split_indices":[17,19,17,14,14,17,14,0,0,0,0,0,0,0,0],"split_type":[0,0,0,0,0,0,0,0,0,0,0,0,0,0,0],"sum_hessian":[1.512E3,4.14E2,1.098E3,3.48E2,6.6E1,9.86E2,1.12E2,2.37E2,1.11E2,2.8E1,3.8E1,6.01E2,3.85E2,1.03E2,9E0],"tree_param":{"num_deleted":"0","num_feature":"20","num_nodes":"15","size_leaf_vector":"1"}},{"base_weights":[2.8244013E-4,-4.1797333E0,1.578723E0,-4.7249856E0,-1.2771525E0,9.25574E-1,7.26969E0,-1.6296972E-1,-9.53911E-2,4.7509998E-2,-1.0115042E-1,-9.5980434E-4,7.249753E-2,1.9233023E-1,4.6419048E-1],"categories":[],"categories_nodes":[],"categories_segments":[],"categories_sizes":[],"default_left":[0,0,0,0,0,0,0,0,0,0,0,0,0,0,0],"id":1,"left_children":[1,3,5,7,9,11,13,-1,-1,-1,-1,-1,-1,-1,-1],"loss_changes":[9.98923E3,6.507612E2,4.0783079E3,3.6419678E2,4.0680807E2,1.40926E3,6.9678076E2,0E0,0E0,0E0,0E0,0E0,0E0,0E0,0E0],"parents":[2147483647,0,0,1,1,2,2,3,3,4,4,5,5,6,6],"right_children":[2,4,6,8,10,12,14,-1,-1,-1,-1,-1,-1,-1,-1],"split_conditions":[1.3642858E1,1.6E1,2.1571428E1,6.9E1,3.8E1,1.7285715E1,8.1E1,-1.6296972E-1,-9.53911E-2,4.7509998E-2,-1.0115042E-1,-9.5980434E-4,7.249753E-2,1.9233023E-1,4.6419048E-1],"split_indices":[17,19,17,14,14,17,14,0,0,0,0,0,0,0,0],"split_type":[0,0,0,0,0,0,0,0,0,0,0,0,0,0,0],"sum_hessian":[1.512E3,4.14E2,1.098E3,3.48E2,6.6E1,9.86E2,1.12E2,2.37E2,1.11E2,2.8E1,3.8E1,6.01E2,3.85E2,1.03E2,9E0],"tree_param":{"num_deleted":"0","num_feature":"20","num_nodes":"15","size_leaf_vector":"1"}},{"base_weights":[5.4880395E-4,-2.519502E0,2.467892E0,-4.4878874E0,-7.345661E-1,1.6699082E0,7.0574093E0,-1.45025E-1,-5.564618E-2,-4.859535E-2,6.7340806E-3,1.9193392E-2,7.3830314E-2,1.436746E-1,2.9766876E-1],"categories":[],"categories_nodes":[],"categories_segments":[],"categories_sizes":[],"default_left":[0,0,0,0,0,0,0,0,0,0,0,0,0,0,0],"id":2,"left_children":[1,3,5,7,9,11,13,-1,-1,-1,-1,-1,-1,-1,-1],"loss_changes":[9.413795E3,2.6282715E3,2.78992E3,3.1561914E2,3.348751E2,5.305792E2,6.867881E2,0E0,0E0,0E0,0E0,0E0,0E0,0E0,0E0],"parents":[2147483647,0,0,1,1,2,2,3,3,4,4,5,5,6,6],"right_children":[2,4,6,8,10,12,14,-1,-1,-1,-1,-1,-1,-1,-1],"split_conditions":[1.5642858E1,1.2785714E1,2.1571428E1,1.6E1,1.5E1,1.7E1,2.4E1,-1.45025E-1,-5.564618E-2,-4.859535E-2,6.7340806E-3,1.9193392E-2,7.3830314E-2,1.436746E-1,2.9766876E-1],"split_indices":[17,17,17,19,19,19,19,0,0,0,0,0,0,0,0],"split_type":[0,0,0,0,0,0,0,0,0,0,0,0,0,0,0],"sum_hessian":[1.512E3,7.48E2,7.64E2,3.55E2,3.93E2,6.52E2,1.12E2,3.13E2,4.2E1,2.04E2,1.89E2,2.84E2,3.68E2,6.4E1,4.8E1],"tree_param":{"num_deleted":"0","num_feature":"20","num_nodes":"15","size_leaf_vector":"1"}},{"base_weights":[7.2518707E-4,-3.9366384E0,1.4875361E0,-4.449354E0,-1.2071682E0,8.72136E-1,6.8495927E0,-1.5399447E-1,-8.869693E-2,4.6971288E-2,-9.714296E-2,-1.1837259E-3,6.8747535E-2,1.8052572E-1,4.4454432E-1],"categories":[],"categories_nodes":[],"categories_segments":[],"categories_sizes":[],"default_left":[0,0,0,0,0,0,0,0,0,0,0,0,0,0,0],"id":3,"left_children":[1,3,5,7,9,11,13,-1,-1,-1,-1,-1,-1,-1,-1],"loss_changes":[8.863132E3,5.7539746E2,3.6205176E3,3.4106934E2,3.823819E2,1.277229E3,6.6006445E2,0E0,0E0,0E0,0E0,0E0,0E0,0E0,0E0],"parents":[2147483647,0,0,1,1,2,2,3,3,4,4,5,5,6,6],"right_children":[2,4,6,8,10,12,14,-1,-1,-1,-1,-1,-1,-1,-1],"split_conditions":[1.3642858E1,1.6E1,2.1571428E1,6.9E1,3.8E1,1.7285715E1,8.1E1,-1.5399447E-1,-8.869693E-2,4.6971288E-2,-9.714296E-2,-1.1837259E-3,6.8747535E-2,1.8052572E-1,4.4454432E-1],"split_indices":[17,19,17,14,14,17,14,0,0,0,0,0,0,0,0],"split_type":[0,0,0,0,0,0,0,0,0,0,0,0,0,0,0],"sum_hessian":[1.512E3,4.14E2,1.098E3,3.48E2,6.6E1,9.86E2,1.12E2,2.37E2,1.11E2,2.8E1,3.8E1,6.01E2,3.85E2,1.03E2,9E0],"tree_param":{"num_deleted":"0","num_feature":"20","num_nodes":"15","size_leaf_vector":"1"}},{"base_weights":[9.6752495E-4,-2.3786683E0,2.330832E0,-4.230678E0,-6.9924164E-1,1.5799042E0,6.649637E0,-1.366694E-1,-5.2777827E-2,-4.6524193E-2,6.696969E-3,8.102874E-3,6.49788E-2,1.3385451E-1,2.824842E-1],"categories":[],"categories_nodes":[],"categories_segments":[],"categories_sizes":[],"default_left":[0,0,0,0,0,0,0,0,0,0,0,0,0,0,0],"id":4,"left_children":[1,3,5,7,9,11,13,-1,-1,-1,-1,-1,-1,-1,-1],"loss_changes":[8.393963E3,2.326668E3,2.470474E3,2.7790088E2,3.0985144E2,5.006715E2,6.419321E2,0E0,0E0,0E0,0E0,0E0,0E0,0E0,0E0],"parents":[2147483647,0,0,1,1,2,2,3,3,4,4,5,5,6,6],"right_children":[2,4,6,8,10,12,14,-1,-1,-1,-1,-1,-1,-1,-1],"split_conditions":[1.5642858E1,1.2785714E1,2.1571428E1,1.6E1,1.5E1,1.5E1,2.4E1,-1.366694E-1,-5.2777827E-2,-4.6524193E-2,6.696969E-3,8.102874E-3,6.49788E-2,1.3385451E-1,2.824842E-1],"split_indices":[17,17,17,19,19,19,19,0,0,0,0,0,0,0,0],"split_type":[0,0,0,0,0,0,0,0,0,0,0,0,0,0,0],"sum_hessian":[1.512E3,7.48E2,7.64E2,3.55E2,3.93E2,6.52E2,1.12E2,3.13E2,4.2E1,2.04E2,1.89E2,2.02E2,4.5E2,6.4E1,4.8E1],"tree_param":{"num_deleted":"0","num_feature":"20","num_nodes":"15","size_leaf_vector":"1"}},{"base_weights":[1.1103863E-3,-2.3076146E0,2.2615469E0,-4.1241145E0,-6.9526386E-1,1.5326189E0,6.453833E0,-1.3337967E-1,-5.12313E-2,-4.5626335E-2,6.4971256E-3,1.6832361E-2,6.836526E-2,1.5321538E-1,3.2969302E-1],"categories":[],"categories_nodes":[],"categories_segments":[],"categories_sizes":[],"default_left":[0,0,0,0,0,0,0,0,0,0,0,0,0,0,0],"id":5,"left_children":[1,3,5,7,9,11,13,-1,-1,-1,-1,-1,-1,-1,-1],"loss_changes":[7.9011504E3,2.19083E3,2.3278525E3,2.6618604E2,2.9995312E2,4.7213696E2,6.3411523E2,0E0,0E0,0E0,0E0,0E0,0E0,0E0,0E0],"parents":[2147483647,0,0,1,1,2,2,3,3,4,4,5,5,6,6],"right_children":[2,4,6,8,10,12,14,-1,-1,-1,-1,-1,-1,-1,-1],"split_conditions":[1.5642858E1,1.2714286E1,2.1571428E1,1.6E1,1.5E1,1.7E1,1E0,-1.3337967E-1,-5.12313E-2,-4.5626335E-2,6.4971256E-3,1.6832361E-2,6.836526E-2,1.5321538E-1,3.2969302E-1],"split_indices":[17,17,17,19,19,19,9,0,0,0,0,0,0,0,0],"split_type":[0,0,0,0,0,0,0,0,0,0,0,0,0,0,0],"sum_hessian":[1.512E3,7.48E2,7.64E2,3.51E2,3.97E2,6.52E2,1.12E2,3.09E2,4.2E1,2.08E2,1.89E2,2.84E2,3.68E2,8.8E1,2.4E1],"tree_param":{"num_deleted":"0","num_feature":"20","num_nodes":"15","size_leaf_vector":"1"}},{"base_weights":[1.3047821E-3,-2.2386847E0,2.194443E0,-4.000915E0,-6.745042E-1,1.4867709E0,6.2644916E0,-1.2282177E-1,9.846214E-2,-4.4264082E-2,6.30323E-3,7.3585166E-3,6.1268434E-2,1.638059E-1,4.2008123E-1],"categories":[],"categories_nodes":[],"categories_segments":[],"categories_sizes":[],"default_left":[0,0,0,0,0,0,0,0,0,0,0,0,0,0,0],"id":6,"left_children":[1,3,5,7,9,11,13,-1,-1,-1,-1,-1,-1,-1,-1],"loss_changes":[7.4376865E3,2.0618794E3,2.194085E3,2.5222119E2,2.823103E2,4.498462E2,6.268325E2,0E0,0E0,0E0,0E0,0E0,0E0,0E0,0E0],"parents":[2147483647,0,0,1,1,2,2,3,3,4,4,5,5,6,6],"right_children":[2,4,6,8,10,12,14,-1,-1,-1,-1,-1,-1,-1,-1],"split_conditions":[1.5642858E1,1.2714286E1,2.1571428E1,2.1E1,1.5E1,1.5E1,8.1E1,-1.2282177E-1,9.846214E-2,-4.4264082E-2,6.30323E-3,7.3585166E-3,6.1268434E-2,1.638059E-1,4.2008123E-1],"split_indices":[17,17,17,19,19,19,14,0,0,0,0,0,0,0,0],"split_type":[0,0,0,0,0,0,0,0,0,0,0,0,0,0,0],"sum_hessian":[1.512E3,7.48E2,7.64E2,3.51E2,3.97E2,6.52E2,1.12E2,3.47E2,4E0,2.08E2,1.89E2,2.02E2,4.5E2,1.03E2,9E0],"tree_param":{"num_deleted":"0","num_feature":"20","num_nodes":"15","size_leaf_vector":"1"}},{"base_weights":[1.6558705E-3,-2.1716073E0,2.129463E0,-3.8628547E0,-6.379633E-1,1.442273E0,6.0817246E0,-1.3873003E-1,-8.536658E-2,-4.245172E-2,6.11514E-3,2.1704279E-2,7.1384594E-2,1.432933E-1,3.1455767E-1],"categories":[],"categories_nodes":[],"categories_segments":[],"categories_sizes":[],"default_left":[0,0,0,0,0,0,0,0,0,0,0,0,0,0,0],"id":7,"left_children":[1,3,5,7,9,11,13,-1,-1,-1,-1,-1,-1,-1,-1],"loss_changes":[7.001167E3,1.9402703E3,2.0689336E3,2.6261865E2,2.5802704E2,4.3818262E2,5.994243E2,0E0,0E0,0E0,0E0,0E0,0E0,0E0,0E0],"parents":[2147483647,0,0,1,1,2,2,3,3,4,4,5,5,6,6],"right_children":[2,4,6,8,10,12,14,-1,-1,-1,-1,-1,-1,-1,-1],"split_conditions":[1.5642858E1,1.2785714E1,2.1571428E1,1.0866667E1,1.5E1,1.7928572E1,1E0,-1.3873003E-1,-8.536658E-2,-4.245172E-2,6.11514E-3,2.1704279E-2,7.1384594E-2,1.432933E-1,3.1455767E-1],"split_indices":[17,17,17,18,19,17,9,0,0,0,0,0,0,0,0],"split_type":[0,0,0,0,0,0,0,0,0,0,0,0,0,0,0],"sum_hessian":[1.512E3,7.48E2,7.64E2,3.55E2,3.93E2,6.52E2,1.12E2,2.01E2,1.54E2,2.04E2,1.89E2,3.7E2,2.82E2,8.8E1,2.4E1],"tree_param":{"num_deleted":"0","num_feature":"20","num_nodes":"15","size_leaf_vector":"1"}},{"base_weights":[1.7982768E-3,-2.1068068E0,2.0662994E0,-3.7655127E0,-6.3451695E-1,1.3991475E0,5.9033246E0,-1.2217416E-1,-4.39494E-2,-4.164276E-2,5.932657E-3,1.44668305E-2,6.310637E-2,1.5364407E-1,4.033287E-1],"categories":[],"categories_nodes":[],"categories_segments":[],"categories_sizes":[],"default_left":[0,0,0,0,0,0,0,0,0,0,0,0,0,0,0],"id":8,"left_children":[1,3,5,7,9,11,13,-1,-1,-1,-1,-1,-1,-1,-1],"loss_changes":[6.5907715E3,1.8267405E3,1.9500474E3,2.4260547E2,2.49892E2,4.2074316E2,5.973872E2,0E0,0E0,0E0,0E0,0E0,0E0,0E0,0E0],"parents":[2147483647,0,0,1,1,2,2,3,3,4,4,5,5,6,6],"right_children":[2,4,6,8,10,12,14,-1,-1,-1,-1,-1,-1,-1,-1],"split_conditions":[1.5642858E1,1.2714286E1,2.1571428E1,1.6E1,1.5E1,1.7E1,8.1E1,-1.2217416E-1,-4.39494E-2,-4.164276E-2,5.932657E-3,1.44668305E-2,6.310637E-2,1.5364407E-1,4.033287E-1],"split_indices":[17,17,17,19,19,19,14,0,0,0,0,0,0,0,0],"split_type":[0,0,0,0,0,0,0,0,0,0,0,0,0,0,0],"sum_hessian":[1.512E3,7.48E2,7.64E2,3.51E2,3.97E2,6.52E2,1.12E2,3.09E2,4.2E1,2.08E2,1.89E2,2.84E2,3.68E2,1.03E2,9E0],"tree_param":{"num_deleted":"0","num_feature":"20","num_nodes":"15","size_leaf_vector":"1"}},{"base_weights":[2.0302294E-3,-3.2934687E0,1.2464615E0,-4.3682184E0,-2.2635949E0,3.7187156E-1,4.025113E0,-4.026725E-2,-1.3507114E-1,-5.823017E-2,-2.0200107E-1,-2.2612907E-2,3.4533177E-2,8.5820556E-2,1.858372E-1],"categories":[],"categories_nodes":[],"categories_segments":[],"categories_sizes":[],"default_left":[0,0,0,0,0,0,0,0,0,0,0,0,0,0,0],"id":9,"left_children":[1,3,5,7,9,11,13,-1,-1,-1,-1,-1,-1,-1,-1],"loss_changes":[6.2089517E3,4.4945752E2,2.6692722E3,7.595752E1,2.9549744E2,7.350284E2,6.4666406E2,0E0,0E0,0E0,0E0,0E0,0E0,0E0,0E0],"parents":[2147483647,0,0,1,1,2,2,3,3,4,4,5,5,6,6],"right_children":[2,4,6,8,10,12,14,-1,-1,-1,-1,-1,-1,-1,-1],"split_conditions":[1.3642858E1,1.0866667E1,1.9142857E1,1.6E1,1.5033334E1,1.5E1,2.4E1,-4.026725E-2,-1.3507114E-1,-5.823017E-2,-2.0200107E-1,-2.2612907E-2,3.4533177E-2,8.5820556E-2,1.858372E-1],"split_indices":[17,18,17,14,18,19,19,0,0,0,0,0,0,0,0],"split_type":[0,0,0,0,0,0,0,0,0,0,0,0,0,0,0],"sum_hessian":[1.512E3,4.14E2,1.098E3,2.01E2,2.13E2,8.36E2,2.62E2,9E0,1.92E2,2E2,1.3E1,3.42E2,4.94E2,1.72E2,9E1],"tree_param":{"num_deleted":"0","num_feature":"20","num_nodes":"15","size_leaf_vector":"1"}},{"base_weights":[1.8688727E-3,-1.9920616E0,1.9540938E0,-3.5512683E0,-6.0805964E-1,1.3195623E0,5.603607E0,-1.09208025E-1,1.0060015E-1,-3.9462205E-2,5.1966794E-3,-8.287019E-2,4.3987703E-2,1.453463E-1,3.8802135E-1],"categories":[],"categories_nodes":[],"categories_segments":[],"categories_sizes":[],"default_left":[0,0,0,0,0,0,0,0,0,0,0,0,0,0,0],"id":10,"left_children":[1,3,5,7,9,11,13,-1,-1,-1,-1,-1,-1,-1,-1],"loss_changes":[5.893398E3,1.6141418E3,1.7641401E3,2.285127E2,2.2017775E2,3.9506165E2,5.6582275E2,0E0,0E0,0E0,0E0,0E0,0E0,0E0,0E0],"parents":[2147483647,0,0,1,1,2,2,3,3,4,4,5,5,6,6],"right_children":[2,4,6,8,10,12,14,-1,-1,-1,-1,-1,-1,-1,-1],"split_conditions":[1.5642858E1,1.2714286E1,2.1571428E1,2.1E1,1.5E1,9E0,8.1E1,-1.09208025E-1,1.0060015E-1,-3.9462205E-2,5.1966794E-3,-8.287019E-2,4.3987703E-2,1.453463E-1,3.8802135E-1],"split_indices":[17,17,17,19,19,19,14,0,0,0,0,0,0,0,0],"split_type":[0,0,0,0,0,0,0,0,0,0,0,0,0,0,0],"sum_hessian":[1.512E3,7.48E2,7.64E2,3.51E2,3.97E2,6.52E2,1.12E2,3.47E2,4E0,2.08E2,1.89E2,2.2E1,6.3E2,1.03E2,9E0],"tree_param":{"num_deleted":"0","num_feature":"20","num_nodes":"15","size_leaf_vector":"1"}},{"base_weights":[2.1115295E-3,-1.6684492E0,2.1988702E0,-3.4286633E0,-4.2428166E-1,1.5190337E0,5.4402194E0,-1.2389155E-1,-7.478729E-2,-3.842636E-2,1.2022752E-2,1.7856589E-2,6.533558E-2,1.2555358E-1,2.9072306E-1],"categories":[],"categories_nodes":[],"categories_segments":[],"categories_sizes":[],"default_left":[0,0,0,0,0,0,0,0,0,0,0,0,0,0,0],"id":11,"left_children":[1,3,5,7,9,11,13,-1,-1,-1,-1,-1,-1,-1,-1],"loss_changes":[5.5561045E3,1.8819465E3,1.4328821E3,2.232456E2,3.5741037E2,3.285791E2,5.622827E2,0E0,0E0,0E0,0E0,0E0,0E0,0E0,0E0],"parents":[2147483647,0,0,1,1,2,2,3,3,4,4,5,5,6,6],"right_children":[2,4,6,8,10,12,14,-1,-1,-1,-1,-1,-1,-1,-1],"split_conditions":[1.6357143E1,1.2785714E1,2.1571428E1,1.0866667E1,1.5E1,1.7E1,1E0,-1.2389155E-1,-7.478729E-2,-3.842636E-2,1.2022752E-2,1.7856589E-2,6.533558E-2,1.2555358E-1,2.9072306E-1],"split_indices":[17,17,17,18,19,19,9,0,0,0,0,0,0,0,0],"split_type":[0,0,0,0,0,0,0,0,0,0,0,0,0,0,0],"sum_hessian":[1.512E3,8.59E2,6.53E2,3.55E2,5.04E2,5.41E2,1.12E2,2.01E2,1.54E2,2.47E2,2.57E2,2.26E2,3.15E2,8.8E1,2.4E1],"tree_param":{"num_deleted":"0","num_feature":"20","num_nodes":"15","size_leaf_vector":"1"}},{"base_weights":[2.229451E-3,-1.8763008E0,1.8414673E0,-3.3422794E0,-5.750424E-1,1.2434971E0,5.280697E0,-1.0893638E-1,-3.5446376E-2,-2.7478876E-2,2.7161993E-2,-1.3631752E-1,4.021711E-2,9.864346E-2,2.3448446E-1],"categories":[],"categories_nodes":[],"categories_segments":[],"categories_sizes":[],"default_left":[0,0,0,0,0,0,0,0,0,0,0,0,0,0,0],"id":12,"left_children":[1,3,5,7,9,11,13,-1,-1,-1,-1,-1,-1,-1,-1],"loss_changes":[5.230967E3,1.4268833E3,1.5666992E3,2.1546558E2,2.0170493E2,3.7294885E2,5.451863E2,0E0,0E0,0E0,0E0,0E0,0E0,0E0,0E0],"parents":[2147483647,0,0,1,1,2,2,3,3,4,4,5,5,6,6],"right_children":[2,4,6,8,10,12,14,-1,-1,-1,-1,-1,-1,-1,-1],"split_conditions":[1.5642858E1,1.2714286E1,2.1571428E1,1.6E1,1.9E1,8E0,2.4E1,-1.0893638E-1,-3.5446376E-2,-2.7478876E-2,2.7161993E-2,-1.3631752E-1,4.021711E-2,9.864346E-2,2.3448446E-1],"split_indices":[17,17,17,19,19,19,19,0,0,0,0,0,0,0,0],"split_type":[0,0,0,0,0,0,0,0,0,0,0,0,0,0,0],"sum_hessian":[1.512E3,7.48E2,7.64E2,3.51E2,3.97E2,6.52E2,1.12E2,3.09E2,4.2E1,3.23E2,7.4E1,1E1,6.42E2,6.4E1,4.8E1],"tree_param":{"num_deleted":"0","num_feature":"20","num_nodes":"15","size_leaf_vector":"1"}},{"base_weights":[2.22386E-3,-1.5741714E0,2.0751562E0,-3.2273164E0,-4.0566888E-1,1.4354277E0,5.125224E0,-9.935197E-2,1.00831345E-1,-3.6723875E-2,1.1479216E-2,1.6262047E-2,6.2179018E-2,1.317595E-1,3.6715227E-1],"categories":[],"categories_nodes":[],"categories_segments":[],"categories_sizes":[],"default_left":[0,0,0,0,0,0,0,0,0,0,0,0,0,0,0],"id":13,"left_children":[1,3,5,7,9,11,13,-1,-1,-1,-1,-1,-1,-1,-1],"loss_changes":[4.9473887E3,1.6599563E3,1.268738E3,2.0912549E2,3.2629437E2,3.074121E2,5.3562085E2,0E0,0E0,0E0,0E0,0E0,0E0,0E0,0E0],"parents":[2147483647,0,0,1,1,2,2,3,3,4,4,5,5,6,6],"right_children":[2,4,6,8,10,12,14,-1,-1,-1,-1,-1,-1,-1,-1],"split_conditions":[1.6357143E1,1.2785714E1,2.1571428E1,2.1E1,1.5E1,1.7E1,8.1E1,-9.935197E-2,1.00831345E-1,-3.6723875E-2,1.1479216E-2,1.6262047E-2,6.2179018E-2,1.317595E-1,3.6715227E-1],"split_indices":[17,17,17,19,19,19,14,0,0,0,0,0,0,0,0],"split_type":[0,0,0,0,0,0,0,0,0,0,0,0,0,0,0],"sum_hessian":[1.512E3,8.59E2,6.53E2,3.55E2,5.04E2,5.41E2,1.12E2,3.51E2,4E0,2.47E2,2.57E2,2.26E2,3.15E2,1.03E2,9E0],"tree_param":{"num_deleted":"0","num_feature":"20","num_nodes":"15","size_leaf_vector":"1"}},{"base_weights":[2.5229326E-3,-1.5269738E0,2.013784E0,-3.130493E0,-3.9354867E-1,1.3925092E0,4.975882E0,-1.1407489E-1,-6.703571E-2,-3.5626594E-2,1.1136178E-2,1.5776334E-2,6.031953E-2,1.1305353E-1,2.7225903E-1],"categories":[],"categories_nodes":[],"categories_segments":[],"categories_sizes":[],"default_left":[0,0,0,0,0,0,0,0,0,0,0,0,0,0,0],"id":14,"left_children":[1,3,5,7,9,11,13,-1,-1,-1,-1,-1,-1,-1,-1],"loss_changes":[4.6573916E3,1.5617913E3,1.196612E3,2.0584888E2,3.0708624E2,2.8929272E2,5.251238E2,0E0,0E0,0E0,0E0,0E0,0E0,0E0,0E0],"parents":[2147483647,0,0,1,1,2,2,3,3,4,4,5,5,6,6],"right_children":[2,4,6,8,10,12,14,-1,-1,-1,-1,-1,-1,-1,-1],"split_conditions":[1.6357143E1,1.2785714E1,2.1571428E1,1.0866667E1,1.5E1,1.7E1,1E0,-1.1407489E-1,-6.703571E-2,-3.5626594E-2,1.1136178E-2,1.5776334E-2,6.031953E-2,1.1305353E-1,2.7225903E-1],"split_indices":[17,17,17,18,19,19,9,0,0,0,0,0,0,0,0],"split_type":[0,0,0,0,0,0,0,0,0,0,0,0,0,0,0],"sum_hessian":[1.512E3,8.59E2,6.53E2,3.55E2,5.04E2,5.41E2,1.12E2,2.01E2,1.54E2,2.47E2,2.57E2,2.26E2,3.15E2,8.8E1,2.4E1],"tree_param":{"num_deleted":"0","num_feature":"20","num_nodes":"15","size_leaf_vector":"1"}},{"base_weights":[2.6161864E-3,-1.4814038E0,1.9540758E0,-3.037087E0,-3.8179085E-1,1.3508743E0,4.830015E0,-9.356872E-2,1.0002026E-1,-3.4562115E-2,1.0803384E-2,1.5305142E-2,5.8515664E-2,1.23521276E-1,3.5275385E-1],"categories":[],"categories_nodes":[],"categories_segments":[],"categories_sizes":[],"default_left":[0,0,0,0,0,0,0,0,0,0,0,0,0,0,0],"id":15,"left_children":[1,3,5,7,9,11,13,-1,-1,-1,-1,-1,-1,-1,-1],"loss_changes":[4.384551E3,1.4699988E3,1.1280154E3,1.9608984E2,2.8900885E2,2.722411E2,5.0952148E2,0E0,0E0,0E0,0E0,0E0,0E0,0E0,0E0],"parents":[2147483647,0,0,1,1,2,2,3,3,4,4,5,5,6,6],"right_children":[2,4,6,8,10,12,14,-1,-1,-1,-1,-1,-1,-1,-1],"split_conditions":[1.6357143E1,1.2785714E1,2.1571428E1,2.1E1,1.5E1,1.7E1,8.1E1,-9.356872E-2,1.0002026E-1,-3.4562115E-2,1.0803384E-2,1.5305142E-2,5.8515664E-2,1.23521276E-1,3.5275385E-1],"split_indices":[17,17,17,19,19,19,14,0,0,0,0,0,0,0,0],"split_type":[0,0,0,0,0,0,0,0,0,0,0,0,0,0,0],"sum_hessian":[1.512E3,8.59E2,6.53E2,3.55E2,5.04E2,5.41E2,1.12E2,3.51E2,4E0,2.47E2,2.57E2,2.26E2,3.15E2,1.03E2,9E0],"tree_param":{"num_deleted":"0","num_feature":"20","num_nodes":"15","size_leaf_vector":"1"}},{"base_weights":[2.8899142E-3,-1.4369818E0,1.8962947E0,-2.9609516E0,-3.8025424E-1,1.3104845E0,4.689329E0,-9.703128E-2,-2.762675E-2,-2.3309367E-2,3.003533E-2,1.4848019E-2,5.676575E-2,8.383286E-2,2.1321814E-1],"categories":[],"categories_nodes":[],"categories_segments":[],"categories_sizes":[],"default_left":[0,0,0,0,0,0,0,0,0,0,0,0,0,0,0],"id":16,"left_children":[1,3,5,7,9,11,13,-1,-1,-1,-1,-1,-1,-1,-1],"loss_changes":[4.1275566E3,1.3838359E3,1.0639219E3,1.9336792E2,2.7973438E2,2.5619458E2,4.9787793E2,0E0,0E0,0E0,0E0,0E0,0E0,0E0,0E0],"parents":[2147483647,0,0,1,1,2,2,3,3,4,4,5,5,6,6],"right_children":[2,4,6,8,10,12,14,-1,-1,-1,-1,-1,-1,-1,-1],"split_conditions":[1.6357143E1,1.2714286E1,2.1571428E1,1.6E1,1.9E1,1.7E1,2.4E1,-9.703128E-2,-2.762675E-2,-2.3309367E-2,3.003533E-2,1.4848019E-2,5.676575E-2,8.383286E-2,2.1321814E-1],"split_indices":[17,17,17,19,19,19,19,0,0,0,0,0,0,0,0],"split_type":[0,0,0,0,0,0,0,0,0,0,0,0,0,0,0],"sum_hessian":[1.512E3,8.59E2,6.53E2,3.51E2,5.08E2,5.41E2,1.12E2,3.09E2,4.2E1,3.95E2,1.13E2,2.26E2,3.15E2,6.4E1,4.8E1],"tree_param":{"num_deleted":"0","num_feature":"20","num_nodes":"15","size_leaf_vector":"1"}},{"base_weights":[2.9688173E-3,-1.6171236E0,1.5891731E0,-3.2404683E0,-7.268071E-1,1.0741547E0,4.551277E0,-3.309905E-2,-1.0587748E-1,-3.0793829E-2,2.2751987E-2,-1.3219687E-1,3.4987334E-2,1.0169002E-1,2.5513673E-1],"categories":[],"categories_nodes":[],"categories_segments":[],"categories_sizes":[],"default_left":[0,0,0,0,0,0,0,0,0,0,0,0,0,0,0],"id":17,"left_children":[1,3,5,7,9,11,13,-1,-1,-1,-1,-1,-1,-1,-1],"loss_changes":[3.8906733E3,1.0801672E3,1.1621475E3,1.5965723E2,2.1662671E2,3.347201E2,4.9008765E2,0E0,0E0,0E0,0E0,0E0,0E0,0E0,0E0],"parents":[2147483647,0,0,1,1,2,2,3,3,4,4,5,5,6,6],"right_children":[2,4,6,8,10,12,14,-1,-1,-1,-1,-1,-1,-1,-1],"split_conditions":[1.5642858E1,1.15E1,2.1571428E1,7E0,1.9E1,8E0,1E0,-3.309905E-2,-1.0587748E-1,-3.0793829E-2,2.2751987E-2,-1.3219687E-1,3.4987334E-2,1.0169002E-1,2.5513673E-1],"split_indices":[17,17,17,15,19,19,9,0,0,0,0,0,0,0,0],"split_type":[0,0,0,0,0,0,0,0,0,0,0,0,0,0,0],"sum_hessian":[1.512E3,7.48E2,7.64E2,2.64E2,4.84E2,6.52E2,1.12E2,3.2E1,2.32E2,4.03E2,8.1E1,1E1,6.42E2,8.8E1,2.4E1],"tree_param":{"num_deleted":"0","num_feature":"20","num_nodes":"15","size_leaf_vector":"1"}},{"base_weights":[2.9546393E-3,-1.0909154E0,2.2346194E0,-2.7794206E0,-1.798734E-1,1.5272799E0,4.35573E0,-1.0224208E-1,-5.8266528E-2,-2.8010987E-2,1.3939667E-2,4.0276367E-2,1.9704428E-1,8.1342116E-2,2.1546547E-1],"categories":[],"categories_nodes":[],"categories_segments":[],"categories_sizes":[],"default_left":[0,0,0,0,0,0,0,0,0,0,0,0,0,0,0],"id":18,"left_children":[1,3,5,7,9,11,13,-1,-1,-1,-1,-1,-1,-1,-1],"loss_changes":[3.6959E3,1.562412E3,7.4051953E2,1.8074585E2,3.215891E2,3.4038934E2,5.568296E2,0E0,0E0,0E0,0E0,0E0,0E0,0E0,0E0],"parents":[2147483647,0,0,1,1,2,2,3,3,4,4,5,5,6,6],"right_children":[2,4,6,8,10,12,14,-1,-1,-1,-1,-1,-1,-1,-1],"split_conditions":[1.7285715E1,1.2785714E1,2.4E1,1.0866667E1,1.5E1,2.7285715E1,2.2E1,-1.0224208E-1,-5.8266528E-2,-2.8010987E-2,1.3939667E-2,4.0276367E-2,1.9704428E-1,8.1342116E-2,2.1546547E-1],"split_indices":[17,17,19,18,19,17,17,0,0,0,0,0,0,0,0],"split_type":[0,0,0,0,0,0,0,0,0,0,0,0,0,0,0],"sum_hessian":[1.512E3,1.015E3,4.97E2,3.55E2,6.6E2,3.74E2,1.23E2,2.01E2,1.54E2,3.04E2,3.56E2,3.62E2,1.2E1,7.9E1,4.4E1],"tree_param":{"num_deleted":"0","num_feature":"20","num_nodes":"15","size_leaf_vector":"1"}},{"base_weights":[3.1039868E-3,-1.0583595E0,2.1686537E0,-2.6964886E0,-1.7449819E-1,1.482095E0,4.2274513E0,-8.3237804E-2,1.0024205E-1,-2.71734E-2,1.3522656E-2,3.907143E-2,1.9158769E-1,7.893233E-2,2.0914513E-1],"categories":[],"categories_nodes":[],"categories_segments":[],"categories_sizes":[],"default_left":[0,0,0,0,0,0,0,0,0,0,0,0,0,0,0],"id":19,"left_children":[1,3,5,7,9,11,13,-1,-1,-1,-1,-1,-1,-1,-1],"loss_changes":[3.4801558E3,1.4705745E3,6.976504E2,1.7715674E2,3.0264157E2,3.221875E2,5.248435E2,0E0,0E0,0E0,0E0,0E0,0E0,0E0,0E0],"parents":[2147483647,0,0,1,1,2,2,3,3,4,4,5,5,6,6],"right_children":[2,4,6,8,10,12,14,-1,-1,-1,-1,-1,-1,-1,-1],"split_conditions":[1.7285715E1,1.2785714E1,2.4E1,2.1E1,1.5E1,2.7285715E1,2.2E1,-8.3237804E-2,1.0024205E-1,-2.71734E-2,1.3522656E-2,3.907143E-2,1.9158769E-1,7.893233E-2,2.0914513E-1],"split_indices":[17,17,19,19,19,17,17,0,0,0,0,0,0,0,0],"split_type":[0,0,0,0,0,0,0,0,0,0,0,0,0,0,0],"sum_hessian":[1.512E3,1.015E3,4.97E2,3.55E2,6.6E2,3.74E2,1.23E2,3.51E2,4E0,3.04E2,3.56E2,3.62E2,1.2E1,7.9E1,4.4E1],"tree_param":{"num_deleted":"0","num_feature":"20","num_nodes":"15","size_leaf_vector":"1"}},{"base_weights":[3.3556642E-3,-2.0111241E0,1.0821002E0,-3.0392067E0,-1.0756571E0,3.7394056E-1,3.027444E0,-9.752129E-2,1.8986472E-3,-4.0905863E-2,2.6920687E-2,-1.5245209E-2,2.8136613E-2,6.289242E-2,1.4292465E-1],"categories":[],"categories_nodes":[],"categories_segments":[],"categories_sizes":[],"default_left":[0,0,0,0,0,0,0,0,0,0,0,0,0,0,0],"id":20,"left_children":[1,3,5,7,9,11,13,-1,-1,-1,-1,-1,-1,-1,-1],"loss_changes":[3.2900898E3,5.0452856E2,1.3571951E3,1.6490845E2,1.5912054E2,3.606415E2,4.1526465E2,0E0,0E0,0E0,0E0,0E0,0E0,0E0,0E0],"parents":[2147483647,0,0,1,1,2,2,3,3,4,4,5,5,6,6],"right_children":[2,4,6,8,10,12,14,-1,-1,-1,-1,-1,-1,-1,-1],"split_conditions":[1.4428572E1,1.1357142E1,1.9142857E1,1.6E1,1.9E1,1.5E1,2.4E1,-9.752129E-2,1.8986472E-3,-4.0905863E-2,2.6920687E-2,-1.5245209E-2,2.8136613E-2,6.289242E-2,1.4292465E-1],"split_indices":[17,17,17,19,19,19,19,0,0,0,0,0,0,0,0],"split_type":[0,0,0,0,0,0,0,0,0,0,0,0,0,0,0],"sum_hessian":[1.512E3,5.27E2,9.85E2,2.5E2,2.77E2,7.23E2,2.62E2,2.34E2,1.6E1,2.42E2,3.5E1,2.82E2,4.41E2,1.72E2,9E1],"tree_param":{"num_deleted":"0","num_feature":"20","num_nodes":"15","size_leaf_vector":"1"}},{"base_weights":[3.3268724E-3,-1.246366E0,1.6466489E0,-2.8854234E0,-5.154993E-1,1.1377956E0,4.072771E0,-2.550819E-2,-9.4838396E-2,-2.5836876E-2,2.546467E-2,2.8856076E-2,1.1214157E-1,1.0178133E-1,3.2214352E-1],"categories":[],"categories_nodes":[],"categories_segments":[],"categories_sizes":[],"default_left":[0,0,0,0,0,0,0,0,0,0,0,0,0,0,0],"id":21,"left_children":[1,3,5,7,9,11,13,-1,-1,-1,-1,-1,-1,-1,-1],"loss_changes":[3.1092214E3,1.0287345E3,8.027555E2,1.4608594E2,2.8185632E2,2.4434436E2,4.7577905E2,0E0,0E0,0E0,0E0,0E0,0E0,0E0,0E0],"parents":[2147483647,0,0,1,1,2,2,3,3,4,4,5,5,6,6],"right_children":[2,4,6,8,10,12,14,-1,-1,-1,-1,-1,-1,-1,-1],"split_conditions":[1.6357143E1,1.15E1,2.1571428E1,7E0,1.9E1,2.1333334E1,8.1E1,-2.550819E-2,-9.4838396E-2,-2.5836876E-2,2.546467E-2,2.8856076E-2,1.1214157E-1,1.0178133E-1,3.2214352E-1],"split_indices":[17,17,17,15,19,18,14,0,0,0,0,0,0,0,0],"split_type":[0,0,0,0,0,0,0,0,0,0,0,0,0,0,0],"sum_hessian":[1.512E3,8.59E2,6.53E2,2.64E2,5.95E2,5.41E2,1.12E2,3.2E1,2.32E2,4.75E2,1.2E2,5.08E2,3.3E1,1.03E2,9E0],"tree_param":{"num_deleted":"0","num_feature":"20","num_nodes":"15","size_leaf_vector":"1"}},{"base_weights":[3.5205255E-3,-9.730098E-1,1.9957923E0,-2.471297E0,-1.645934E-1,1.3551705E0,3.9170616E0,-7.6372124E-2,9.7906925E-2,-2.5204362E-2,1.2390598E-2,3.5491135E-2,1.8172196E-1,7.248358E-2,1.9495071E-1],"categories":[],"categories_nodes":[],"categories_segments":[],"categories_sizes":[],"default_left":[0,0,0,0,0,0,0,0,0,0,0,0,0,0,0],"id":22,"left_children":[1,3,5,7,9,11,13,-1,-1,-1,-1,-1,-1,-1,-1],"loss_changes":[2.9455042E3,1.2302133E3,6.076338E2,1.6028613E2,2.5827438E2,2.963614E2,4.647218E2,0E0,0E0,0E0,0E0,0E0,0E0,0E0,0E0],"parents":[2147483647,0,0,1,1,2,2,3,3,4,4,5,5,6,6],"right_children":[2,4,6,8,10,12,14,-1,-1,-1,-1,-1,-1,-1,-1],"split_conditions":[1.7285715E1,1.2785714E1,2.4E1,2.1E1,1.5E1,2.7285715E1,2.2E1,-7.6372124E-2,9.7906925E-2,-2.5204362E-2,1.2390598E-2,3.5491135E-2,1.8172196E-1,7.248358E-2,1.9495071E-1],"split_indices":[17,17,19,19,19,17,17,0,0,0,0,0,0,0,0],"split_type":[0,0,0,0,0,0,0,0,0,0,0,0,0,0,0],"sum_hessian":[1.512E3,1.015E3,4.97E2,3.55E2,6.6E2,3.74E2,1.23E2,3.51E2,4E0,3.04E2,3.56E2,3.62E2,1.2E1,7.9E1,4.4E1],"tree_param":{"num_deleted":"0","num_feature":"20","num_nodes":"15","size_leaf_vector":"1"}},{"base_weights":[3.7410115E-3,-9.438107E-1,1.9368912E0,-2.40983E0,-1.663932E-1,1.3150938E0,3.8017068E0,-9.308664E-2,-5.121218E-2,-2.4629971E-2,1.2019934E-2,3.4429308E-2,1.7668964E-1,6.6604935E-2,1.8531376E-1],"categories":[],"categories_nodes":[],"categories_segments":[],"categories_sizes":[],"default_left":[0,0,0,0,0,0,0,0,0,0,0,0,0,0,0],"id":23,"left_children":[1,3,5,7,9,11,13,-1,-1,-1,-1,-1,-1,-1,-1],"loss_changes":[2.7732805E3,1.1575435E3,5.7244995E2,1.6614526E2,2.4717645E2,2.8049475E2,4.521322E2,0E0,0E0,0E0,0E0,0E0,0E0,0E0,0E0],"parents":[2147483647,0,0,1,1,2,2,3,3,4,4,5,5,6,6],"right_children":[2,4,6,8,10,12,14,-1,-1,-1,-1,-1,-1,-1,-1],"split_conditions":[1.7285715E1,1.2714286E1,2.4E1,1.1E1,1.5E1,2.7285715E1,6.9E1,-9.308664E-2,-5.121218E-2,-2.4629971E-2,1.2019934E-2,3.4429308E-2,1.7668964E-1,6.6604935E-2,1.8531376E-1],"split_indices":[17,17,19,19,19,17,14,0,0,0,0,0,0,0,0],"split_type":[0,0,0,0,0,0,0,0,0,0,0,0,0,0,0],"sum_hessian":[1.512E3,1.015E3,4.97E2,3.51E2,6.64E2,3.74E2,1.23E2,1.75E2,1.76E2,3.08E2,3.56E2,3.62E2,1.2E1,7.5E1,4.8E1],"tree_param":{"num_deleted":"0","num_feature":"20","num_nodes":"15","size_leaf_vector":"1"}},{"base_weights":[3.8309193E-3,-1.7949514E0,9.670695E-1,-2.7125847E0,-9.5998406E-1,3.140101E-1,2.6801958E0,-8.740832E-2,6.7760143E-3,-3.4827832E-2,4.2931184E-2,1.1653902E-3,5.6315836E-2,5.587564E-2,1.2858276E-1],"categories":[],"categories_nodes":[],"categories_segments":[],"categories_sizes":[],"default_left":[0,0,0,0,0,0,0,0,0,0,0,0,0,0,0],"id":24,"left_children":[1,3,5,7,9,11,13,-1,-1,-1,-1,-1,-1,-1,-1],"loss_changes":[2.623245E3,4.019464E2,1.1022689E3,1.4892505E2,1.3522952E2,3.0747125E2,3.4918042E2,0E0,0E0,0E0,0E0,0E0,0E0,0E0,0E0],"parents":[2147483647,0,0,1,1,2,2,3,3,4,4,5,5,6,6],"right_children":[2,4,6,8,10,12,14,-1,-1,-1,-1,-1,-1,-1,-1],"split_conditions":[1.4428572E1,1.1357142E1,1.9071428E1,1.6E1,2E1,1E0,2.4E1,-8.740832E-2,6.7760143E-3,-3.4827832E-2,4.2931184E-2,1.1653902E-3,5.6315836E-2,5.587564E-2,1.2858276E-1],"split_indices":[17,17,17,19,19,4,19,0,0,0,0,0,0,0,0],"split_type":[0,0,0,0,0,0,0,0,0,0,0,0,0,0,0],"sum_hessian":[1.512E3,5.27E2,9.85E2,2.5E2,2.77E2,7.14E2,2.71E2,2.34E2,1.6E1,2.56E2,2.1E1,6.08E2,1.06E2,1.81E2,9E1],"tree_param":{"num_deleted":"0","num_feature":"20","num_nodes":"15","size_leaf_vector":"1"}},{"base_weights":[3.8279996E-3,-1.112397E0,1.4716408E0,-2.6315286E0,-4.854879E-1,1.0125552E0,3.6606028E0,-8.479723E-2,6.5846965E-3,-2.4229094E-2,2.4291793E-2,2.536462E-2,1.04516394E-1,9.0247296E-2,3.023725E-1],"categories":[],"categories_nodes":[],"categories_segments":[],"categories_sizes":[],"default_left":[0,0,0,0,0,0,0,0,0,0,0,0,0,0,0],"id":25,"left_children":[1,3,5,7,9,11,13,-1,-1,-1,-1,-1,-1,-1,-1],"loss_changes":[2.48055E3,8.1775E2,6.535117E2,1.4019629E2,2.5517737E2,2.2083496E2,4.4282837E2,0E0,0E0,0E0,0E0,0E0,0E0,0E0,0E0],"parents":[2147483647,0,0,1,1,2,2,3,3,4,4,5,5,6,6],"right_children":[2,4,6,8,10,12,14,-1,-1,-1,-1,-1,-1,-1,-1],"split_conditions":[1.6357143E1,1.1357142E1,2.1571428E1,1.6E1,1.9E1,2.1333334E1,8.1E1,-8.479723E-2,6.5846965E-3,-2.4229094E-2,2.4291793E-2,2.536462E-2,1.04516394E-1,9.0247296E-2,3.023725E-1],"split_indices":[17,17,17,19,19,18,14,0,0,0,0,0,0,0,0],"split_type":[0,0,0,0,0,0,0,0,0,0,0,0,0,0,0],"sum_hessian":[1.512E3,8.59E2,6.53E2,2.5E2,6.09E2,5.41E2,1.12E2,2.34E2,1.6E1,4.88E2,1.21E2,5.08E2,3.3E1,1.03E2,9E0],"tree_param":{"num_deleted":"0","num_feature":"20","num_nodes":"15","size_leaf_vector":"1"}},{"base_weights":[4.006899E-3,-8.681093E-1,1.7832559E0,-2.197262E0,-1.5094367E-1,1.2026659E0,3.5246913E0,-3.1673845E-2,-7.67079E-2,-2.3141555E-2,1.1386448E-2,3.0391213E-2,1.4721876E-1,6.050235E-2,1.7374843E-1],"categories":[],"categories_nodes":[],"categories_segments":[],"categories_sizes":[],"default_left":[0,0,0,0,0,0,0,0,0,0,0,0,0,0,0],"id":26,"left_children":[1,3,5,7,9,11,13,-1,-1,-1,-1,-1,-1,-1,-1],"loss_changes":[2.3492883E3,9.681426E2,4.9926868E2,1.4345593E2,2.1785379E2,2.584632E2,4.1220142E2,0E0,0E0,0E0,0E0,0E0,0E0,0E0,0E0],"parents":[2147483647,0,0,1,1,2,2,3,3,4,4,5,5,6,6],"right_children":[2,4,6,8,10,12,14,-1,-1,-1,-1,-1,-1,-1,-1],"split_conditions":[1.7285715E1,1.2785714E1,2.4E1,1.8E1,1.5E1,2.4642857E1,6.9E1,-3.1673845E-2,-7.67079E-2,-2.3141555E-2,1.1386448E-2,3.0391213E-2,1.4721876E-1,6.050235E-2,1.7374843E-1],"split_indices":[17,17,19,15,19,17,14,0,0,0,0,0,0,0,0],"split_type":[0,0,0,0,0,0,0,0,0,0,0,0,0,0,0],"sum_hessian":[1.512E3,1.015E3,4.97E2,3.55E2,6.6E2,3.74E2,1.23E2,8.6E1,2.69E2,3.04E2,3.56E2,3.57E2,1.7E1,7.5E1,4.8E1],"tree_param":{"num_deleted":"0","num_feature":"20","num_nodes":"15","size_leaf_vector":"1"}},{"base_weights":[4.0793014E-3,-1.6477529E0,8.886263E-1,-2.6778438E0,-1.0063885E0,2.8526425E-1,2.471403E0,-5.05669E-2,-9.197421E-2,-6.7311294E-2,-1.1578725E-2,5.6830526E-4,5.3951588E-2,8.571498E-2,-1.5333227E-2],"categories":[],"categories_nodes":[],"categories_segments":[],"categories_sizes":[],"default_left":[0,0,0,0,0,0,0,0,0,0,0,0,0,0,0],"id":27,"left_children":[1,3,5,7,9,11,13,-1,-1,-1,-1,-1,-1,-1,-1],"loss_changes":[2.2121438E3,3.4613538E2,9.409124E2,7.259595E1,2.5016293E2,2.8809363E2,3.1440796E2,0E0,0E0,0E0,0E0,0E0,0E0,0E0,0E0],"parents":[2147483647,0,0,1,1,2,2,3,3,4,4,5,5,6,6],"right_children":[2,4,6,8,10,12,14,-1,-1,-1,-1,-1,-1,-1,-1],"split_conditions":[1.4428572E1,1.0866667E1,1.9071428E1,9.733334E0,1.1E1,1E0,2E-1,-5.05669E-2,-9.197421E-2,-6.7311294E-2,-1.1578725E-2,5.6830526E-4,5.3951588E-2,8.571498E-2,-1.5333227E-2],"split_indices":[17,18,17,18,19,4,16,0,0,0,0,0,0,0,0],"split_type":[0,0,0,0,0,0,0,0,0,0,0,0,0,0,0],"sum_hessian":[1.512E3,5.27E2,9.85E2,2.01E2,3.26E2,7.14E2,2.71E2,5.8E1,1.43E2,1.08E2,2.18E2,6.08E2,1.06E2,2.4E2,3.1E1],"tree_param":{"num_deleted":"0","num_feature":"20","num_nodes":"15","size_leaf_vector":"1"}},{"base_weights":[3.8931968E-3,-8.2071644E-1,1.6862215E0,-2.0831878E0,-1.512268E-1,1.127622E0,3.3619359E0,-2.7764896E-2,-7.327779E-2,-2.2391533E-2,1.0929997E-2,2.9170388E-2,1.6129975E-1,5.9732508E-2,1.717289E-1],"categories":[],"categories_nodes":[],"categories_segments":[],"categories_sizes":[],"default_left":[0,0,0,0,0,0,0,0,0,0,0,0,0,0,0],"id":28,"left_children":[1,3,5,7,9,11,13,-1,-1,-1,-1,-1,-1,-1,-1],"loss_changes":[2.1003145E3,8.584199E2,4.6236328E2,1.4419946E2,2.043202E2,2.4218665E2,3.9016992E2,0E0,0E0,0E0,0E0,0E0,0E0,0E0,0E0],"parents":[2147483647,0,0,1,1,2,2,3,3,4,4,5,5,6,6],"right_children":[2,4,6,8,10,12,14,-1,-1,-1,-1,-1,-1,-1,-1],"split_conditions":[1.7285715E1,1.2714286E1,2.4E1,1.8E1,1.5E1,2.7285715E1,2.2E1,-2.7764896E-2,-7.327779E-2,-2.2391533E-2,1.0929997E-2,2.9170388E-2,1.6129975E-1,5.9732508E-2,1.717289E-1],"split_indices":[17,17,19,15,19,17,17,0,0,0,0,0,0,0,0],"split_type":[0,0,0,0,0,0,0,0,0,0,0,0,0,0,0],"sum_hessian":[1.512E3,1.015E3,4.97E2,3.51E2,6.64E2,3.74E2,1.23E2,8.4E1,2.67E2,3.08E2,3.56E2,3.62E2,1.2E1,7.9E1,4.4E1],"tree_param":{"num_deleted":"0","num_feature":"20","num_nodes":"15","size_leaf_vector":"1"}},{"base_weights":[3.980852E-3,-1.1525141E0,1.1362824E0,-2.3554578E0,-5.4511654E-1,7.6137376E-1,3.2927349E0,-7.6243155E-2,1.0620226E-2,-3.766983E-2,-4.2073834E-3,-1.2671441E-1,2.5364183E-2,1.20571226E-1,-5.1612E-2],"categories":[],"categories_nodes":[],"categories_segments":[],"categories_sizes":[],"default_left":[0,0,0,0,0,0,0,0,0,0,0,0,0,0,0],"id":29,"left_children":[1,3,5,7,9,11,13,-1,-1,-1,-1,-1,-1,-1,-1],"loss_changes":[1.9825848E3,5.459843E2,6.159747E2,1.27380615E2,1.4337546E2,2.7734097E2,4.1835535E2,0E0,0E0,0E0,0E0,0E0,0E0,0E0,0E0],"parents":[2147483647,0,0,1,1,2,2,3,3,4,4,5,5,6,6],"right_children":[2,4,6,8,10,12,14,-1,-1,-1,-1,-1,-1,-1,-1],"split_conditions":[1.5642858E1,1.1357142E1,2.1571428E1,1.6E1,1.4133333E1,8E0,2E-1,-7.6243155E-2,1.0620226E-2,-3.766983E-2,-4.2073834E-3,-1.2671441E-1,2.5364183E-2,1.20571226E-1,-5.1612E-2],"split_indices":[17,17,17,19,18,19,16,0,0,0,0,0,0,0,0],"split_type":[0,0,0,0,0,0,0,0,0,0,0,0,0,0,0],"sum_hessian":[1.512E3,7.48E2,7.64E2,2.5E2,4.98E2,6.52E2,1.12E2,2.34E2,1.6E1,1.8E2,3.18E2,1E1,6.42E2,9.8E1,1.4E1],"tree_param":{"num_deleted":"0","num_feature":"20","num_nodes":"15","size_leaf_vector":"1"}},{"base_weights":[3.7692147E-3,-7.626311E-1,1.6248716E0,-1.9432606E0,-1.261749E-1,1.0627573E0,3.2932887E0,-6.406071E-2,1.735732E-1,-1.1303122E-2,4.2898614E-2,2.7313791E-2,1.5349406E-1,5.627898E-2,1.6099575E-1],"categories":[],"categories_nodes":[],"categories_segments":[],"categories_sizes":[],"default_left":[0,0,0,0,0,0,0,0,0,0,0,0,0,0,0],"id":30,"left_children":[1,3,5,7,9,11,13,-1,-1,-1,-1,-1,-1,-1,-1],"loss_changes":[1.8810109E3,7.722135E2,4.522909E2,5.468544E2,2.6142157E2,2.2068173E2,3.4842297E2,0E0,0E0,0E0,0E0,0E0,0E0,0E0,0E0],"parents":[2147483647,0,0,1,1,2,2,3,3,4,4,5,5,6,6],"right_children":[2,4,6,8,10,12,14,-1,-1,-1,-1,-1,-1,-1,-1],"split_conditions":[1.7357143E1,1.3033334E1,2.4E1,2.1E1,1E0,2.7285715E1,6.9E1,-6.406071E-2,1.735732E-1,-1.1303122E-2,4.2898614E-2,2.7313791E-2,1.5349406E-1,5.627898E-2,1.6099575E-1],"split_indices":[17,18,19,19,4,17,14,0,0,0,0,0,0,0,0],"split_type":[0,0,0,0,0,0,0,0,0,0,0,0,0,0,0],"sum_hessian":[1.512E3,1.027E3,4.85E2,3.59E2,6.68E2,3.64E2,1.21E2,3.51E2,8E0,5.76E2,9.2E1,3.52E2,1.2E1,7.3E1,4.8E1],"tree_param":{"num_deleted":"0","num_feature":"20","num_nodes":"15","size_leaf_vector":"1"}},{"base_weights":[4.0127533E-3,-6.397309E-1,1.8276713E0,-1.9056662E0,-5.867755E-2,1.2108893E0,3.3753355E0,-7.594304E-2,-3.8180005E-2,-1.8278701E-2,1.1335263E-2,3.079637E-2,1.4924346E-1,1.2167474E-1,-3.8866486E-2],"categories":[],"categories_nodes":[],"categories_segments":[],"categories_sizes":[],"default_left":[0,0,0,0,0,0,0,0,0,0,0,0,0,0,0],"id":31,"left_children":[1,3,5,7,9,11,13,-1,-1,-1,-1,-1,-1,-1,-1],"loss_changes":[1.7773837E3,8.229977E2,3.729685E2,1.3620935E2,1.8482144E2,1.9194656E2,3.6124512E2,0E0,0E0,0E0,0E0,0E0,0E0,0E0,0E0],"parents":[2147483647,0,0,1,1,2,2,3,3,4,4,5,5,6,6],"right_children":[2,4,6,8,10,12,14,-1,-1,-1,-1,-1,-1,-1,-1],"split_conditions":[1.7928572E1,1.2714286E1,2.4E1,1.1E1,1.5E1,2.7285715E1,9E-2,-7.594304E-2,-3.8180005E-2,-1.8278701E-2,1.1335263E-2,3.079637E-2,1.4924346E-1,1.2167474E-1,-3.8866486E-2],"split_indices":[17,17,19,19,19,17,16,0,0,0,0,0,0,0,0],"split_type":[0,0,0,0,0,0,0,0,0,0,0,0,0,0,0],"sum_hessian":[1.512E3,1.118E3,3.94E2,3.51E2,7.67E2,2.83E2,1.11E2,1.75E2,1.76E2,3.39E2,4.28E2,2.71E2,1.2E1,9.7E1,1.4E1],"tree_param":{"num_deleted":"0","num_feature":"20","num_nodes":"15","size_leaf_vector":"1"}},{"base_weights":[3.9861435E-3,-9.136341E-1,1.2106367E0,-2.1660688E0,-3.9679033E-1,7.6664877E-1,2.880528E0,-7.030111E-2,1.2368473E-2,-2.0562202E-2,2.28988E-2,1.9193653E-2,1.2765008E-1,5.1238075E-2,1.571962E-1],"categories":[],"categories_nodes":[],"categories_segments":[],"categories_sizes":[],"default_left":[0,0,0,0,0,0,0,0,0,0,0,0,0,0,0],"id":32,"left_children":[1,3,5,7,9,11,13,-1,-1,-1,-1,-1,-1,-1,-1],"loss_changes":[1.6763708E3,5.558298E2,4.8267474E2,1.1570984E2,2.047629E2,2.2651022E2,3.700681E2,0E0,0E0,0E0,0E0,0E0,0E0,0E0,0E0],"parents":[2147483647,0,0,1,1,2,2,3,3,4,4,5,5,6,6],"right_children":[2,4,6,8,10,12,14,-1,-1,-1,-1,-1,-1,-1,-1],"split_conditions":[1.6357143E1,1.1357142E1,2.4E1,1.6E1,1.9E1,2.4642857E1,2.2E1,-7.030111E-2,1.2368473E-2,-2.0562202E-2,2.28988E-2,1.9193653E-2,1.2765008E-1,5.1238075E-2,1.571962E-1],"split_indices":[17,17,19,19,19,17,17,0,0,0,0,0,0,0,0],"split_type":[0,0,0,0,0,0,0,0,0,0,0,0,0,0,0],"sum_hessian":[1.512E3,8.59E2,6.53E2,2.5E2,6.09E2,5.17E2,1.36E2,2.34E2,1.6E1,4.88E2,1.21E2,5E2,1.7E1,9.2E1,4.4E1],"tree_param":{"num_deleted":"0","num_feature":"20","num_nodes":"15","size_leaf_vector":"1"}},{"base_weights":[4.064537E-3,-6.047902E-1,1.7288859E0,-1.786053E0,-4.444896E-2,2.0415044E0,-9.472064E-1,-5.911007E-2,1.6859701E-1,-8.077948E-3,3.9902262E-2,4.129082E-2,1.10820875E-1,-5.176642E-2,9.573017E-2],"categories":[],"categories_nodes":[],"categories_segments":[],"categories_sizes":[],"default_left":[0,0,0,0,0,0,0,0,0,0,0,0,0,0,0],"id":33,"left_children":[1,3,5,7,9,11,13,-1,-1,-1,-1,-1,-1,-1,-1],"loss_changes":[1.5899462E3,7.4059827E2,3.3238928E2,5.0239734E2,2.3520963E2,3.8402063E2,1.4078574E2,0E0,0E0,0E0,0E0,0E0,0E0,0E0,0E0],"parents":[2147483647,0,0,1,1,2,2,3,3,4,4,5,5,6,6],"right_children":[2,4,6,8,10,12,14,-1,-1,-1,-1,-1,-1,-1,-1],"split_conditions":[1.7928572E1,1.3033334E1,2E-1,2.1E1,1E0,2.4E1,2.9E1,-5.911007E-2,1.6859701E-1,-8.077948E-3,3.9902262E-2,4.129082E-2,1.10820875E-1,-5.176642E-2,9.573017E-2],"split_indices":[17,18,16,19,4,19,19,0,0,0,0,0,0,0,0],"split_type":[0,0,0,0,0,0,0,0,0,0,0,0,0,0,0],"sum_hessian":[1.512E3,1.118E3,3.94E2,3.59E2,7.59E2,3.53E2,4.1E1,3.51E2,8E0,6.53E2,1.06E2,2.53E2,1E2,3.5E1,6E0],"tree_param":{"num_deleted":"0","num_feature":"20","num_nodes":"15","size_leaf_vector":"1"}},{"base_weights":[4.165498E-3,-1.0016372E0,9.8892635E-1,-2.046482E0,-4.7406662E-1,6.576538E-1,2.8945196E0,-6.650658E-2,1.2884563E-2,-2.2576973E-2,1.3872676E-2,2.7312584E-2,-2.622497E-2,6.834029E-2,2.705031E-1],"categories":[],"categories_nodes":[],"categories_segments":[],"categories_sizes":[],"default_left":[0,0,0,0,0,0,0,0,0,0,0,0,0,0,0],"id":34,"left_children":[1,3,5,7,9,11,13,-1,-1,-1,-1,-1,-1,-1,-1],"loss_changes":[1.4995793E3,4.119007E2,4.810185E2,1.0685266E2,1.3049292E2,2.5363187E2,4.059699E2,0E0,0E0,0E0,0E0,0E0,0E0,0E0,0E0],"parents":[2147483647,0,0,1,1,2,2,3,3,4,4,5,5,6,6],"right_children":[2,4,6,8,10,12,14,-1,-1,-1,-1,-1,-1,-1,-1],"split_conditions":[1.5642858E1,1.1357142E1,2.1571428E1,1.6E1,6.1E1,1E0,8.1E1,-6.650658E-2,1.2884563E-2,-2.2576973E-2,1.3872676E-2,2.7312584E-2,-2.622497E-2,6.834029E-2,2.705031E-1],"split_indices":[17,17,17,19,15,1,14,0,0,0,0,0,0,0,0],"split_type":[0,0,0,0,0,0,0,0,0,0,0,0,0,0,0],"sum_hessian":[1.512E3,7.48E2,7.64E2,2.5E2,4.98E2,6.52E2,1.12E2,2.34E2,1.6E1,3.84E2,1.14E2,5.6E2,9.2E1,1.03E2,9E0],"tree_param":{"num_deleted":"0","num_feature":"20","num_nodes":"15","size_leaf_vector":"1"}},{"base_weights":[4.2238096E-3,-5.7286257E-1,1.6390476E0,-1.6875404E0,-4.410349E-2,1.9417615E0,-9.5142233E-1,-5.5981923E-2,1.6446677E-1,-7.842322E-3,3.8535696E-2,3.9060876E-2,1.0594103E-1,-5.1206622E-2,9.209233E-2],"categories":[],"categories_nodes":[],"categories_segments":[],"categories_sizes":[],"default_left":[0,0,0,0,0,0,0,0,0,0,0,0,0,0,0],"id":35,"left_children":[1,3,5,7,9,11,13,-1,-1,-1,-1,-1,-1,-1,-1],"loss_changes":[1.4283555E3,6.594597E2,3.1159485E2,4.7102063E2,2.1976318E2,3.553927E2,1.3282947E2,0E0,0E0,0E0,0E0,0E0,0E0,0E0,0E0],"parents":[2147483647,0,0,1,1,2,2,3,3,4,4,5,5,6,6],"right_children":[2,4,6,8,10,12,14,-1,-1,-1,-1,-1,-1,-1,-1],"split_conditions":[1.7928572E1,1.3033334E1,2E-1,2.1E1,1E0,2.4E1,2.9E1,-5.5981923E-2,1.6446677E-1,-7.842322E-3,3.8535696E-2,3.9060876E-2,1.0594103E-1,-5.1206622E-2,9.209233E-2],"split_indices":[17,18,16,19,4,19,19,0,0,0,0,0,0,0,0],"split_type":[0,0,0,0,0,0,0,0,0,0,0,0,0,0,0],"sum_hessian":[1.512E3,1.118E3,3.94E2,3.59E2,7.59E2,3.53E2,4.1E1,3.51E2,8E0,6.53E2,1.06E2,2.53E2,1E2,3.5E1,6E0],"tree_param":{"num_deleted":"0","num_feature":"20","num_nodes":"15","size_leaf_vector":"1"}},{"base_weights":[4.311914E-3,-6.561476E-1,1.3517467E0,-1.9334021E0,-2.3676506E-1,9.0029085E-1,2.7061353E0,-6.291495E-2,1.3323382E-2,-1.5348932E-2,2.0832613E-2,2.2978837E-2,1.3745804E-1,4.0698268E-2,1.4232153E-1],"categories":[],"categories_nodes":[],"categories_segments":[],"categories_sizes":[],"default_left":[0,0,0,0,0,0,0,0,0,0,0,0,0,0,0],"id":36,"left_children":[1,3,5,7,9,11,13,-1,-1,-1,-1,-1,-1,-1,-1],"loss_changes":[1.3473452E3,5.43771E2,3.0206415E2,9.865808E1,1.9641397E2,1.8194812E2,3.3459167E2,0E0,0E0,0E0,0E0,0E0,0E0,0E0,0E0],"parents":[2147483647,0,0,1,1,2,2,3,3,4,4,5,5,6,6],"right_children":[2,4,6,8,10,12,14,-1,-1,-1,-1,-1,-1,-1,-1],"split_conditions":[1.7285715E1,1.1357142E1,2.4E1,1.6E1,1.9E1,2.7285715E1,6.9E1,-6.291495E-2,1.3323382E-2,-1.5348932E-2,2.0832613E-2,2.2978837E-2,1.3745804E-1,4.0698268E-2,1.4232153E-1],"split_indices":[17,17,19,19,19,17,14,0,0,0,0,0,0,0,0],"split_type":[0,0,0,0,0,0,0,0,0,0,0,0,0,0,0],"sum_hessian":[1.512E3,1.015E3,4.97E2,2.5E2,7.65E2,3.74E2,1.23E2,2.34E2,1.6E1,5.91E2,1.74E2,3.62E2,1.2E1,7.5E1,4.8E1],"tree_param":{"num_deleted":"0","num_feature":"20","num_nodes":"15","size_leaf_vector":"1"}},{"base_weights":[4.380336E-3,-5.402967E-1,1.5473909E0,-1.5548977E0,-2.0628523E-2,1.8409218E0,-9.63497E-1,-5.162612E-2,1.24622956E-1,-7.3584453E-3,3.982452E-2,3.7044737E-2,1.0040817E-1,-5.062654E-2,8.693561E-2],"categories":[],"categories_nodes":[],"categories_segments":[],"categories_sizes":[],"default_left":[0,0,0,0,0,0,0,0,0,0,0,0,0,0,0],"id":37,"left_children":[1,3,5,7,9,11,13,-1,-1,-1,-1,-1,-1,-1,-1],"loss_changes":[1.2724254E3,5.8996716E2,2.9289783E2,3.6626624E2,2.2474303E2,3.1899573E2,1.2231503E2,0E0,0E0,0E0,0E0,0E0,0E0,0E0,0E0],"parents":[2147483647,0,0,1,1,2,2,3,3,4,4,5,5,6,6],"right_children":[2,4,6,8,10,12,14,-1,-1,-1,-1,-1,-1,-1,-1],"split_conditions":[1.7928572E1,1.3533334E1,2E-1,2.1E1,1E0,2.4E1,2.9E1,-5.162612E-2,1.24622956E-1,-7.3584453E-3,3.982452E-2,3.7044737E-2,1.0040817E-1,-5.062654E-2,8.693561E-2],"split_indices":[17,18,16,19,4,19,19,0,0,0,0,0,0,0,0],"split_type":[0,0,0,0,0,0,0,0,0,0,0,0,0,0,0],"sum_hessian":[1.512E3,1.118E3,3.94E2,3.78E2,7.4E2,3.53E2,4.1E1,3.68E2,1E1,6.35E2,1.05E2,2.53E2,1E2,3.5E1,6E0],"tree_param":{"num_deleted":"0","num_feature":"20","num_nodes":"15","size_leaf_vector":"1"}},{"base_weights":[4.433525E-3,-7.735253E-1,1.0274307E0,-1.7448152E0,-2.9912582E-1,6.910954E-1,2.631557E0,-6.4143516E-2,-2.4243772E-2,-5.5887774E-2,-8.9970557E-4,1.8782215E-2,1.9186027E-1,1.027983E-1,-5.2647687E-2],"categories":[],"categories_nodes":[],"categories_segments":[],"categories_sizes":[],"default_left":[0,0,0,0,0,0,0,0,0,0,0,0,0,0,0],"id":38,"left_children":[1,3,5,7,9,11,13,-1,-1,-1,-1,-1,-1,-1,-1],"loss_changes":[1.2049153E3,3.957484E2,3.510302E2,1.0216144E2,2.4363036E2,1.9702328E2,4.0009918E2,0E0,0E0,0E0,0E0,0E0,0E0,0E0,0E0],"parents":[2147483647,0,0,1,1,2,2,3,3,4,4,5,5,6,6],"right_children":[2,4,6,8,10,12,14,-1,-1,-1,-1,-1,-1,-1,-1],"split_conditions":[1.6357143E1,1.1E1,2.1571428E1,6.9E1,1.0866667E1,2.5966667E1,6.1E1,-6.4143516E-2,-2.4243772E-2,-5.5887774E-2,-8.9970557E-4,1.8782215E-2,1.9186027E-1,1.027983E-1,-5.2647687E-2],"split_indices":[17,19,17,14,18,18,15,0,0,0,0,0,0,0,0],"split_type":[0,0,0,0,0,0,0,0,0,0,0,0,0,0,0],"sum_hessian":[1.512E3,8.59E2,6.53E2,2.81E2,5.78E2,5.41E2,1.12E2,1.97E2,8.4E1,8.4E1,4.94E2,5.36E2,5E0,9.5E1,1.7E1],"tree_param":{"num_deleted":"0","num_feature":"20","num_nodes":"15","size_leaf_vector":"1"}},{"base_weights":[4.377021E-3,-1.181413E0,6.393596E-1,-1.9194832E0,-6.2700635E-1,1.9214378E-1,1.8125947E0,-7.1364805E-2,-1.8269558E-2,-5.4230854E-2,-4.9765515E-3,-1.1440263E-3,4.5029867E-2,6.558616E-2,-2.092079E-2],"categories":[],"categories_nodes":[],"categories_segments":[],"categories_sizes":[],"default_left":[0,0,0,0,0,0,0,0,0,0,0,0,0,0,0],"id":39,"left_children":[1,3,5,7,9,11,13,-1,-1,-1,-1,-1,-1,-1,-1],"loss_changes":[1.1399779E3,2.1484937E2,5.1699536E2,1.3459625E2,1.6466566E2,2.1555809E2,2.565915E2,0E0,0E0,0E0,0E0,0E0,0E0,0E0,0E0],"parents":[2147483647,0,0,1,1,2,2,3,3,4,4,5,5,6,6],"right_children":[2,4,6,8,10,12,14,-1,-1,-1,-1,-1,-1,-1,-1],"split_conditions":[1.4428572E1,1.1E1,1.9071428E1,6.9E1,1.0866667E1,1E0,6.1E1,-7.1364805E-2,-1.8269558E-2,-5.4230854E-2,-4.9765515E-3,-1.1440263E-3,4.5029867E-2,6.558616E-2,-2.092079E-2],"split_indices":[17,19,17,14,18,4,15,0,0,0,0,0,0,0,0],"split_type":[0,0,0,0,0,0,0,0,0,0,0,0,0,0,0],"sum_hessian":[1.512E3,5.27E2,9.85E2,2.25E2,3.02E2,7.14E2,2.71E2,1.66E2,5.9E1,8.4E1,2.18E2,6.08E2,1.06E2,2.36E2,3.5E1],"tree_param":{"num_deleted":"0","num_feature":"20","num_nodes":"15","size_leaf_vector":"1"}},{"base_weights":[4.2059175E-3,-4.9698985E-1,1.4240384E0,-1.4330729E0,-1.7539814E-2,1.7068092E0,-9.9322045E-1,-4.777486E-2,1.21353075E-1,-6.906183E-3,3.77587E-2,3.371708E-2,9.467499E-2,-5.0876096E-2,8.286884E-2],"categories":[],"categories_nodes":[],"categories_segments":[],"categories_sizes":[],"default_left":[0,0,0,0,0,0,0,0,0,0,0,0,0,0,0],"id":40,"left_children":[1,3,5,7,9,11,13,-1,-1,-1,-1,-1,-1,-1,-1],"loss_changes":[1.0773798E3,5.021877E2,2.7168958E2,3.3743903E2,2.0139484E2,2.9545764E2,1.1551454E2,0E0,0E0,0E0,0E0,0E0,0E0,0E0,0E0],"parents":[2147483647,0,0,1,1,2,2,3,3,4,4,5,5,6,6],"right_children":[2,4,6,8,10,12,14,-1,-1,-1,-1,-1,-1,-1,-1],"split_conditions":[1.7928572E1,1.3533334E1,2E-1,2.1E1,1E0,2.4E1,2.9E1,-4.777486E-2,1.21353075E-1,-6.906183E-3,3.77587E-2,3.371708E-2,9.467499E-2,-5.0876096E-2,8.286884E-2],"split_indices":[17,18,16,19,4,19,19,0,0,0,0,0,0,0,0],"split_type":[0,0,0,0,0,0,0,0,0,0,0,0,0,0,0],"sum_hessian":[1.512E3,1.118E3,3.94E2,3.78E2,7.4E2,3.53E2,4.1E1,3.68E2,1E1,6.35E2,1.05E2,2.53E2,1E2,3.5E1,6E0],"tree_param":{"num_deleted":"0","num_feature":"20","num_nodes":"15","size_leaf_vector":"1"}},{"base_weights":[4.2551933E-3,-8.2592505E-1,8.1706667E-1,-1.8351607E0,-4.524004E-1,5.3302E-1,2.4512734E0,-2.5560863E-2,-6.675683E-2,3.496292E-2,-1.8089082E-2,-1.228665E-1,1.8341204E-2,5.5578724E-2,2.5296295E-1],"categories":[],"categories_nodes":[],"categories_segments":[],"categories_sizes":[],"default_left":[0,0,0,0,0,0,0,0,0,0,0,0,0,0,0],"id":41,"left_children":[1,3,5,7,9,11,13,-1,-1,-1,-1,-1,-1,-1,-1],"loss_changes":[1.02161707E3,2.815236E2,3.5379953E2,7.556848E1,1.3419293E2,2.393237E2,3.889655E2,0E0,0E0,0E0,0E0,0E0,0E0,0E0,0E0],"parents":[2147483647,0,0,1,1,2,2,3,3,4,4,5,5,6,6],"right_children":[2,4,6,8,10,12,14,-1,-1,-1,-1,-1,-1,-1,-1],"split_conditions":[1.5642858E1,1.0866667E1,2.1571428E1,9.733334E0,1E0,8E0,8.1E1,-2.5560863E-2,-6.675683E-2,3.496292E-2,-1.8089082E-2,-1.228665E-1,1.8341204E-2,5.5578724E-2,2.5296295E-1],"split_indices":[17,18,17,18,15,19,14,0,0,0,0,0,0,0,0],"split_type":[0,0,0,0,0,0,0,0,0,0,0,0,0,0,0],"sum_hessian":[1.512E3,7.48E2,7.64E2,2.01E2,5.47E2,6.52E2,1.12E2,5.8E1,1.43E2,4.6E1,5.01E2,1E1,6.42E2,1.03E2,9E0],"tree_param":{"num_deleted":"0","num_feature":"20","num_nodes":"15","size_leaf_vector":"1"}},{"base_weights":[4.2127427E-3,-5.55421E-1,1.145947E0,-1.6411269E0,-1.9893588E-1,7.4867314E-1,2.3381386E0,-3.5737525E-3,-5.6129254E-2,-1.1631461E-2,2.8644316E-2,1.7999612E-2,1.0992843E-1,3.1311013E-2,1.2894364E-1],"categories":[],"categories_nodes":[],"categories_segments":[],"categories_sizes":[],"default_left":[0,0,0,0,0,0,0,0,0,0,0,0,0,0,0],"id":42,"left_children":[1,3,5,7,9,11,13,-1,-1,-1,-1,-1,-1,-1,-1],"loss_changes":[9.6737244E2,3.9290408E2,2.3411548E2,8.758435E1,1.672078E2,1.6036787E2,3.101115E2,0E0,0E0,0E0,0E0,0E0,0E0,0E0,0E0],"parents":[2147483647,0,0,1,1,2,2,3,3,4,4,5,5,6,6],"right_children":[2,4,6,8,10,12,14,-1,-1,-1,-1,-1,-1,-1,-1],"split_conditions":[1.7285715E1,1.1357142E1,2.4E1,8E0,1E0,2.4642857E1,6.9E1,-3.5737525E-3,-5.6129254E-2,-1.1631461E-2,2.8644316E-2,1.7999612E-2,1.0992843E-1,3.1311013E-2,1.2894364E-1],"split_indices":[17,17,19,15,4,17,14,0,0,0,0,0,0,0,0],"split_type":[0,0,0,0,0,0,0,0,0,0,0,0,0,0,0],"sum_hessian":[1.512E3,1.015E3,4.97E2,2.5E2,7.65E2,3.74E2,1.23E2,3.3E1,2.17E2,6.58E2,1.07E2,3.57E2,1.7E1,7.5E1,4.8E1],"tree_param":{"num_deleted":"0","num_feature":"20","num_nodes":"15","size_leaf_vector":"1"}},{"base_weights":[4.2483932E-3,-1.0598149E0,5.740468E-1,-1.7567455E0,-5.3649455E-1,1.7098114E-1,1.6314654E0,-6.602336E-2,-1.4747206E-2,-4.8238404E-2,-3.5455292E-3,-1.4099702E-2,1.7466655E-2,6.0012974E-2,-2.5286578E-2],"categories":[],"categories_nodes":[],"categories_segments":[],"categories_sizes":[],"default_left":[0,0,0,0,0,0,0,0,0,0,0,0,0,0,0],"id":43,"left_children":[1,3,5,7,9,11,13,-1,-1,-1,-1,-1,-1,-1,-1],"loss_changes":[9.179427E2,1.916286E2,4.199633E2,1.2588013E2,1.3561441E2,1.8874297E2,2.5000964E2,0E0,0E0,0E0,0E0,0E0,0E0,0E0,0E0],"parents":[2147483647,0,0,1,1,2,2,3,3,4,4,5,5,6,6],"right_children":[2,4,6,8,10,12,14,-1,-1,-1,-1,-1,-1,-1,-1],"split_conditions":[1.4428572E1,1.1E1,1.9071428E1,6.9E1,1.0866667E1,1.5E1,6.1E1,-6.602336E-2,-1.4747206E-2,-4.8238404E-2,-3.5455292E-3,-1.4099702E-2,1.7466655E-2,6.0012974E-2,-2.5286578E-2],"split_indices":[17,19,17,14,18,19,15,0,0,0,0,0,0,0,0],"split_type":[0,0,0,0,0,0,0,0,0,0,0,0,0,0,0],"sum_hessian":[1.512E3,5.27E2,9.85E2,2.25E2,3.02E2,7.14E2,2.71E2,1.66E2,5.9E1,8.4E1,2.18E2,2.79E2,4.35E2,2.36E2,3.5E1],"tree_param":{"num_deleted":"0","num_feature":"20","num_nodes":"15","size_leaf_vector":"1"}},{"base_weights":[4.058447E-3,-6.551516E-1,8.709034E-1,-1.5145894E0,-2.354338E-1,5.313966E-1,2.1482291E0,-5.5910144E-2,-2.0508444E-2,-4.680827E-2,-2.2380216E-4,1.2696094E-2,1.0539777E-1,2.7519416E-2,1.2069611E-1],"categories":[],"categories_nodes":[],"categories_segments":[],"categories_sizes":[],"default_left":[0,0,0,0,0,0,0,0,0,0,0,0,0,0,0],"id":44,"left_children":[1,3,5,7,9,11,13,-1,-1,-1,-1,-1,-1,-1,-1],"loss_changes":[8.6514856E2,3.098638E2,2.824726E2,8.0528015E1,1.7486322E2,1.6562929E2,3.1249658E2,0E0,0E0,0E0,0E0,0E0,0E0,0E0,0E0],"parents":[2147483647,0,0,1,1,2,2,3,3,4,4,5,5,6,6],"right_children":[2,4,6,8,10,12,14,-1,-1,-1,-1,-1,-1,-1,-1],"split_conditions":[1.6357143E1,1.1E1,2.4E1,6.9E1,1.0866667E1,2.4642857E1,6.9E1,-5.5910144E-2,-2.0508444E-2,-4.680827E-2,-2.2380216E-4,1.2696094E-2,1.0539777E-1,2.7519416E-2,1.2069611E-1],"split_indices":[17,19,19,14,18,17,14,0,0,0,0,0,0,0,0],"split_type":[0,0,0,0,0,0,0,0,0,0,0,0,0,0,0],"sum_hessian":[1.512E3,8.59E2,6.53E2,2.81E2,5.78E2,5.17E2,1.36E2,1.97E2,8.4E1,8.4E1,4.94E2,5E2,1.7E1,8.3E1,5.3E1],"tree_param":{"num_deleted":"0","num_feature":"20","num_nodes":"15","size_leaf_vector":"1"}},{"base_weights":[4.031335E-3,-4.338237E-1,1.2444257E0,-1.256334E0,-1.2548136E-2,1.5187504E0,-1.0973692E0,-4.2237576E-2,1.1828631E-1,-6.399502E-3,3.5765454E-2,4.9514085E-2,-1.114161E-1,-5.287413E-2,7.439763E-2],"categories":[],"categories_nodes":[],"categories_segments":[],"categories_sizes":[],"default_left":[0,0,0,0,0,0,0,0,0,0,0,0,0,0,0],"id":45,"left_children":[1,3,5,7,9,11,13,-1,-1,-1,-1,-1,-1,-1,-1],"loss_changes":[8.222696E2,3.8772165E2,2.554195E2,3.042503E2,1.7948145E2,2.5011938E2,1.04299774E2,0E0,0E0,0E0,0E0,0E0,0E0,0E0,0E0],"parents":[2147483647,0,0,1,1,2,2,3,3,4,4,5,5,6,6],"right_children":[2,4,6,8,10,12,14,-1,-1,-1,-1,-1,-1,-1,-1],"split_conditions":[1.7928572E1,1.3533334E1,2E-1,2.1E1,1E0,6.7E1,2.9E1,-4.2237576E-2,1.1828631E-1,-6.399502E-3,3.5765454E-2,4.9514085E-2,-1.114161E-1,-5.287413E-2,7.439763E-2],"split_indices":[17,18,16,19,4,15,19,0,0,0,0,0,0,0,0],"split_type":[0,0,0,0,0,0,0,0,0,0,0,0,0,0,0],"sum_hessian":[1.512E3,1.118E3,3.94E2,3.78E2,7.4E2,3.53E2,4.1E1,3.68E2,1E1,6.35E2,1.05E2,3.45E2,8E0,3.5E1,6E0],"tree_param":{"num_deleted":"0","num_feature":"20","num_nodes":"15","size_leaf_vector":"1"}},{"base_weights":[3.953023E-3,-9.7357404E-1,5.2741176E-1,-1.6259565E0,-4.8376542E-1,1.5334566E-1,1.5087715E0,-6.1457567E-2,-1.2676172E-2,-4.416833E-2,-2.9366177E-3,-1.602939E-3,3.986406E-2,3.3361204E-2,1.13460384E-1],"categories":[],"categories_nodes":[],"categories_segments":[],"categories_sizes":[],"default_left":[0,0,0,0,0,0,0,0,0,0,0,0,0,0,0],"id":46,"left_children":[1,3,5,7,9,11,13,-1,-1,-1,-1,-1,-1,-1,-1],"loss_changes":[7.747082E2,1.6793182E2,3.617228E2,1.1407788E2,1.1543381E2,1.7385695E2,2.4110187E2,0E0,0E0,0E0,0E0,0E0,0E0,0E0,0E0],"parents":[2147483647,0,0,1,1,2,2,3,3,4,4,5,5,6,6],"right_children":[2,4,6,8,10,12,14,-1,-1,-1,-1,-1,-1,-1,-1],"split_conditions":[1.4428572E1,1.1E1,1.9071428E1,6.9E1,1.0866667E1,1E0,1E0,-6.1457567E-2,-1.2676172E-2,-4.416833E-2,-2.9366177E-3,-1.602939E-3,3.986406E-2,3.3361204E-2,1.13460384E-1],"split_indices":[17,19,17,14,18,4,9,0,0,0,0,0,0,0,0],"split_type":[0,0,0,0,0,0,0,0,0,0,0,0,0,0,0],"sum_hessian":[1.512E3,5.27E2,9.85E2,2.25E2,3.02E2,7.14E2,2.71E2,1.66E2,5.9E1,8.4E1,2.18E2,6.08E2,1.06E2,2.32E2,3.9E1],"tree_param":{"num_deleted":"0","num_feature":"20","num_nodes":"15","size_leaf_vector":"1"}},{"base_weights":[3.876456E-3,-6.0271966E-1,8.015351E-1,-1.4057132E0,-2.105834E-1,4.7919825E-1,2.0144475E0,-5.191187E-2,-1.8985687E-2,-4.2858865E-2,-2.9959765E-5,7.899085E-3,5.5715024E-2,2.4961317E-2,1.1449311E-1],"categories":[],"categories_nodes":[],"categories_segments":[],"categories_sizes":[],"default_left":[0,0,0,0,0,0,0,0,0,0,0,0,0,0,0],"id":47,"left_children":[1,3,5,7,9,11,13,-1,-1,-1,-1,-1,-1,-1,-1],"loss_changes":[7.3255817E2,2.705032E2,2.5472668E2,6.966809E1,1.4780786E2,1.5361456E2,2.8872754E2,0E0,0E0,0E0,0E0,0E0,0E0,0E0,0E0],"parents":[2147483647,0,0,1,1,2,2,3,3,4,4,5,5,6,6],"right_children":[2,4,6,8,10,12,14,-1,-1,-1,-1,-1,-1,-1,-1],"split_conditions":[1.6357143E1,1.1E1,2.4E1,6.9E1,1.0866667E1,1E0,6.9E1,-5.191187E-2,-1.8985687E-2,-4.2858865E-2,-2.9959765E-5,7.899085E-3,5.5715024E-2,2.4961317E-2,1.1449311E-1],"split_indices":[17,19,19,14,18,4,14,0,0,0,0,0,0,0,0],"split_type":[0,0,0,0,0,0,0,0,0,0,0,0,0,0,0],"sum_hessian":[1.512E3,8.59E2,6.53E2,2.81E2,5.78E2,5.17E2,1.36E2,1.97E2,8.4E1,8.4E1,4.94E2,4.48E2,6.9E1,8.3E1,5.3E1],"tree_param":{"num_deleted":"0","num_feature":"20","num_nodes":"15","size_leaf_vector":"1"}},{"base_weights":[3.819397E-3,-3.998899E-1,1.1474824E0,-1.293797E0,-6.486958E-2,1.4138528E0,-1.1249605E0,-5.4678734E-2,-2.3707528E-2,-4.158822E-2,2.6661253E-3,4.6286497E-2,-1.1111247E-1,-5.2677535E-2,6.842015E-2],"categories":[],"categories_nodes":[],"categories_segments":[],"categories_sizes":[],"default_left":[0,0,0,0,0,0,0,0,0,0,0,0,0,0,0],"id":48,"left_children":[1,3,5,7,9,11,13,-1,-1,-1,-1,-1,-1,-1,-1],"loss_changes":[6.990221E2,3.3503088E2,2.406886E2,7.977777E1,1.6569313E2,2.394701E2,9.425465E1,0E0,0E0,0E0,0E0,0E0,0E0,0E0,0E0],"parents":[2147483647,0,0,1,1,2,2,3,3,4,4,5,5,6,6],"right_children":[2,4,6,8,10,12,14,-1,-1,-1,-1,-1,-1,-1,-1],"split_conditions":[1.7928572E1,1.1E1,2E-1,1.15E1,1.0866667E1,6.7E1,2.9E1,-5.4678734E-2,-2.3707528E-2,-4.158822E-2,2.6661253E-3,4.6286497E-2,-1.1111247E-1,-5.2677535E-2,6.842015E-2],"split_indices":[17,19,16,17,18,15,19,0,0,0,0,0,0,0,0],"split_type":[0,0,0,0,0,0,0,0,0,0,0,0,0,0,0],"sum_hessian":[1.512E3,1.118E3,3.94E2,3.04E2,8.14E2,3.53E2,4.1E1,1.47E2,1.57E2,8.4E1,7.3E2,3.45E2,8E0,3.5E1,6E0],"tree_param":{"num_deleted":"0","num_feature":"20","num_nodes":"15","size_leaf_vector":"1"}},{"base_weights":[3.5948479E-3,-3.8799828E-1,1.1129344E0,-1.2552401E0,-6.29716E-2,1.3712549E0,-1.0908372E0,-5.3049453E-2,-2.3000805E-2,-4.0355265E-2,2.5862404E-3,2.5900275E-2,8.01238E-2,-5.1141117E-2,6.666076E-2],"categories":[],"categories_nodes":[],"categories_segments":[],"categories_sizes":[],"default_left":[0,0,0,0,0,0,0,0,0,0,0,0,0,0,0],"id":49,"left_children":[1,3,5,7,9,11,13,-1,-1,-1,-1,-1,-1,-1,-1],"loss_changes":[6.576937E2,3.1534097E2,2.263612E2,7.509589E1,1.5600809E2,2.3135254E2,8.920146E1,0E0,0E0,0E0,0E0,0E0,0E0,0E0,0E0],"parents":[2147483647,0,0,1,1,2,2,3,3,4,4,5,5,6,6],"right_children":[2,4,6,8,10,12,14,-1,-1,-1,-1,-1,-1,-1,-1],"split_conditions":[1.7928572E1,1.1E1,2E-1,1.15E1,1.0866667E1,2.1571428E1,2.9E1,-5.3049453E-2,-2.3000805E-2,-4.0355265E-2,2.5862404E-3,2.5900275E-2,8.01238E-2,-5.1141117E-2,6.666076E-2],"split_indices":[17,19,16,17,18,17,19,0,0,0,0,0,0,0,0],"split_type":[0,0,0,0,0,0,0,0,0,0,0,0,0,0,0],"sum_hessian":[1.512E3,1.118E3,3.94E2,3.04E2,8.14E2,3.53E2,4.1E1,1.47E2,1.57E2,8.4E1,7.3E2,2.55E2,9.8E1,3.5E1,6E0],"tree_param":{"num_deleted":"0","num_feature":"20","num_nodes":"15","size_leaf_vector":"1"}},{"base_weights":[3.492102E-3,-6.443367E-1,6.3776696E-1,-1.06077E0,-9.182472E-2,4.045416E-1,1.9798766E0,-3.5661183E-2,1.5039697E-1,-2.1308346E-2,2.6804633E-2,1.9162204E-2,-3.0376635E-2,8.225052E-2,-6.579267E-2],"categories":[],"categories_nodes":[],"categories_segments":[],"categories_sizes":[],"default_left":[0,0,0,0,0,0,0,0,0,0,0,0,0,0,0],"id":50,"left_children":[1,3,5,7,9,11,13,-1,-1,-1,-1,-1,-1,-1,-1],"loss_changes":[6.22105E2,1.7223578E2,2.3865482E2,3.377744E2,1.974611E2,2.1736563E2,3.6523926E2,0E0,0E0,0E0,0E0,0E0,0E0,0E0,0E0],"parents":[2147483647,0,0,1,1,2,2,3,3,4,4,5,5,6,6],"right_children":[2,4,6,8,10,12,14,-1,-1,-1,-1,-1,-1,-1,-1],"split_conditions":[1.5642858E1,1.4133333E1,2.1571428E1,2.1E1,5.1E1,1E0,6.1E1,-3.5661183E-2,1.5039697E-1,-2.1308346E-2,2.6804633E-2,1.9162204E-2,-3.0376635E-2,8.225052E-2,-6.579267E-2],"split_indices":[17,18,17,19,15,1,15,0,0,0,0,0,0,0,0],"split_type":[0,0,0,0,0,0,0,0,0,0,0,0,0,0,0],"sum_hessian":[1.512E3,7.48E2,7.64E2,4.26E2,3.22E2,6.52E2,1.12E2,4.18E2,8E0,1.98E2,1.24E2,5.6E2,9.2E1,9.5E1,1.7E1],"tree_param":{"num_deleted":"0","num_feature":"20","num_nodes":"15","size_leaf_vector":"1"}},{"base_weights":[3.469795E-3,-5.05348E-1,7.700604E-1,-5.4767835E-1,9.219385E0,6.8786306E0,7.075872E-1,-3.9857335E-2,-3.4673633E-3,2.3916006E-2,3.528314E-1,-4.9062192E-2,2.6725557E-1,5.917587E-3,4.06327E-2],"categories":[],"categories_nodes":[],"categories_segments":[],"categories_sizes":[],"default_left":[0,0,0,0,0,0,0,0,0,0,0,0,0,0,0],"id":51,"left_children":[1,3,5,7,9,11,13,-1,-1,-1,-1,-1,-1,-1,-1],"loss_changes":[5.9054236E2,3.7965158E2,2.256326E2,3.0589212E2,7.624948E1,1.1826434E2,1.9746436E2,0E0,0E0,0E0,0E0,0E0,0E0,0E0,0E0],"parents":[2147483647,0,0,1,1,2,2,3,3,4,4,5,5,6,6],"right_children":[2,4,6,8,10,12,14,-1,-1,-1,-1,-1,-1,-1,-1],"split_conditions":[1.7E1,2.7285715E1,-1.3E1,1.3033334E1,4.9E1,-3E0,1.7928572E1,-3.9857335E-2,-3.4673633E-3,2.3916006E-2,3.528314E-1,-4.9062192E-2,2.6725557E-1,5.917587E-3,4.06327E-2],"split_indices":[19,17,15,18,15,14,17,0,0,0,0,0,0,0,0],"split_type":[0,0,0,0,0,0,0,0,0,0,0,0,0,0,0],"sum_hessian":[1.512E3,9.09E2,6.03E2,9.06E2,3E0,5E0,5.98E2,3.22E2,5.84E2,1E0,2E0,1E0,4E0,3.35E2,2.63E2],"tree_param":{"num_deleted":"0","num_feature":"20","num_nodes":"15","size_leaf_vector":"1"}},{"base_weights":[3.76096E-3,-4.2160302E-1,8.7156427E-1,-8.269974E-1,1.6508837E-1,2.7214694E-1,8.202103E-1,-2.9683758E-2,1.7282272E-2,8.283483E-3,-6.508017E-2,2.2248505E-2,1.6565125E-1],"categories":[],"categories_nodes":[],"categories_segments":[],"categories_sizes":[],"default_left":[0,0,0,0,0,0,0,0,0,0,0,0,0],"id":52,"left_children":[1,3,5,7,9,-1,11,-1,-1,-1,-1,-1,-1],"loss_changes":[5.5886456E2,2.4178337E2,2.0226852E2,1.3756497E2,1.0842044E2,0E0,1.7918045E2,0E0,0E0,0E0,0E0,0E0,0E0],"parents":[2147483647,0,0,1,1,2,2,3,3,4,4,6,6],"right_children":[2,4,6,8,10,-1,12,-1,-1,-1,-1,-1,-1],"split_conditions":[1.7285715E1,1.5E1,-1.5E1,6.4E1,1.7142857E1,2.7214694E-1,4.5E1,-2.9683758E-2,1.7282272E-2,8.283483E-3,-6.508017E-2,2.2248505E-2,1.6565125E-1],"split_indices":[17,19,15,15,17,0,19,0,0,0,0,0,0],"split_type":[0,0,0,0,0,0,0,0,0,0,0,0,0],"sum_hessian":[1.512E3,1.015E3,4.97E2,6E2,4.15E2,2E0,4.95E2,5.38E2,6.2E1,3.97E2,1.8E1,4.88E2,7E0],"tree_param":{"num_deleted":"0","num_feature":"20","num_nodes":"13","size_leaf_vector":"1"}},{"base_weights":[3.9063E-3,-3.7791744E-1,9.269973E-1,-4.2489436E-1,9.722547E0,2.6670402E-1,8.7072426E-1,-3.6968466E-2,-1.5144192E-3,3.5298374E-1,2.3223523E-2,8.711239E-3,5.131854E-2],"categories":[],"categories_nodes":[],"categories_segments":[],"categories_sizes":[],"default_left":[0,0,0,0,0,0,0,0,0,0,0,0,0],"id":53,"left_children":[1,3,5,7,9,-1,11,-1,-1,-1,-1,-1,-1],"loss_changes":[5.336194E2,5.123087E2,1.9077182E2,3.2248877E2,8.232565E1,0E0,2.1446082E2,0E0,0E0,0E0,0E0,0E0,0E0],"parents":[2147483647,0,0,1,1,2,2,3,3,4,4,6,6],"right_children":[2,4,6,8,10,-1,12,-1,-1,-1,-1,-1,-1],"split_conditions":[1.9E1,2.7285715E1,-1.5E1,1.3033334E1,3.2214287E1,2.6670402E-1,6.7E1,-3.6968466E-2,-1.5144192E-3,3.5298374E-1,2.3223523E-2,8.711239E-3,5.131854E-2],"split_indices":[19,17,15,18,17,0,14,0,0,0,0,0,0],"split_type":[0,0,0,0,0,0,0,0,0,0,0,0,0],"sum_hessian":[1.512E3,1.07E3,4.42E2,1.066E3,4E0,2E0,4.4E2,3.37E2,7.29E2,3E0,1E0,2.61E2,1.79E2],"tree_param":{"num_deleted":"0","num_feature":"20","num_nodes":"13","size_leaf_vector":"1"}},{"base_weights":[4.228239E-3,-2.6899526E-1,1.2517995E0,-5.503508E-1,6.8637687E-1,1.6063664E0,-1.1172053E0,-3.5862703E-2,-5.984766E-3,2.6459144E-2,-1.1412894E-1,3.0728716E-2,2.589415E-1,2.1559605E-1,-6.269594E-2],"categories":[],"categories_nodes":[],"categories_segments":[],"categories_sizes":[],"default_left":[0,0,0,0,0,0,0,0,0,0,0,0,0,0,0],"id":54,"left_children":[1,3,5,7,9,11,13,-1,-1,-1,-1,-1,-1,-1,-1],"loss_changes":[5.1606665E2,3.342264E2,2.3026666E2,2.1703766E2,2.519288E2,9.602738E2,3.057805E2,0E0,0E0,0E0,0E0,0E0,0E0,0E0,0E0],"parents":[2147483647,0,0,1,1,2,2,3,3,4,4,5,5,6,6],"right_children":[2,4,6,8,10,12,14,-1,-1,-1,-1,-1,-1,-1,-1],"split_conditions":[1.9071428E1,1.9E1,6.1E1,1.3033334E1,1.8714285E1,1E0,1.9214285E1,-3.5862703E-2,-5.984766E-3,2.6459144E-2,-1.1412894E-1,3.0728716E-2,2.589415E-1,2.1559605E-1,-6.269594E-2],"split_indices":[17,19,15,18,17,9,17,0,0,0,0,0,0,0,0],"split_type":[0,0,0,0,0,0,0,0,0,0,0,0,0,0,0],"sum_hessian":[1.512E3,1.241E3,2.71E2,9.59E2,2.82E2,2.36E2,3.5E1,3.37E2,6.22E2,2.71E2,1.1E1,2.19E2,1.7E1,3E0,3.2E1],"tree_param":{"num_deleted":"0","num_feature":"20","num_nodes":"15","size_leaf_vector":"1"}},{"base_weights":[4.3082917E-3,-2.610296E-1,1.2158722E0,-7.2989535E-1,2.8589064E-1,1.5593971E0,-1.0794414E0,-2.6375921E-2,1.9425115E-2,1.1989574E-2,-7.370472E-2,2.9811028E-2,2.5160483E-1,2.1074516E-1,-6.0872037E-2],"categories":[],"categories_nodes":[],"categories_segments":[],"categories_sizes":[],"default_left":[0,0,0,0,0,0,0,0,0,0,0,0,0,0,0],"id":55,"left_children":[1,3,5,7,9,11,13,-1,-1,-1,-1,-1,-1,-1,-1],"loss_changes":[4.8670728E2,3.1869742E2,2.1615454E2,1.3814816E2,1.8007927E2,9.070195E2,2.9131134E2,0E0,0E0,0E0,0E0,0E0,0E0,0E0,0E0],"parents":[2147483647,0,0,1,1,2,2,3,3,4,4,5,5,6,6],"right_children":[2,4,6,8,10,12,14,-1,-1,-1,-1,-1,-1,-1,-1],"split_conditions":[1.9071428E1,1.5E1,6.1E1,6.4E1,1.8714285E1,1E0,1.9214285E1,-2.6375921E-2,1.9425115E-2,1.1989574E-2,-7.370472E-2,2.9811028E-2,2.5160483E-1,2.1074516E-1,-6.0872037E-2],"split_indices":[17,19,15,15,17,9,17,0,0,0,0,0,0,0,0],"split_type":[0,0,0,0,0,0,0,0,0,0,0,0,0,0,0],"sum_hessian":[1.512E3,1.241E3,2.71E2,6.68E2,5.73E2,2.36E2,3.5E1,6.03E2,6.5E1,5.51E2,2.2E1,2.19E2,1.7E1,3E0,3.2E1],"tree_param":{"num_deleted":"0","num_feature":"20","num_nodes":"15","size_leaf_vector":"1"}},{"base_weights":[4.418544E-3,-3.253254E-1,9.385427E-1,-1.0818173E0,-4.18219E-2,1.1844879E0,-1.1567707E0,-2.8571386E-2,-8.9402124E-2,-3.397412E-2,2.5516478E-3,3.9201304E-2,-1.0937647E-1,-4.9601E-2,8.546137E-2],"categories":[],"categories_nodes":[],"categories_segments":[],"categories_sizes":[],"default_left":[0,0,0,0,0,0,0,0,0,0,0,0,0,0,0],"id":56,"left_children":[1,3,5,7,9,11,13,-1,-1,-1,-1,-1,-1,-1,-1],"loss_changes":[4.6634232E2,2.3994455E2,2.0492645E2,7.210208E1,1.12874435E2,2.137579E2,8.825246E1,0E0,0E0,0E0,0E0,0E0,0E0,0E0,0E0],"parents":[2147483647,0,0,1,1,2,2,3,3,4,4,5,5,6,6],"right_children":[2,4,6,8,10,12,14,-1,-1,-1,-1,-1,-1,-1,-1],"split_conditions":[1.7928572E1,1.1E1,2E-1,1.7466667E1,1.0866667E1,6.7E1,6.4E1,-2.8571386E-2,-8.9402124E-2,-3.397412E-2,2.5516478E-3,3.9201304E-2,-1.0937647E-1,-4.9601E-2,8.546137E-2],"split_indices":[17,19,16,18,18,15,15,0,0,0,0,0,0,0,0],"split_type":[0,0,0,0,0,0,0,0,0,0,0,0,0,0,0],"sum_hessian":[1.512E3,1.118E3,3.94E2,3.04E2,8.14E2,3.53E2,4.1E1,2.86E2,1.8E1,8.4E1,7.3E2,3.45E2,8E0,3.7E1,4E0],"tree_param":{"num_deleted":"0","num_feature":"20","num_nodes":"15","size_leaf_vector":"1"}},{"base_weights":[4.164205E-3,-4.66948E-1,6.236632E-1,-1.1101819E0,-1.5285659E-1,3.4567493E-1,1.6701906E0,-3.0709054E-2,-1.3091995E-1,4.1336715E-2,-8.720454E-3,4.14006E-3,5.0184302E-2,1.7058343E-2,1.0058485E-1],"categories":[],"categories_nodes":[],"categories_segments":[],"categories_sizes":[],"default_left":[0,0,0,0,0,0,0,0,0,0,0,0,0,0,0],"id":57,"left_children":[1,3,5,7,9,11,13,-1,-1,-1,-1,-1,-1,-1,-1],"loss_changes":[4.418656E2,1.7357974E2,1.8968584E2,7.4946075E1,1.2255536E2,1.4253516E2,2.520311E2,0E0,0E0,0E0,0E0,0E0,0E0,0E0,0E0],"parents":[2147483647,0,0,1,1,2,2,3,3,4,4,5,5,6,6],"right_children":[2,4,6,8,10,12,14,-1,-1,-1,-1,-1,-1,-1,-1],"split_conditions":[1.6357143E1,1.1E1,2.4E1,1.6E1,1E0,1E0,6.9E1,-3.0709054E-2,-1.3091995E-1,4.1336715E-2,-8.720454E-3,4.14006E-3,5.0184302E-2,1.7058343E-2,1.0058485E-1],"split_indices":[17,19,19,17,15,4,14,0,0,0,0,0,0,0,0],"split_type":[0,0,0,0,0,0,0,0,0,0,0,0,0,0,0],"sum_hessian":[1.512E3,8.59E2,6.53E2,2.81E2,5.78E2,5.17E2,1.36E2,2.75E2,6E0,4.7E1,5.31E2,4.48E2,6.9E1,8.3E1,5.3E1],"tree_param":{"num_deleted":"0","num_feature":"20","num_nodes":"15","size_leaf_vector":"1"}},{"base_weights":[4.067565E-3,-7.1796817E-1,3.9071137E-1,-8.39193E-1,9.133995E-1,2.2530422E-1,1.6665976E0,9.4354665E-3,-3.152168E-2,4.288781E-2,-1.1107801E-1,5.6321044E-3,1.6886298E-1,3.2628838E-2,2.2563662E-1],"categories":[],"categories_nodes":[],"categories_segments":[],"categories_sizes":[],"default_left":[0,0,0,0,0,0,0,0,0,0,0,0,0,0,0],"id":58,"left_children":[1,3,5,7,9,11,13,-1,-1,-1,-1,-1,-1,-1,-1],"loss_changes":[4.2266568E2,1.0518503E2,2.0771063E2,1.2039996E2,9.345505E1,1.7636008E2,3.7484998E2,0E0,0E0,0E0,0E0,0E0,0E0,0E0,0E0],"parents":[2147483647,0,0,1,1,2,2,3,3,4,4,5,5,6,6],"right_children":[2,4,6,8,10,12,14,-1,-1,-1,-1,-1,-1,-1,-1],"split_conditions":[1.4428572E1,6.7E1,2.1571428E1,8E0,9.6E1,2.5966667E1,8.1E1,9.4354665E-3,-3.152168E-2,4.288781E-2,-1.1107801E-1,5.6321044E-3,1.6886298E-1,3.2628838E-2,2.2563662E-1],"split_indices":[17,15,17,15,14,18,14,0,0,0,0,0,0,0,0],"split_type":[0,0,0,0,0,0,0,0,0,0,0,0,0,0,0],"sum_hessian":[1.512E3,5.27E2,9.85E2,4.91E2,3.6E1,8.73E2,1.12E2,7.6E1,4.15E2,3.3E1,3E0,8.68E2,5E0,1.03E2,9E0],"tree_param":{"num_deleted":"0","num_feature":"20","num_nodes":"15","size_leaf_vector":"1"}},{"base_weights":[4.1717268E-3,-3.2866284E-1,8.0882555E-1,-3.735074E-1,9.3069E0,2.5914222E-1,7.537313E-1,-1.7328132E-2,2.4394628E-2,3.3859503E-1,2.0827474E-2,6.393609E-3,4.6092995E-2],"categories":[],"categories_nodes":[],"categories_segments":[],"categories_sizes":[],"default_left":[0,0,0,0,0,0,0,0,0,0,0,0,0],"id":59,"left_children":[1,3,5,7,9,-1,11,-1,-1,-1,-1,-1,-1],"loss_changes":[4.0547238E2,4.6625815E2,1.8457574E2,2.588908E2,7.7412384E1,0E0,1.8627612E2,0E0,0E0,0E0,0E0,0E0,0E0],"parents":[2147483647,0,0,1,1,2,2,3,3,4,4,6,6],"right_children":[2,4,6,8,10,-1,12,-1,-1,-1,-1,-1,-1],"split_conditions":[1.9E1,2.7285715E1,-1.5E1,1E0,3.2214287E1,2.5914222E-1,6.7E1,-1.7328132E-2,2.4394628E-2,3.3859503E-1,2.0827474E-2,6.393609E-3,4.6092995E-2],"split_indices":[19,17,15,4,17,0,14,0,0,0,0,0,0],"split_type":[0,0,0,0,0,0,0,0,0,0,0,0,0],"sum_hessian":[1.512E3,1.07E3,4.42E2,1.066E3,4E0,2E0,4.4E2,9.1E2,1.56E2,3E0,1E0,2.61E2,1.79E2],"tree_param":{"num_deleted":"0","num_feature":"20","num_nodes":"13","size_leaf_vector":"1"}},{"base_weights":[4.494846E-3,-8.7829006E-1,2.9927105E-1,-1.0109086E0,3.6503062E0,4.982592E-2,1.0905259E0,9.725177E-3,-3.692805E-2,1.444445E-1,-3.1799812E-2,-4.642638E-3,3.747934E-2,4.2798515E-2,-3.4571044E-2],"categories":[],"categories_nodes":[],"categories_segments":[],"categories_sizes":[],"default_left":[0,0,0,0,0,0,0,0,0,0,0,0,0,0,0],"id":60,"left_children":[1,3,5,7,9,11,13,-1,-1,-1,-1,-1,-1,-1,-1],"loss_changes":[3.939817E2,2.3130853E2,2.2396591E2,1.08793945E2,6.544081E1,2.1221149E2,2.0668231E2,0E0,0E0,0E0,0E0,0E0,0E0,0E0,0E0],"parents":[2147483647,0,0,1,1,2,2,3,3,4,4,5,5,6,6],"right_children":[2,4,6,8,10,12,14,-1,-1,-1,-1,-1,-1,-1,-1],"split_conditions":[1.3533334E1,2.1E1,1.9071428E1,8E0,1.5357142E1,1E0,6.1E1,9.725177E-3,-3.692805E-2,1.444445E-1,-3.1799812E-2,-4.642638E-3,3.747934E-2,4.2798515E-2,-3.4571044E-2],"split_indices":[18,19,17,15,17,4,15,0,0,0,0,0,0,0,0],"split_type":[0,0,0,0,0,0,0,0,0,0,0,0,0,0,0],"sum_hessian":[1.512E3,3.78E2,1.134E3,3.68E2,1E1,8.63E2,2.71E2,5.2E1,3.16E2,8E0,2E0,7.38E2,1.25E2,2.36E2,3.5E1],"tree_param":{"num_deleted":"0","num_feature":"20","num_nodes":"15","size_leaf_vector":"1"}},{"base_weights":[4.443455E-3,-8.5171586E-1,2.9032886E-1,-9.806551E-1,3.5510366E0,1.1353351E-1,1.3438966E0,9.438914E-3,-3.5823703E-2,1.405926E-1,-3.1163825E-2,-2.4953831E-3,4.1356113E-2,2.8909814E-2,1.6971327E-1],"categories":[],"categories_nodes":[],"categories_segments":[],"categories_sizes":[],"default_left":[0,0,0,0,0,0,0,0,0,0,0,0,0,0,0],"id":61,"left_children":[1,3,5,7,9,11,13,-1,-1,-1,-1,-1,-1,-1,-1],"loss_changes":[3.705744E2,2.1863583E2,2.1125922E2,1.0240509E2,6.2191635E1,2.4223851E2,2.618749E2,0E0,0E0,0E0,0E0,0E0,0E0,0E0,0E0],"parents":[2147483647,0,0,1,1,2,2,3,3,4,4,5,5,6,6],"right_children":[2,4,6,8,10,12,14,-1,-1,-1,-1,-1,-1,-1,-1],"split_conditions":[1.3533334E1,2.1E1,1E0,8E0,1.5357142E1,2.4E1,2.25E1,9.438914E-3,-3.5823703E-2,1.405926E-1,-3.1163825E-2,-2.4953831E-3,4.1356113E-2,2.8909814E-2,1.6971327E-1],"split_indices":[18,19,4,15,17,19,18,0,0,0,0,0,0,0,0],"split_type":[0,0,0,0,0,0,0,0,0,0,0,0,0,0,0],"sum_hessian":[1.512E3,3.78E2,1.134E3,3.68E2,1E1,9.72E2,1.62E2,5.2E1,3.16E2,8E0,2E0,8.42E2,1.3E2,1.5E2,1.2E1],"tree_param":{"num_deleted":"0","num_feature":"20","num_nodes":"15","size_leaf_vector":"1"}},{"base_weights":[4.5218742E-3,-2.8309605E-1,8.193065E-1,-9.573714E-1,-3.0412523E-2,1.0554385E0,-1.190456E0,-2.4848137E-2,-8.5712224E-2,-3.7070757E-3,3.6317267E-2,3.5198007E-2,-1.0775038E-1,-5.0207194E-2,8.1579745E-2],"categories":[],"categories_nodes":[],"categories_segments":[],"categories_sizes":[],"default_left":[0,0,0,0,0,0,0,0,0,0,0,0,0,0,0],"id":62,"left_children":[1,3,5,7,9,11,13,-1,-1,-1,-1,-1,-1,-1,-1],"loss_changes":[3.5479846E2,1.9062416E2,1.8871127E2,7.2435394E1,9.436874E1,1.9805109E2,8.3884026E1,0E0,0E0,0E0,0E0,0E0,0E0,0E0,0E0],"parents":[2147483647,0,0,1,1,2,2,3,3,4,4,5,5,6,6],"right_children":[2,4,6,8,10,12,14,-1,-1,-1,-1,-1,-1,-1,-1],"split_conditions":[1.7928572E1,1.1E1,2E-1,1.7466667E1,6.8E1,6.7E1,6.4E1,-2.4848137E-2,-8.5712224E-2,-3.7070757E-3,3.6317267E-2,3.5198007E-2,-1.0775038E-1,-5.0207194E-2,8.1579745E-2],"split_indices":[17,19,16,18,15,15,15,0,0,0,0,0,0,0,0],"split_type":[0,0,0,0,0,0,0,0,0,0,0,0,0,0,0],"sum_hessian":[1.512E3,1.118E3,3.94E2,3.04E2,8.14E2,3.53E2,4.1E1,2.86E2,1.8E1,7.58E2,5.6E1,3.45E2,8E0,3.7E1,4E0],"tree_param":{"num_deleted":"0","num_feature":"20","num_nodes":"15","size_leaf_vector":"1"}},{"base_weights":[4.3075443E-3,-3.0072755E-1,7.4175286E-1,-3.4421283E-1,9.039176E0,2.520467E-1,6.8796337E-1,-1.6022926E-2,2.2793846E-2,3.2927784E-1,1.9382514E-2,4.6858503E-3,4.374479E-2],"categories":[],"categories_nodes":[],"categories_segments":[],"categories_sizes":[],"default_left":[0,0,0,0,0,0,0,0,0,0,0,0,0],"id":63,"left_children":[1,3,5,7,9,-1,11,-1,-1,-1,-1,-1,-1],"loss_changes":[3.4056744E2,4.380962E2,1.7674355E2,2.240855E2,7.418533E1,0E0,1.8039087E2,0E0,0E0,0E0,0E0,0E0,0E0],"parents":[2147483647,0,0,1,1,2,2,3,3,4,4,6,6],"right_children":[2,4,6,8,10,-1,12,-1,-1,-1,-1,-1,-1],"split_conditions":[1.9E1,2.7285715E1,-1.5E1,1E0,3.2214287E1,2.520467E-1,6.7E1,-1.6022926E-2,2.2793846E-2,3.2927784E-1,1.9382514E-2,4.6858503E-3,4.374479E-2],"split_indices":[19,17,15,4,17,0,14,0,0,0,0,0,0],"split_type":[0,0,0,0,0,0,0,0,0,0,0,0,0],"sum_hessian":[1.512E3,1.07E3,4.42E2,1.066E3,4E0,2E0,4.4E2,9.1E2,1.56E2,3E0,1E0,2.61E2,1.79E2],"tree_param":{"num_deleted":"0","num_feature":"20","num_nodes":"13","size_leaf_vector":"1"}},{"base_weights":[4.6116975E-3,-8.060497E-1,2.7530426E-1,-9.308457E-1,3.4535642E0,1.07294925E-1,1.2765176E0,9.790227E-3,-3.4143038E-2,1.368174E-1,-3.0560112E-2,-2.321932E-3,3.884983E-2,2.7256886E-2,1.635678E-1],"categories":[],"categories_nodes":[],"categories_segments":[],"categories_sizes":[],"default_left":[0,0,0,0,0,0,0,0,0,0,0,0,0,0,0],"id":64,"left_children":[1,3,5,7,9,11,13,-1,-1,-1,-1,-1,-1,-1,-1],"loss_changes":[3.3223468E2,2.0468452E2,1.9078503E2,9.651767E1,5.910489E1,2.1353688E2,2.454932E2,0E0,0E0,0E0,0E0,0E0,0E0,0E0,0E0],"parents":[2147483647,0,0,1,1,2,2,3,3,4,4,5,5,6,6],"right_children":[2,4,6,8,10,12,14,-1,-1,-1,-1,-1,-1,-1,-1],"split_conditions":[1.3533334E1,2.1E1,1E0,8E0,1.5357142E1,2.4E1,2.25E1,9.790227E-3,-3.4143038E-2,1.368174E-1,-3.0560112E-2,-2.321932E-3,3.884983E-2,2.7256886E-2,1.635678E-1],"split_indices":[18,19,4,15,17,19,18,0,0,0,0,0,0,0,0],"split_type":[0,0,0,0,0,0,0,0,0,0,0,0,0,0,0],"sum_hessian":[1.512E3,3.78E2,1.134E3,3.68E2,1E1,9.72E2,1.62E2,5.2E1,3.16E2,8E0,2E0,8.42E2,1.3E2,1.5E2,1.2E1],"tree_param":{"num_deleted":"0","num_feature":"20","num_nodes":"15","size_leaf_vector":"1"}},{"base_weights":[4.677708E-3,-2.879723E-1,7.235972E-1,-5.534346E-1,7.0178854E-1,4.718329E0,5.609573E-1,-2.1801978E-2,1.3401999E-2,2.4622875E-1,1.7971449E-2,4.0494002E-2,8.7922186E-1,1.4353642E-2,1.6151492E-1],"categories":[],"categories_nodes":[],"categories_segments":[],"categories_sizes":[],"default_left":[0,0,0,0,0,0,0,0,0,0,0,0,0,0,0],"id":65,"left_children":[1,3,5,7,9,11,13,-1,-1,-1,-1,-1,-1,-1,-1],"loss_changes":[3.185312E2,2.8310114E2,2.8192303E2,1.4747934E2,1.7090582E2,1.3685336E3,1.6533765E2,0E0,0E0,0E0,0E0,0E0,0E0,0E0,0E0],"parents":[2147483647,0,0,1,1,2,2,3,3,4,4,5,5,6,6],"right_children":[2,4,6,8,10,12,14,-1,-1,-1,-1,-1,-1,-1,-1],"split_conditions":[1.77E1,1.9E1,1.78E1,6.3E1,-1.5E1,2.0285715E1,4.5E1,-2.1801978E-2,1.3401999E-2,2.4622875E-1,1.7971449E-2,4.0494002E-2,8.7922186E-1,1.4353642E-2,1.6151492E-1],"split_indices":[18,19,18,15,15,17,19,0,0,0,0,0,0,0,0],"split_type":[0,0,0,0,0,0,0,0,0,0,0,0,0,0,0],"sum_hessian":[1.512E3,1.075E3,4.37E2,8.48E2,2.27E2,1.6E1,4.21E2,7.23E2,1.25E2,2E0,2.25E2,1.5E1,1E0,4.15E2,6E0],"tree_param":{"num_deleted":"0","num_feature":"20","num_nodes":"15","size_leaf_vector":"1"}},{"base_weights":[5.4308777E-3,-2.0415063E-1,9.6239704E-1,-5.83039E-1,2.3780139E-1,1.2637216E0,-1.3370285E0,-2.1673404E-2,2.1047633E-2,1.0515041E-2,-7.4320115E-2,2.1741712E-2,2.1550234E-1,2.0581295E-1,-7.264824E-2],"categories":[],"categories_nodes":[],"categories_segments":[],"categories_sizes":[],"default_left":[0,0,0,0,0,0,0,0,0,0,0,0,0,0,0],"id":66,"left_children":[1,3,5,7,9,11,13,-1,-1,-1,-1,-1,-1,-1,-1],"loss_changes":[3.036474E2,2.0811212E2,1.9015121E2,1.20316055E2,1.7651004E2,7.637528E2,3.0111884E2,0E0,0E0,0E0,0E0,0E0,0E0,0E0,0E0],"parents":[2147483647,0,0,1,1,2,2,3,3,4,4,5,5,6,6],"right_children":[2,4,6,8,10,12,14,-1,-1,-1,-1,-1,-1,-1,-1],"split_conditions":[1.9071428E1,1.5E1,6.2E1,6.4E1,1.8714285E1,1E0,1.9214285E1,-2.1673404E-2,2.1047633E-2,1.0515041E-2,-7.4320115E-2,2.1741712E-2,2.1550234E-1,2.0581295E-1,-7.264824E-2],"split_indices":[17,19,15,15,17,9,17,0,0,0,0,0,0,0,0],"split_type":[0,0,0,0,0,0,0,0,0,0,0,0,0,0,0],"sum_hessian":[1.512E3,1.241E3,2.71E2,6.68E2,5.73E2,2.4E2,3.1E1,6.03E2,6.5E1,5.51E2,2.2E1,2.21E2,1.9E1,3E0,2.8E1],"tree_param":{"num_deleted":"0","num_feature":"20","num_nodes":"15","size_leaf_vector":"1"}},{"base_weights":[5.4700347E-3,-7.564887E-1,2.5989902E-1,-8.7636894E-1,3.33372E0,9.625916E-2,1.235124E0,1.0440866E-2,-3.2349434E-2,1.3240929E-1,-3.0518645E-2,-2.2644594E-3,3.6020946E-2,2.6467169E-2,1.571703E-1],"categories":[],"categories_nodes":[],"categories_segments":[],"categories_sizes":[],"default_left":[0,0,0,0,0,0,0,0,0,0,0,0,0,0,0],"id":67,"left_children":[1,3,5,7,9,11,13,-1,-1,-1,-1,-1,-1,-1,-1],"loss_changes":[2.9351343E2,1.887586E2,1.8101083E2,9.161484E1,5.6176224E1,1.8464697E2,2.256825E2,0E0,0E0,0E0,0E0,0E0,0E0,0E0,0E0],"parents":[2147483647,0,0,1,1,2,2,3,3,4,4,5,5,6,6],"right_children":[2,4,6,8,10,12,14,-1,-1,-1,-1,-1,-1,-1,-1],"split_conditions":[1.3533334E1,2.1E1,1E0,8E0,1.5357142E1,2.4E1,2.25E1,1.0440866E-2,-3.2349434E-2,1.3240929E-1,-3.0518645E-2,-2.2644594E-3,3.6020946E-2,2.6467169E-2,1.571703E-1],"split_indices":[18,19,4,15,17,19,18,0,0,0,0,0,0,0,0],"split_type":[0,0,0,0,0,0,0,0,0,0,0,0,0,0,0],"sum_hessian":[1.512E3,3.78E2,1.134E3,3.68E2,1E1,9.72E2,1.62E2,5.2E1,3.16E2,8E0,2E0,8.42E2,1.3E2,1.5E2,1.2E1],"tree_param":{"num_deleted":"0","num_feature":"20","num_nodes":"15","size_leaf_vector":"1"}},{"base_weights":[5.5023856E-3,-2.688964E-1,6.7958367E-1,-5.178762E-1,6.59405E-1,4.6389956E0,5.1847094E-1,-2.0480536E-2,1.2996842E-2,2.4026118E-1,1.6767904E-2,3.9722092E-2,8.6516714E-1,1.3190658E-2,1.5378973E-1],"categories":[],"categories_nodes":[],"categories_segments":[],"categories_sizes":[],"default_left":[0,0,0,0,0,0,0,0,0,0,0,0,0,0,0],"id":68,"left_children":[1,3,5,7,9,11,13,-1,-1,-1,-1,-1,-1,-1,-1],"loss_changes":[2.8003796E2,2.4903552E2,2.7700024E2,1.3337645E2,1.6388339E2,1.3255706E3,1.5093932E2,0E0,0E0,0E0,0E0,0E0,0E0,0E0,0E0],"parents":[2147483647,0,0,1,1,2,2,3,3,4,4,5,5,6,6],"right_children":[2,4,6,8,10,12,14,-1,-1,-1,-1,-1,-1,-1,-1],"split_conditions":[1.77E1,1.9E1,1.78E1,6.3E1,-1.5E1,2.0285715E1,4.5E1,-2.0480536E-2,1.2996842E-2,2.4026118E-1,1.6767904E-2,3.9722092E-2,8.6516714E-1,1.3190658E-2,1.5378973E-1],"split_indices":[18,19,18,15,15,17,19,0,0,0,0,0,0,0,0],"split_type":[0,0,0,0,0,0,0,0,0,0,0,0,0,0,0],"sum_hessian":[1.512E3,1.075E3,4.37E2,8.48E2,2.27E2,1.6E1,4.21E2,7.23E2,1.25E2,2E0,2.25E2,1.5E1,1E0,4.15E2,6E0],"tree_param":{"num_deleted":"0","num_feature":"20","num_nodes":"15","size_leaf_vector":"1"}},{"base_weights":[6.210504E-3,-7.201285E-1,2.4874465E-1,-8.3586365E-1,3.2277277E0,8.928438E-2,1.1990888E0,1.0673113E-2,-3.0973773E-2,1.284312E-1,-3.0243605E-2,-4.788092E-3,2.4644347E-2,2.5706362E-2,1.5245259E-1],"categories":[],"categories_nodes":[],"categories_segments":[],"categories_sizes":[],"default_left":[0,0,0,0,0,0,0,0,0,0,0,0,0,0,0],"id":69,"left_children":[1,3,5,7,9,11,13,-1,-1,-1,-1,-1,-1,-1,-1],"loss_changes":[2.6671225E2,1.7586528E2,1.7189328E2,8.681287E1,5.3394203E1,1.7744466E2,2.1222151E2,0E0,0E0,0E0,0E0,0E0,0E0,0E0,0E0],"parents":[2147483647,0,0,1,1,2,2,3,3,4,4,5,5,6,6],"right_children":[2,4,6,8,10,12,14,-1,-1,-1,-1,-1,-1,-1,-1],"split_conditions":[1.3533334E1,2.1E1,1E0,8E0,1.5357142E1,1E0,2.25E1,1.0673113E-2,-3.0973773E-2,1.284312E-1,-3.0243605E-2,-4.788092E-3,2.4644347E-2,2.5706362E-2,1.5245259E-1],"split_indices":[18,19,4,15,17,10,18,0,0,0,0,0,0,0,0],"split_type":[0,0,0,0,0,0,0,0,0,0,0,0,0,0,0],"sum_hessian":[1.512E3,3.78E2,1.134E3,3.68E2,1E1,9.72E2,1.62E2,5.2E1,3.16E2,8E0,2E0,7.26E2,2.46E2,1.5E2,1.2E1],"tree_param":{"num_deleted":"0","num_feature":"20","num_nodes":"15","size_leaf_vector":"1"}},{"base_weights":[6.20622E-3,-1.8600865E-1,8.838704E-1,-8.461116E-1,3.446134E-2,1.1961182E0,-1.1963131E0,-2.8711472E-2,2.7275791E-2,2.9671357E-3,-8.72728E-2,2.0462655E-2,2.2236757E-1,2.0104548E-1,-6.3521214E-2],"categories":[],"categories_nodes":[],"categories_segments":[],"categories_sizes":[],"default_left":[0,0,0,0,0,0,0,0,0,0,0,0,0,0,0],"id":70,"left_children":[1,3,5,7,9,11,13,-1,-1,-1,-1,-1,-1,-1,-1],"loss_changes":[2.5540767E2,1.80781E2,1.7810385E2,6.1430862E1,1.7708072E2,7.5222504E2,2.7606732E2,0E0,0E0,0E0,0E0,0E0,0E0,0E0,0E0],"parents":[2147483647,0,0,1,1,2,2,3,3,4,4,5,5,6,6],"right_children":[2,4,6,8,10,12,14,-1,-1,-1,-1,-1,-1,-1,-1],"split_conditions":[1.9071428E1,1.1E1,6.1E1,4.1E-1,1.8857143E1,1E0,1.9214285E1,-2.8711472E-2,2.7275791E-2,2.9671357E-3,-8.72728E-2,2.0462655E-2,2.2236757E-1,2.0104548E-1,-6.3521214E-2],"split_indices":[17,19,15,16,17,9,17,0,0,0,0,0,0,0,0],"split_type":[0,0,0,0,0,0,0,0,0,0,0,0,0,0,0],"sum_hessian":[1.512E3,1.241E3,2.71E2,3.1E2,9.31E2,2.36E2,3.5E1,2.92E2,1.8E1,9.12E2,1.9E1,2.19E2,1.7E1,3E0,3.2E1],"tree_param":{"num_deleted":"0","num_feature":"20","num_nodes":"15","size_leaf_vector":"1"}},{"base_weights":[6.2146536E-3,-2.510556E-1,6.38216E-1,-4.8801148E-1,6.323944E-1,4.5519443E0,4.790416E-1,-1.9442026E-2,1.3066462E-2,2.3531741E-1,1.601604E-2,3.8654096E-2,8.5151297E-1,7.0413025E-3,5.6028534E-2],"categories":[],"categories_nodes":[],"categories_segments":[],"categories_sizes":[],"default_left":[0,0,0,0,0,0,0,0,0,0,0,0,0,0,0],"id":71,"left_children":[1,3,5,7,9,11,13,-1,-1,-1,-1,-1,-1,-1,-1],"loss_changes":[2.4616669E2,2.25557E2,2.7067825E2,1.2578264E2,1.5781201E2,1.2855955E3,1.4273483E2,0E0,0E0,0E0,0E0,0E0,0E0,0E0,0E0],"parents":[2147483647,0,0,1,1,2,2,3,3,4,4,5,5,6,6],"right_children":[2,4,6,8,10,12,14,-1,-1,-1,-1,-1,-1,-1,-1],"split_conditions":[1.77E1,1.9E1,1.78E1,6.3E1,-1.5E1,2.0285715E1,1E0,-1.9442026E-2,1.3066462E-2,2.3531741E-1,1.601604E-2,3.8654096E-2,8.5151297E-1,7.0413025E-3,5.6028534E-2],"split_indices":[18,19,18,15,15,17,4,0,0,0,0,0,0,0,0],"split_type":[0,0,0,0,0,0,0,0,0,0,0,0,0,0,0],"sum_hessian":[1.512E3,1.075E3,4.37E2,8.48E2,2.27E2,1.6E1,4.21E2,7.23E2,1.25E2,2E0,2.25E2,1.5E1,1E0,3.59E2,6.2E1],"tree_param":{"num_deleted":"0","num_feature":"20","num_nodes":"15","size_leaf_vector":"1"}},{"base_weights":[6.81982E-3,-6.7587733E-1,2.3478054E-1,-7.8727835E-1,3.1225636E0,8.244469E-2,1.1426823E0,1.1074722E-2,-2.9344264E-2,-3.0846423E-2,1.2477613E-1,-4.746907E-3,2.3714824E-2,2.4502262E-2,1.4522113E-1],"categories":[],"categories_nodes":[],"categories_segments":[],"categories_sizes":[],"default_left":[0,0,0,0,0,0,0,0,0,0,0,0,0,0,0],"id":72,"left_children":[1,3,5,7,9,11,13,-1,-1,-1,-1,-1,-1,-1,-1],"loss_changes":[2.3562404E2,1.6283226E2,1.5688307E2,8.18074E1,5.1608093E1,1.6593376E2,1.9251587E2,0E0,0E0,0E0,0E0,0E0,0E0,0E0,0E0],"parents":[2147483647,0,0,1,1,2,2,3,3,4,4,5,5,6,6],"right_children":[2,4,6,8,10,12,14,-1,-1,-1,-1,-1,-1,-1,-1],"split_conditions":[1.3533334E1,2.1E1,1E0,8E0,-3E0,1E0,2.25E1,1.1074722E-2,-2.9344264E-2,-3.0846423E-2,1.2477613E-1,-4.746907E-3,2.3714824E-2,2.4502262E-2,1.4522113E-1],"split_indices":[18,19,4,15,15,10,18,0,0,0,0,0,0,0,0],"split_type":[0,0,0,0,0,0,0,0,0,0,0,0,0,0,0],"sum_hessian":[1.512E3,3.78E2,1.134E3,3.68E2,1E1,9.72E2,1.62E2,5.2E1,3.16E2,2E0,8E0,7.26E2,2.46E2,1.5E2,1.2E1],"tree_param":{"num_deleted":"0","num_feature":"20","num_nodes":"15","size_leaf_vector":"1"}},{"base_weights":[6.7901663E-3,-2.387688E-1,6.1002E-1,-4.6614042E-1,6.089386E-1,4.462125E0,4.5339483E-1,-1.8663611E-2,1.3014749E-2,2.3070602E-1,1.5367353E-2,3.7432153E-2,8.3838457E-1,1.1334686E-2,1.4639272E-1],"categories":[],"categories_nodes":[],"categories_segments":[],"categories_sizes":[],"default_left":[0,0,0,0,0,0,0,0,0,0,0,0,0,0,0],"id":73,"left_children":[1,3,5,7,9,11,13,-1,-1,-1,-1,-1,-1,-1,-1],"loss_changes":[2.2426405E2,2.0767705E2,2.6223822E2,1.194496E2,1.5217502E2,1.2484052E3,1.3931905E2,0E0,0E0,0E0,0E0,0E0,0E0,0E0,0E0],"parents":[2147483647,0,0,1,1,2,2,3,3,4,4,5,5,6,6],"right_children":[2,4,6,8,10,12,14,-1,-1,-1,-1,-1,-1,-1,-1],"split_conditions":[1.77E1,1.9E1,1.78E1,6.3E1,-1.5E1,2.0285715E1,4.5E1,-1.8663611E-2,1.3014749E-2,2.3070602E-1,1.5367353E-2,3.7432153E-2,8.3838457E-1,1.1334686E-2,1.4639272E-1],"split_indices":[18,19,18,15,15,17,19,0,0,0,0,0,0,0,0],"split_type":[0,0,0,0,0,0,0,0,0,0,0,0,0,0,0],"sum_hessian":[1.512E3,1.075E3,4.37E2,8.48E2,2.27E2,1.6E1,4.21E2,7.23E2,1.25E2,2E0,2.25E2,1.5E1,1E0,4.15E2,6E0],"tree_param":{"num_deleted":"0","num_feature":"20","num_nodes":"15","size_leaf_vector":"1"}},{"base_weights":[7.428197E-3,-6.433008E-1,2.2471353E-1,-7.508645E-1,3.0234547E0,7.6259255E-2,1.1095068E0,1.1240291E-2,-2.8100332E-2,4.655273E-3,1.3920909E-1,2.6529693E-4,7.5942546E-2,2.3801152E-2,1.4088571E-1],"categories":[],"categories_nodes":[],"categories_segments":[],"categories_sizes":[],"default_left":[0,0,0,0,0,0,0,0,0,0,0,0,0,0,0],"id":74,"left_children":[1,3,5,7,9,11,13,-1,-1,-1,-1,-1,-1,-1,-1],"loss_changes":[2.1407349E2,1.5175153E2,1.4899918E2,7.752377E1,5.0293236E1,1.6102571E2,1.8109601E2,0E0,0E0,0E0,0E0,0E0,0E0,0E0,0E0],"parents":[2147483647,0,0,1,1,2,2,3,3,4,4,5,5,6,6],"right_children":[2,4,6,8,10,12,14,-1,-1,-1,-1,-1,-1,-1,-1],"split_conditions":[1.3533334E1,2.1E1,1E0,8E0,2.1E1,2.7285715E1,2.25E1,1.1240291E-2,-2.8100332E-2,4.655273E-3,1.3920909E-1,2.6529693E-4,7.5942546E-2,2.3801152E-2,1.4088571E-1],"split_indices":[18,19,4,15,14,17,18,0,0,0,0,0,0,0,0],"split_type":[0,0,0,0,0,0,0,0,0,0,0,0,0,0,0],"sum_hessian":[1.512E3,3.78E2,1.134E3,3.68E2,1E1,9.72E2,1.62E2,5.2E1,3.16E2,4E0,6E0,9.47E2,2.5E1,1.5E2,1.2E1],"tree_param":{"num_deleted":"0","num_feature":"20","num_nodes":"15","size_leaf_vector":"1"}},{"base_weights":[7.448504E-3,-1.6510239E-1,7.9531896E-1,-7.676842E-1,3.6150895E-2,4.6540105E-1,2.6972077E0,-1.9219736E-2,-6.991263E-2,2.2820008E-3,-1.3750897E-1,2.3580477E-2,-6.352254E-2,2.6159835E-1,-1.5767695E-2],"categories":[],"categories_nodes":[],"categories_segments":[],"categories_sizes":[],"default_left":[0,0,0,0,0,0,0,0,0,0,0,0,0,0,0],"id":75,"left_children":[1,3,5,7,9,11,13,-1,-1,-1,-1,-1,-1,-1,-1],"loss_changes":[2.0582024E2,1.5064705E2,1.6941576E2,6.0243225E1,1.7221167E2,1.9460936E2,7.8098566E2,0E0,0E0,0E0,0E0,0E0,0E0,0E0,0E0],"parents":[2147483647,0,0,1,1,2,2,3,3,4,4,5,5,6,6],"right_children":[2,4,6,8,10,12,14,-1,-1,-1,-1,-1,-1,-1,-1],"split_conditions":[1.9071428E1,1.1E1,1E0,1.7466667E1,1.9E1,5.5E1,7.6E1,-1.9219736E-2,-6.991263E-2,2.2820008E-3,-1.3750897E-1,2.3580477E-2,-6.352254E-2,2.6159835E-1,-1.5767695E-2],"split_indices":[17,19,9,18,17,15,14,0,0,0,0,0,0,0,0],"split_type":[0,0,0,0,0,0,0,0,0,0,0,0,0,0,0],"sum_hessian":[1.512E3,1.241E3,2.71E2,3.1E2,9.31E2,2.32E2,3.9E1,2.88E2,2.2E1,9.24E2,7E0,2.07E2,2.5E1,1.3E1,2.6E1],"tree_param":{"num_deleted":"0","num_feature":"20","num_nodes":"15","size_leaf_vector":"1"}},{"base_weights":[7.2129737E-3,-2.2326264E-1,5.7338774E-1,-4.3971586E-1,5.8371997E-1,4.3798633E0,4.1868755E-1,-1.7727457E-2,1.2977115E-2,2.2582799E-1,1.4668852E-2,3.642675E-2,8.2545114E-1,1.8481307E-2,-3.395636E-2],"categories":[],"categories_nodes":[],"categories_segments":[],"categories_sizes":[],"default_left":[0,0,0,0,0,0,0,0,0,0,0,0,0,0,0],"id":76,"left_children":[1,3,5,7,9,11,13,-1,-1,-1,-1,-1,-1,-1,-1],"loss_changes":[1.9755858E2,1.8820587E2,2.5608795E2,1.1222952E2,1.4634096E2,1.2116296E3,1.2983499E2,0E0,0E0,0E0,0E0,0E0,0E0,0E0,0E0],"parents":[2147483647,0,0,1,1,2,2,3,3,4,4,5,5,6,6],"right_children":[2,4,6,8,10,12,14,-1,-1,-1,-1,-1,-1,-1,-1],"split_conditions":[1.77E1,1.9E1,1.78E1,6.3E1,-1.5E1,2.0285715E1,6.1E1,-1.7727457E-2,1.2977115E-2,2.2582799E-1,1.4668852E-2,3.642675E-2,8.2545114E-1,1.8481307E-2,-3.395636E-2],"split_indices":[18,19,18,15,15,17,15,0,0,0,0,0,0,0,0],"split_type":[0,0,0,0,0,0,0,0,0,0,0,0,0,0,0],"sum_hessian":[1.512E3,1.075E3,4.37E2,8.48E2,2.27E2,1.6E1,4.21E2,7.23E2,1.25E2,2E0,2.25E2,1.5E1,1E0,3.74E2,4.7E1],"tree_param":{"num_deleted":"0","num_feature":"20","num_nodes":"15","size_leaf_vector":"1"}},{"base_weights":[7.7116853E-3,-6.0489064E-1,2.1226549E-1,-7.0864E-1,2.9304194E0,6.802261E-2,1.0719959E0,1.1528141E-2,-2.6673932E-2,1.18462965E-1,-3.3042755E-2,-4.850645E-3,2.2315785E-2,2.3102492E-2,1.3489103E-1],"categories":[],"categories_nodes":[],"categories_segments":[],"categories_sizes":[],"default_left":[0,0,0,0,0,0,0,0,0,0,0,0,0,0,0],"id":77,"left_children":[1,3,5,7,9,11,13,-1,-1,-1,-1,-1,-1,-1,-1],"loss_changes":[1.8972263E2,1.4108858E2,1.406784E2,7.313089E1,4.9513214E1,1.5117564E2,1.650569E2,0E0,0E0,0E0,0E0,0E0,0E0,0E0,0E0],"parents":[2147483647,0,0,1,1,2,2,3,3,4,4,5,5,6,6],"right_children":[2,4,6,8,10,12,14,-1,-1,-1,-1,-1,-1,-1,-1],"split_conditions":[1.3533334E1,2.1E1,1E0,8E0,1.5357142E1,1E0,2.25E1,1.1528141E-2,-2.6673932E-2,1.18462965E-1,-3.3042755E-2,-4.850645E-3,2.2315785E-2,2.3102492E-2,1.3489103E-1],"split_indices":[18,19,4,15,17,10,18,0,0,0,0,0,0,0,0],"split_type":[0,0,0,0,0,0,0,0,0,0,0,0,0,0,0],"sum_hessian":[1.512E3,3.78E2,1.134E3,3.68E2,1E1,9.72E2,1.62E2,5.2E1,3.16E2,8E0,2E0,7.26E2,2.46E2,1.5E2,1.2E1],"tree_param":{"num_deleted":"0","num_feature":"20","num_nodes":"15","size_leaf_vector":"1"}},{"base_weights":[7.6427106E-3,-1.5364645E-1,7.4408937E-1,-7.207056E-1,3.574095E-2,4.1919583E-1,2.6179922E0,-1.7836254E-2,-6.823941E-2,2.9486432E-3,-8.463971E-2,2.181645E-2,-6.1832406E-2,2.536694E-1,-1.5177095E-2],"categories":[],"categories_nodes":[],"categories_segments":[],"categories_sizes":[],"default_left":[0,0,0,0,0,0,0,0,0,0,0,0,0,0,0],"id":78,"left_children":[1,3,5,7,9,11,13,-1,-1,-1,-1,-1,-1,-1,-1],"loss_changes":[1.7982977E2,1.3340895E2,1.645013E2,5.9619568E1,1.6682689E2,1.7950446E2,7.337267E2,0E0,0E0,0E0,0E0,0E0,0E0,0E0,0E0],"parents":[2147483647,0,0,1,1,2,2,3,3,4,4,5,5,6,6],"right_children":[2,4,6,8,10,12,14,-1,-1,-1,-1,-1,-1,-1,-1],"split_conditions":[1.9071428E1,1.1E1,1E0,1.7466667E1,1.8857143E1,5.5E1,7.6E1,-1.7836254E-2,-6.823941E-2,2.9486432E-3,-8.463971E-2,2.181645E-2,-6.1832406E-2,2.536694E-1,-1.5177095E-2],"split_indices":[17,19,9,18,17,15,14,0,0,0,0,0,0,0,0],"split_type":[0,0,0,0,0,0,0,0,0,0,0,0,0,0,0],"sum_hessian":[1.512E3,1.241E3,2.71E2,3.1E2,9.31E2,2.32E2,3.9E1,2.88E2,2.2E1,9.12E2,1.9E1,2.07E2,2.5E1,1.3E1,2.6E1],"tree_param":{"num_deleted":"0","num_feature":"20","num_nodes":"15","size_leaf_vector":"1"}},{"base_weights":[7.433735E-3,-5.8017594E-1,2.0364222E-1,-6.8078643E-1,2.8475912E0,6.386401E-2,1.0367745E0,1.1313807E-2,-2.5665417E-2,2.1318626E-3,1.3272081E-1,-4.7789873E-3,2.1613417E-2,2.2423865E-2,1.2952489E-1],"categories":[],"categories_nodes":[],"categories_segments":[],"categories_sizes":[],"default_left":[0,0,0,0,0,0,0,0,0,0,0,0,0,0,0],"id":79,"left_children":[1,3,5,7,9,11,13,-1,-1,-1,-1,-1,-1,-1,-1],"loss_changes":[1.7455798E2,1.3264404E2,1.321088E2,6.8531006E1,4.7832855E1,1.4268405E2,1.5148479E2,0E0,0E0,0E0,0E0,0E0,0E0,0E0,0E0],"parents":[2147483647,0,0,1,1,2,2,3,3,4,4,5,5,6,6],"right_children":[2,4,6,8,10,12,14,-1,-1,-1,-1,-1,-1,-1,-1],"split_conditions":[1.3533334E1,2.1E1,1E0,8E0,2.1E1,1E0,2.25E1,1.1313807E-2,-2.5665417E-2,2.1318626E-3,1.3272081E-1,-4.7789873E-3,2.1613417E-2,2.2423865E-2,1.2952489E-1],"split_indices":[18,19,4,15,14,10,18,0,0,0,0,0,0,0,0],"split_type":[0,0,0,0,0,0,0,0,0,0,0,0,0,0,0],"sum_hessian":[1.512E3,3.78E2,1.134E3,3.68E2,1E1,9.72E2,1.62E2,5.2E1,3.16E2,4E0,6E0,7.26E2,2.46E2,1.5E2,1.2E1],"tree_param":{"num_deleted":"0","num_feature":"20","num_nodes":"15","size_leaf_vector":"1"}},{"base_weights":[7.4019944E-3,-2.0521246E-1,5.296982E-1,-4.089908E-1,5.544937E-1,4.290557E0,3.769392E-1,-1.0009224E-2,-6.304132E-2,2.2125639E-1,1.3844991E-2,3.5251115E-2,8.120831E-1,1.7005896E-2,-3.3440858E-2],"categories":[],"categories_nodes":[],"categories_segments":[],"categories_sizes":[],"default_left":[0,0,0,0,0,0,0,0,0,0,0,0,0,0,0],"id":80,"left_children":[1,3,5,7,9,11,13,-1,-1,-1,-1,-1,-1,-1,-1],"loss_changes":[1.681239E2,1.6680414E2,2.5001593E2,1.07564514E2,1.4121358E2,1.1746495E3,1.2018331E2,0E0,0E0,0E0,0E0,0E0,0E0,0E0,0E0],"parents":[2147483647,0,0,1,1,2,2,3,3,4,4,5,5,6,6],"right_children":[2,4,6,8,10,12,14,-1,-1,-1,-1,-1,-1,-1,-1],"split_conditions":[1.77E1,1.9E1,1.78E1,1.7714285E1,-1.5E1,2.0285715E1,6.1E1,-1.0009224E-2,-6.304132E-2,2.2125639E-1,1.3844991E-2,3.5251115E-2,8.120831E-1,1.7005896E-2,-3.3440858E-2],"split_indices":[18,19,18,17,15,17,15,0,0,0,0,0,0,0,0],"split_type":[0,0,0,0,0,0,0,0,0,0,0,0,0,0,0],"sum_hessian":[1.512E3,1.075E3,4.37E2,8.48E2,2.27E2,1.6E1,4.21E2,8.13E2,3.5E1,2E0,2.25E2,1.5E1,1E0,3.74E2,4.7E1],"tree_param":{"num_deleted":"0","num_feature":"20","num_nodes":"15","size_leaf_vector":"1"}},{"base_weights":[7.836013E-3,-2.1651976E-1,4.823831E-1,-4.007624E-1,4.861638E-1,6.6172117E-1,-1.1305239E0,-1.5802177E-2,5.6196317E-2,2.0557295E-3,5.458886E-2,2.6026985E-2,-2.8589623E-2,-5.071799E-2,4.6396382E-2],"categories":[],"categories_nodes":[],"categories_segments":[],"categories_sizes":[],"default_left":[0,0,0,0,0,0,0,0,0,0,0,0,0,0,0],"id":81,"left_children":[1,3,5,7,9,11,13,-1,-1,-1,-1,-1,-1,-1,-1],"loss_changes":[1.611896E2,1.332841E2,1.4132632E2,2.3445804E2,1.1905354E2,1.4640907E2,7.6083336E1,0E0,0E0,0E0,0E0,0E0,0E0,0E0,0E0],"parents":[2147483647,0,0,1,1,2,2,3,3,4,4,5,5,6,6],"right_children":[2,4,6,8,10,12,14,-1,-1,-1,-1,-1,-1,-1,-1],"split_conditions":[1.7357143E1,6.1E1,2E-1,4.1E-1,1.5766666E1,6.1E1,7.9E1,-1.5802177E-2,5.6196317E-2,2.0557295E-3,5.458886E-2,2.6026985E-2,-2.8589623E-2,-5.071799E-2,4.6396382E-2],"split_indices":[17,15,16,16,18,15,14,0,0,0,0,0,0,0,0],"split_type":[0,0,0,0,0,0,0,0,0,0,0,0,0,0,0],"sum_hessian":[1.512E3,1.027E3,4.85E2,8.14E2,2.13E2,4.37E2,4.8E1,7.72E2,4.2E1,1.63E2,5E1,3.88E2,4.9E1,4E1,8E0],"tree_param":{"num_deleted":"0","num_feature":"20","num_nodes":"15","size_leaf_vector":"1"}},{"base_weights":[7.6604094E-3,-5.446355E-1,1.9207668E-1,-6.419595E-1,2.7696562E0,5.609734E-2,1.0026032E0,9.834479E-3,-2.4716161E-2,1.1280415E-1,-3.3750266E-2,-1.6790532E-4,6.910214E-2,2.1724306E-2,1.24796875E-1],"categories":[],"categories_nodes":[],"categories_segments":[],"categories_sizes":[],"default_left":[0,0,0,0,0,0,0,0,0,0,0,0,0,0,0],"id":82,"left_children":[1,3,5,7,9,11,13,-1,-1,-1,-1,-1,-1,-1,-1],"loss_changes":[1.542072E2,1.2402834E2,1.2503763E2,6.536694E1,4.6663742E1,1.3491524E2,1.4029375E2,0E0,0E0,0E0,0E0,0E0,0E0,0E0,0E0],"parents":[2147483647,0,0,1,1,2,2,3,3,4,4,5,5,6,6],"right_children":[2,4,6,8,10,12,14,-1,-1,-1,-1,-1,-1,-1,-1],"split_conditions":[1.3533334E1,2.1E1,1E0,9.733334E0,1.5357142E1,2.7285715E1,2.25E1,9.834479E-3,-2.4716161E-2,1.1280415E-1,-3.3750266E-2,-1.6790532E-4,6.910214E-2,2.1724306E-2,1.24796875E-1],"split_indices":[18,19,4,18,17,17,18,0,0,0,0,0,0,0,0],"split_type":[0,0,0,0,0,0,0,0,0,0,0,0,0,0,0],"sum_hessian":[1.512E3,3.78E2,1.134E3,3.68E2,1E1,9.72E2,1.62E2,5.8E1,3.1E2,8E0,2E0,9.47E2,2.5E1,1.5E2,1.2E1],"tree_param":{"num_deleted":"0","num_feature":"20","num_nodes":"15","size_leaf_vector":"1"}},{"base_weights":[7.615393E-3,-1.776756E-1,5.325091E-1,-2.6464298E-1,9.5512134E-1,7.447694E-1,-1.269221E0,-1.3084239E-2,1.4564379E-2,6.9883816E-2,-1.432363E-2,2.5548719E-2,-1.0337838E-1,-5.5923827E-2,5.9148483E-2],"categories":[],"categories_nodes":[],"categories_segments":[],"categories_sizes":[],"default_left":[0,0,0,0,0,0,0,0,0,0,0,0,0,0,0],"id":83,"left_children":[1,3,5,7,9,11,13,-1,-1,-1,-1,-1,-1,-1,-1],"loss_changes":[1.4724608E2,1.104926E2,1.5200742E2,1.3400226E2,1.5861983E2,1.6145477E2,8.465115E1,0E0,0E0,0E0,0E0,0E0,0E0,0E0,0E0],"parents":[2147483647,0,0,1,1,2,2,3,3,4,4,5,5,6,6],"right_children":[2,4,6,8,10,12,14,-1,-1,-1,-1,-1,-1,-1,-1],"split_conditions":[1.7928572E1,3.4E-1,2E-1,6.1E1,4.9E1,6.7E1,7.9E1,-1.3084239E-2,1.4564379E-2,6.9883816E-2,-1.432363E-2,2.5548719E-2,-1.0337838E-1,-5.5923827E-2,5.9148483E-2],"split_indices":[17,16,16,15,15,15,14,0,0,0,0,0,0,0,0],"split_type":[0,0,0,0,0,0,0,0,0,0,0,0,0,0,0],"sum_hessian":[1.512E3,1.118E3,3.94E2,1.039E3,7.9E1,3.53E2,4.1E1,8.46E2,1.93E2,4E1,3.9E1,3.45E2,8E0,3.5E1,6E0],"tree_param":{"num_deleted":"0","num_feature":"20","num_nodes":"15","size_leaf_vector":"1"}},{"base_weights":[7.375357E-3,-4.9268642E-1,1.9619998E-1,-3.3120653E-1,-5.0942736E0,1.6904403E-1,3.8784618E0,-1.3298252E-2,8.419065E-2,-1.6045384E-1,-2.6847495E-2,6.2711746E-3,-1.13411725E-1,-4.056779E-2,2.186204E-1],"categories":[],"categories_nodes":[],"categories_segments":[],"categories_sizes":[],"default_left":[0,0,0,0,0,0,0,0,0,0,0,0,0,0,0],"id":84,"left_children":[1,3,5,7,9,11,13,-1,-1,-1,-1,-1,-1,-1,-1],"loss_changes":[1.4296014E2,3.066842E2,1.0923922E2,1.4259598E2,1.0157532E1,1.7328061E2,1.525018E2,0E0,0E0,0E0,0E0,0E0,0E0,0E0,0E0],"parents":[2147483647,0,0,1,1,2,2,3,3,4,4,5,5,6,6],"right_children":[2,4,6,8,10,12,14,-1,-1,-1,-1,-1,-1,-1,-1],"split_conditions":[1.3642858E1,1.5033334E1,4.5E1,1.4633333E1,1E0,3.6E1,4.8E1,-1.3298252E-2,8.419065E-2,-1.6045384E-1,-2.6847495E-2,6.2711746E-3,-1.13411725E-1,-4.056779E-2,2.186204E-1],"split_indices":[17,18,19,18,5,19,15,0,0,0,0,0,0,0,0],"split_type":[0,0,0,0,0,0,0,0,0,0,0,0,0,0,0],"sum_hessian":[1.512E3,4.14E2,1.098E3,4.01E2,1.3E1,1.091E3,7E0,3.88E2,1.3E1,1.2E1,1E0,1.081E3,1E1,3E0,4E0],"tree_param":{"num_deleted":"0","num_feature":"20","num_nodes":"15","size_leaf_vector":"1"}},{"base_weights":[7.123833E-3,-1.3391455E-1,6.511038E-1,-9.109765E-2,-2.504165E0,3.278883E-1,2.5175562E0,-8.191852E-3,1.6164118E-2,-9.776772E-2,1.00868486E-1,1.7704261E-2,-7.043182E-2,2.427816E-1,-1.3995363E-2],"categories":[],"categories_nodes":[],"categories_segments":[],"categories_sizes":[],"default_left":[0,0,0,0,0,0,0,0,0,0,0,0,0,0,0],"id":85,"left_children":[1,3,5,7,9,11,13,-1,-1,-1,-1,-1,-1,-1,-1],"loss_changes":[1.3750676E2,1.2581842E2,1.6326292E2,1.4009747E2,1.0836801E2,1.6487932E2,6.692421E2,0E0,0E0,0E0,0E0,0E0,0E0,0E0,0E0],"parents":[2147483647,0,0,1,1,2,2,3,3,4,4,5,5,6,6],"right_children":[2,4,6,8,10,12,14,-1,-1,-1,-1,-1,-1,-1,-1],"split_conditions":[1.9071428E1,1.8857143E1,1E0,1.9E1,1E0,5.7E1,7.6E1,-8.191852E-3,1.6164118E-2,-9.776772E-2,1.00868486E-1,1.7704261E-2,-7.043182E-2,2.427816E-1,-1.3995363E-2],"split_indices":[17,17,9,19,4,15,14,0,0,0,0,0,0,0,0],"split_type":[0,0,0,0,0,0,0,0,0,0,0,0,0,0,0],"sum_hessian":[1.512E3,1.241E3,2.71E2,1.22E3,2.1E1,2.32E2,3.9E1,9.47E2,2.73E2,1.9E1,2E0,2.12E2,2E1,1.3E1,2.6E1],"tree_param":{"num_deleted":"0","num_feature":"20","num_nodes":"15","size_leaf_vector":"1"}},{"base_weights":[7.03388E-3,-5.048924E-1,1.7797045E-1,-5.9866357E-1,2.6866043E0,4.670366E-2,9.6045285E-1,1.3173014E-2,-2.310844E-2,3.100662E-4,1.2643272E-1,-5.0265966E-3,2.0314232E-2,4.0120672E-2,-3.834499E-2],"categories":[],"categories_nodes":[],"categories_segments":[],"categories_sizes":[],"default_left":[0,0,0,0,0,0,0,0,0,0,0,0,0,0,0],"id":86,"left_children":[1,3,5,7,9,11,13,-1,-1,-1,-1,-1,-1,-1,-1],"loss_changes":[1.3248782E2,1.15031876E2,1.1653549E2,6.605667E1,4.493386E1,1.3154195E2,1.3923932E2,0E0,0E0,0E0,0E0,0E0,0E0,0E0,0E0],"parents":[2147483647,0,0,1,1,2,2,3,3,4,4,5,5,6,6],"right_children":[2,4,6,8,10,12,14,-1,-1,-1,-1,-1,-1,-1,-1],"split_conditions":[1.3533334E1,2.1E1,1E0,8E0,2.1E1,1E0,2.5E1,1.3173014E-2,-2.310844E-2,3.100662E-4,1.2643272E-1,-5.0265966E-3,2.0314232E-2,4.0120672E-2,-3.834499E-2],"split_indices":[18,19,4,15,14,10,19,0,0,0,0,0,0,0,0],"split_type":[0,0,0,0,0,0,0,0,0,0,0,0,0,0,0],"sum_hessian":[1.512E3,3.78E2,1.134E3,3.68E2,1E1,9.72E2,1.62E2,5.2E1,3.16E2,4E0,6E0,7.26E2,2.46E2,1.39E2,2.3E1],"tree_param":{"num_deleted":"0","num_feature":"20","num_nodes":"15","size_leaf_vector":"1"}},{"base_weights":[6.911037E-3,