{"learner":{"attributes":{"best_iteration":"36","best_score":"4.142210459230119","scikit_learn":"{\"_estimator_type\": \"regressor\"}"},"feature_names":["Tuesday","Wednesday","Thursday","Friday","Saturday","Sunday","Monday","Winter","Spring","Summer","Fall","is_holiday","day_before_holiday","day_after_holiday","TAVG (Degrees Fahrenheit)","TMAX (Degrees Fahrenheit)","TMIN (Degrees Fahrenheit)","PRCP (Inches)","roll14","roll30","lag7"],"feature_types":["int","int","int","int","int","int","int","int","int","int","int","int","int","int","float","float","float","float","float","float","float"],"gradient_booster":{"model":{"gbtree_model_param":{"num_parallel_tree":"1","num_trees":"67"},"iteration_indptr":[0,1,2,3,4,5,6,7,8,9,10,11,12,13,14,15,16,17,18,19,20,21,22,23,24,25,26,27,28,29,30,31,32,33,34,35,36,37,38,39,40,41,42,43,44,45,46,47,48,49,50,51,52,53,54,55,56,57,58,59,60,61,62,63,64,65,66,67],"tree_info":[0,0,0,0,0,0,0,0,0,0,0,0,0,0,0,0,0,0,0,0,0,0,0,0,0,0,0,0,0,0,0,0,0,0,0,0,0,0,0,0,0,0,0,0,0,0,0,0,0,0,0,0,0,0,0,0,0,0,0,0,0,0,0,0,0,0,0],"trees":[{"base_weights":[3.7691638E-7,-3.79895E0,1.5636469E0,-4.126371E0,2.048275E0,1.0320673E0,5.681465E0,-1.5798803E-1,-9.5300645E-2,8.783677E-2,-9.245354E-2,-7.358838E-3,6.1328363E-2,1.2258562E-1,4.083922E-1],"categories":[],"categories_nodes":[],"categories_segments":[],"categories_sizes":[],"default_left":[0,0,0,0,0,0,0,0,0,0,0,0,0,0,0],"id":0,"left_children":[1,3,5,7,9,11,13,-1,-1,-1,-1,-1,-1,-1,-1],"loss_changes":[8.963785E3,8.50833E2,2.3341216E3,4.3468994E2,1.1732289E2,1.2262283E3,1.4880552E3,0E0,0E0,0E0,0E0,0E0,0E0,0E0,0E0],"parents":[2147483647,0,0,1,1,2,2,3,3,4,4,5,5,6,6],"right_children":[2,4,6,8,10,12,14,-1,-1,-1,-1,-1,-1,-1,-1],"split_conditions":[1.41E1,1.4928572E1,2.1357143E1,1.0766666E1,1.4E1,1.6E1,1E0,-1.5798803E-1,-9.5300645E-2,8.783677E-2,-9.245354E-2,-7.358838E-3,6.1328363E-2,1.2258562E-1,4.083922E-1],"split_indices":[19,18,18,19,19,20,9,0,0,0,0,0,0,0,0],"split_type":[0,0,0,0,0,0,0,0,0,0,0,0,0,0,0],"sum_hessian":[1.507E3,4.39E2,1.068E3,4.16E2,2.3E1,9.47E2,1.21E2,1.87E2,2.29E2,2E1,3E0,4.19E2,5.28E2,1.02E2,1.9E1],"tree_param":{"num_deleted":"0","num_feature":"21","num_nodes":"15","size_leaf_vector":"1"}},{"base_weights":[2.1727901E-4,-3.6855679E0,1.5172849E0,-4.003187E0,1.9866341E0,1.0011624E0,5.5153737E0,-1.5327361E-1,-9.245405E-2,8.532713E-2,-9.037332E-2,-7.138607E-3,5.9492007E-2,1.1894376E-1,3.96753E-1],"categories":[],"categories_nodes":[],"categories_segments":[],"categories_sizes":[],"default_left":[0,0,0,0,0,0,0,0,0,0,0,0,0,0,0],"id":1,"left_children":[1,3,5,7,9,11,13,-1,-1,-1,-1,-1,-1,-1,-1],"loss_changes":[8.437703E3,8.006572E2,2.2003633E3,4.0917383E2,1.1146159E2,1.1538975E3,1.4060217E3,0E0,0E0,0E0,0E0,0E0,0E0,0E0,0E0],"parents":[2147483647,0,0,1,1,2,2,3,3,4,4,5,5,6,6],"right_children":[2,4,6,8,10,12,14,-1,-1,-1,-1,-1,-1,-1,-1],"split_conditions":[1.41E1,1.4928572E1,2.1357143E1,1.0766666E1,1.4E1,1.6E1,1E0,-1.5327361E-1,-9.245405E-2,8.532713E-2,-9.037332E-2,-7.138607E-3,5.9492007E-2,1.1894376E-1,3.96753E-1],"split_indices":[19,18,18,19,19,20,9,0,0,0,0,0,0,0,0],"split_type":[0,0,0,0,0,0,0,0,0,0,0,0,0,0,0],"sum_hessian":[1.507E3,4.39E2,1.068E3,4.16E2,2.3E1,9.47E2,1.21E2,1.87E2,2.29E2,2E1,3E0,4.19E2,5.28E2,1.02E2,1.9E1],"tree_param":{"num_deleted":"0","num_feature":"21","num_nodes":"15","size_leaf_vector":"1"}},{"base_weights":[4.2095804E-4,-3.5755708E0,1.4722974E0,-3.8836808E0,1.9268248E0,9.6412694E-1,5.302288E0,-1.4869986E-1,-8.9692496E-2,8.288922E-2,-8.833993E-2,-7.0641483E-3,5.7359494E-2,1.1485537E-1,3.8544554E-1],"categories":[],"categories_nodes":[],"categories_segments":[],"categories_sizes":[],"default_left":[0,0,0,0,0,0,0,0,0,0,0,0,0,0,0],"id":2,"left_children":[1,3,5,7,9,11,13,-1,-1,-1,-1,-1,-1,-1,-1],"loss_changes":[7.9424985E3,7.534341E2,2.07547E3,3.8515527E2,1.0589503E2,1.0749595E3,1.3409307E3,0E0,0E0,0E0,0E0,0E0,0E0,0E0,0E0],"parents":[2147483647,0,0,1,1,2,2,3,3,4,4,5,5,6,6],"right_children":[2,4,6,8,10,12,14,-1,-1,-1,-1,-1,-1,-1,-1],"split_conditions":[1.41E1,1.4928572E1,2.1142857E1,1.0766666E1,1.4E1,1.6E1,1E0,-1.4869986E-1,-8.9692496E-2,8.288922E-2,-8.833993E-2,-7.0641483E-3,5.7359494E-2,1.1485537E-1,3.8544554E-1],"split_indices":[19,18,18,19,19,20,9,0,0,0,0,0,0,0,0],"split_type":[0,0,0,0,0,0,0,0,0,0,0,0,0,0,0],"sum_hessian":[1.507E3,4.39E2,1.068E3,4.16E2,2.3E1,9.44E2,1.24E2,1.87E2,2.29E2,2E1,3E0,4.17E2,5.27E2,1.05E2,1.9E1],"tree_param":{"num_deleted":"0","num_feature":"21","num_nodes":"15","size_leaf_vector":"1"}},{"base_weights":[6.115898E-4,-3.468858E0,1.4286435E0,-3.7677424E0,1.8687927E0,7.4126637E-1,4.1397147E0,-1.442626E-1,-8.701342E-2,8.052094E-2,-8.635229E-2,-6.811187E-3,4.6553995E-2,6.45991E-2,2.2078624E-1],"categories":[],"categories_nodes":[],"categories_segments":[],"categories_sizes":[],"default_left":[0,0,0,0,0,0,0,0,0,0,0,0,0,0,0],"id":3,"left_children":[1,3,5,7,9,11,13,-1,-1,-1,-1,-1,-1,-1,-1],"loss_changes":[7.476362E3,7.089912E2,1.9890427E3,3.625464E2,1.0060824E2,6.706093E2,1.3656672E3,0E0,0E0,0E0,0E0,0E0,0E0,0E0,0E0],"parents":[2147483647,0,0,1,1,2,2,3,3,4,4,5,5,6,6],"right_children":[2,4,6,8,10,12,14,-1,-1,-1,-1,-1,-1,-1,-1],"split_conditions":[1.41E1,1.4928572E1,1.9233334E1,1.0766666E1,1.4E1,1.6E1,2.3E1,-1.442626E-1,-8.701342E-2,8.052094E-2,-8.635229E-2,-6.811187E-3,4.6553995E-2,6.45991E-2,2.2078624E-1],"split_indices":[19,18,19,19,19,20,20,0,0,0,0,0,0,0,0],"split_type":[0,0,0,0,0,0,0,0,0,0,0,0,0,0,0],"sum_hessian":[1.507E3,4.39E2,1.068E3,4.16E2,2.3E1,8.53E2,2.15E2,1.87E2,2.29E2,2E1,3E0,3.89E2,4.64E2,1.34E2,8.1E1],"tree_param":{"num_deleted":"0","num_feature":"21","num_nodes":"15","size_leaf_vector":"1"}},{"base_weights":[6.515885E-4,-3.3653314E0,1.3860884E0,-3.655265E0,1.8124862E0,9.0332615E-1,5.024682E0,-1.3995776E-1,-8.441438E-2,7.822035E-2,-8.4409356E-2,-6.8128984E-3,5.3896E-2,1.0784585E-1,3.7054482E-1],"categories":[],"categories_nodes":[],"categories_segments":[],"categories_sizes":[],"default_left":[0,0,0,0,0,0,0,0,0,0,0,0,0,0,0],"id":4,"left_children":[1,3,5,7,9,11,13,-1,-1,-1,-1,-1,-1,-1,-1],"loss_changes":[7.037007E3,6.671631E2,1.87324E3,3.4126514E2,9.558708E1,9.545762E2,1.2651008E3,0E0,0E0,0E0,0E0,0E0,0E0,0E0,0E0],"parents":[2147483647,0,0,1,1,2,2,3,3,4,4,5,5,6,6],"right_children":[2,4,6,8,10,12,14,-1,-1,-1,-1,-1,-1,-1,-1],"split_conditions":[1.41E1,1.4928572E1,2.1142857E1,1.0766666E1,1.4E1,1.6E1,1E0,-1.3995776E-1,-8.441438E-2,7.822035E-2,-8.4409356E-2,-6.8128984E-3,5.3896E-2,1.0784585E-1,3.7054482E-1],"split_indices":[19,18,18,19,19,20,9,0,0,0,0,0,0,0,0],"split_type":[0,0,0,0,0,0,0,0,0,0,0,0,0,0,0],"sum_hessian":[1.507E3,4.39E2,1.068E3,4.16E2,2.3E1,9.44E2,1.24E2,1.87E2,2.29E2,2E1,3E0,4.17E2,5.27E2,1.05E2,1.9E1],"tree_param":{"num_deleted":"0","num_feature":"21","num_nodes":"15","size_leaf_vector":"1"}},{"base_weights":[8.2767865E-4,-3.2648957E0,1.3449974E0,-3.5461452E0,1.7578537E0,6.9036984E-1,3.9269738E0,-4.140403E-2,-1.176164E-1,-3.553812E-2,9.1174096E-2,-6.479204E-3,4.347132E-2,6.051504E-2,2.1069829E-1],"categories":[],"categories_nodes":[],"categories_segments":[],"categories_sizes":[],"default_left":[0,0,0,0,0,0,0,0,0,0,0,0,0,0,0],"id":5,"left_children":[1,3,5,7,9,11,13,-1,-1,-1,-1,-1,-1,-1,-1],"loss_changes":[6.6240386E3,6.2779785E2,1.8041478E3,3.327583E2,9.408305E1,5.8753986E2,1.2631135E3,0E0,0E0,0E0,0E0,0E0,0E0,0E0,0E0],"parents":[2147483647,0,0,1,1,2,2,3,3,4,4,5,5,6,6],"right_children":[2,4,6,8,10,12,14,-1,-1,-1,-1,-1,-1,-1,-1],"split_conditions":[1.41E1,1.4928572E1,1.9233334E1,8E0,1.4E1,1.6E1,2.3E1,-4.140403E-2,-1.176164E-1,-3.553812E-2,9.1174096E-2,-6.479204E-3,4.347132E-2,6.051504E-2,2.1069829E-1],"split_indices":[19,18,19,16,20,20,20,0,0,0,0,0,0,0,0],"split_type":[0,0,0,0,0,0,0,0,0,0,0,0,0,0,0],"sum_hessian":[1.507E3,4.39E2,1.068E3,4.16E2,2.3E1,8.53E2,2.15E2,6.2E1,3.54E2,7E0,1.6E1,3.89E2,4.64E2,1.34E2,8.1E1],"tree_param":{"num_deleted":"0","num_feature":"21","num_nodes":"15","size_leaf_vector":"1"}},{"base_weights":[9.390233E-4,-3.1671834E0,1.3049362E0,-3.440142E0,1.7074367E0,6.6970265E-1,3.81042E0,-1.3249053E-1,-7.8817196E-2,7.446663E-2,-8.361122E-2,-6.285324E-3,4.2170014E-2,5.8713045E-2,2.044544E-1],"categories":[],"categories_nodes":[],"categories_segments":[],"categories_sizes":[],"default_left":[0,0,0,0,0,0,0,0,0,0,0,0,0,0,0],"id":6,"left_children":[1,3,5,7,9,11,13,-1,-1,-1,-1,-1,-1,-1,-1],"loss_changes":[6.234017E3,5.913242E2,1.6988337E3,3.19313E2,9.049209E1,5.528923E2,1.1895049E3,0E0,0E0,0E0,0E0,0E0,0E0,0E0,0E0],"parents":[2147483647,0,0,1,1,2,2,3,3,4,4,5,5,6,6],"right_children":[2,4,6,8,10,12,14,-1,-1,-1,-1,-1,-1,-1,-1],"split_conditions":[1.41E1,1.4928572E1,1.9233334E1,1.0766666E1,1.4E1,1.6E1,2.3E1,-1.3249053E-1,-7.8817196E-2,7.446663E-2,-8.361122E-2,-6.285324E-3,4.2170014E-2,5.8713045E-2,2.044544E-1],"split_indices":[19,18,19,19,19,20,20,0,0,0,0,0,0,0,0],"split_type":[0,0,0,0,0,0,0,0,0,0,0,0,0,0,0],"sum_hessian":[1.507E3,4.39E2,1.068E3,4.16E2,2.3E1,8.53E2,2.15E2,1.87E2,2.29E2,2E1,3E0,3.89E2,4.64E2,1.34E2,8.1E1],"tree_param":{"num_deleted":"0","num_feature":"21","num_nodes":"15","size_leaf_vector":"1"}},{"base_weights":[9.631143E-4,-3.072669E0,1.2660681E0,-3.2571845E0,3.7798104E0,8.1730705E-1,4.648573E0,-1.0401269E-1,1.7965252E-2,1.3408424E-1,6.629782E-3,-6.530107E-3,4.9053486E-2,9.791759E-2,3.5264415E-1],"categories":[],"categories_nodes":[],"categories_segments":[],"categories_sizes":[],"default_left":[0,0,0,0,0,0,0,0,0,0,0,0,0,0,0],"id":7,"left_children":[1,3,5,7,9,11,13,-1,-1,-1,-1,-1,-1,-1,-1],"loss_changes":[5.8676987E3,5.686426E2,1.6188746E3,3.493086E2,2.8464966E1,8.00217E2,1.1915918E3,0E0,0E0,0E0,0E0,0E0,0E0,0E0,0E0],"parents":[2147483647,0,0,1,1,2,2,3,3,4,4,5,5,6,6],"right_children":[2,4,6,8,10,12,14,-1,-1,-1,-1,-1,-1,-1,-1],"split_conditions":[1.41E1,2.1E1,2.1142857E1,1.4714286E1,1E0,1.6E1,1E0,-1.0401269E-1,1.7965252E-2,1.3408424E-1,6.629782E-3,-6.530107E-3,4.9053486E-2,9.791759E-2,3.5264415E-1],"split_indices":[19,20,18,18,0,20,9,0,0,0,0,0,0,0,0],"split_type":[0,0,0,0,0,0,0,0,0,0,0,0,0,0,0],"sum_hessian":[1.507E3,4.39E2,1.068E3,4.28E2,1.1E1,9.44E2,1.24E2,4.06E2,2.2E1,9E0,2E0,4.17E2,5.27E2,1.05E2,1.9E1],"tree_param":{"num_deleted":"0","num_feature":"21","num_nodes":"15","size_leaf_vector":"1"}},{"base_weights":[1.2974195E-3,-2.980365E0,1.2285473E0,-3.1596696E0,3.678142E0,6.236075E-1,3.6146123E0,-1.2543319E-1,-7.0593E-2,1.2443982E-1,-2.2353487E-2,1.6591134E-2,2.7250615E-1,5.498641E-2,1.9511612E-1],"categories":[],"categories_nodes":[],"categories_segments":[],"categories_sizes":[],"default_left":[0,0,0,0,0,0,0,0,0,0,0,0,0,0,0],"id":8,"left_children":[1,3,5,7,9,11,13,-1,-1,-1,-1,-1,-1,-1,-1],"loss_changes":[5.521803E3,5.3693823E2,1.5407681E3,3.4359766E2,2.8030075E1,5.048272E2,1.1000222E3,0E0,0E0,0E0,0E0,0E0,0E0,0E0,0E0],"parents":[2147483647,0,0,1,1,2,2,3,3,4,4,5,5,6,6],"right_children":[2,4,6,8,10,12,14,-1,-1,-1,-1,-1,-1,-1,-1],"split_conditions":[1.41E1,2.1E1,1.9233334E1,1.0766666E1,1E0,3.5E1,2.3E1,-1.2543319E-1,-7.0593E-2,1.2443982E-1,-2.2353487E-2,1.6591134E-2,2.7250615E-1,5.498641E-2,1.9511612E-1],"split_indices":[19,20,19,19,12,20,20,0,0,0,0,0,0,0,0],"split_type":[0,0,0,0,0,0,0,0,0,0,0,0,0,0,0],"sum_hessian":[1.507E3,4.39E2,1.068E3,4.28E2,1.1E1,8.53E2,2.15E2,1.87E2,2.41E2,1E1,1E0,8.47E2,6E0,1.34E2,8.1E1],"tree_param":{"num_deleted":"0","num_feature":"21","num_nodes":"15","size_leaf_vector":"1"}},{"base_weights":[1.553433E-3,-2.8911676E0,1.1921949E0,-3.1462023E0,1.6605251E0,4.168936E-1,2.9579372E0,-3.253384E-2,-1.0509679E-1,-3.4585737E-2,8.660376E-2,1.0593082E-2,2.9323688E-1,5.8716018E-2,1.6446045E-1],"categories":[],"categories_nodes":[],"categories_segments":[],"categories_sizes":[],"default_left":[0,0,0,0,0,0,0,0,0,0,0,0,0,0,0],"id":9,"left_children":[1,3,5,7,9,11,13,-1,-1,-1,-1,-1,-1,-1,-1],"loss_changes":[5.1972915E3,5.159939E2,1.462209E3,3.0315088E2,8.612707E1,4.4066727E2,8.127258E2,0E0,0E0,0E0,0E0,0E0,0E0,0E0,0E0],"parents":[2147483647,0,0,1,1,2,2,3,3,4,4,5,5,6,6],"right_children":[2,4,6,8,10,12,14,-1,-1,-1,-1,-1,-1,-1,-1],"split_conditions":[1.41E1,1.4928572E1,1.8433332E1,8E0,1.4E1,3.4E1,2.4E1,-3.253384E-2,-1.0509679E-1,-3.4585737E-2,8.660376E-2,1.0593082E-2,2.9323688E-1,5.8716018E-2,1.6446045E-1],"split_indices":[19,18,19,16,20,20,20,0,0,0,0,0,0,0,0],"split_type":[0,0,0,0,0,0,0,0,0,0,0,0,0,0,0],"sum_hessian":[1.507E3,4.39E2,1.068E3,4.16E2,2.3E1,7.43E2,3.25E2,6.2E1,3.54E2,7E0,1.6E1,7.39E2,4E0,2.34E2,9.1E1],"tree_param":{"num_deleted":"0","num_feature":"21","num_nodes":"15","size_leaf_vector":"1"}},{"base_weights":[1.7993419E-3,-2.8046272E0,1.1569217E0,-2.976808E0,3.5845559E0,7.3913836E-1,4.306109E0,-1.18762515E-1,-6.605027E-2,1.2155223E-1,-2.3317222E-2,-7.4505797E-3,4.5585062E-2,8.90221E-2,3.355783E-1],"categories":[],"categories_nodes":[],"categories_segments":[],"categories_sizes":[],"default_left":[0,0,0,0,0,0,0,0,0,0,0,0,0,0,0],"id":10,"left_children":[1,3,5,7,9,11,13,-1,-1,-1,-1,-1,-1,-1,-1],"loss_changes":[4.891828E3,4.947124E2,1.4032771E3,3.1781104E2,2.7602386E1,7.2859656E2,1.1180659E3,0E0,0E0,0E0,0E0,0E0,0E0,0E0,0E0],"parents":[2147483647,0,0,1,1,2,2,3,3,4,4,5,5,6,6],"right_children":[2,4,6,8,10,12,14,-1,-1,-1,-1,-1,-1,-1,-1],"split_conditions":[1.41E1,2.1E1,2.1142857E1,1.0766666E1,1E0,1.6E1,1E0,-1.18762515E-1,-6.605027E-2,1.2155223E-1,-2.3317222E-2,-7.4505797E-3,4.5585062E-2,8.90221E-2,3.355783E-1],"split_indices":[19,20,18,19,12,20,9,0,0,0,0,0,0,0,0],"split_type":[0,0,0,0,0,0,0,0,0,0,0,0,0,0,0],"sum_hessian":[1.507E3,4.39E2,1.068E3,4.28E2,1.1E1,9.44E2,1.24E2,1.87E2,2.41E2,1E1,1E0,4.17E2,5.27E2,1.05E2,1.9E1],"tree_param":{"num_deleted":"0","num_feature":"21","num_nodes":"15","size_leaf_vector":"1"}},{"base_weights":[1.9945782E-3,-2.7206848E0,1.1226466E0,-2.965765E0,1.6509441E0,9.577357E-1,8.927371E0,-2.9528778E-2,-9.9271566E-2,1.0555548E-1,-5.998922E-3,9.660945E-3,7.431103E-2,-1.354951E-2,3.7418193E-1],"categories":[],"categories_nodes":[],"categories_segments":[],"categories_sizes":[],"default_left":[0,0,0,0,0,0,0,0,0,0,0,0,0,0,0],"id":11,"left_children":[1,3,5,7,9,11,13,-1,-1,-1,-1,-1,-1,-1,-1],"loss_changes":[4.604228E3,4.76312E2,1.3673427E3,2.8039233E2,8.366447E1,1.0113866E3,7.3717773E2,0E0,0E0,0E0,0E0,0E0,0E0,0E0,0E0],"parents":[2147483647,0,0,1,1,2,2,3,3,4,4,5,5,6,6],"right_children":[2,4,6,8,10,12,14,-1,-1,-1,-1,-1,-1,-1,-1],"split_conditions":[1.41E1,1.4928572E1,3.5E1,8E0,2.1E1,1.8433332E1,5.6E1,-2.9528778E-2,-9.9271566E-2,1.0555548E-1,-5.998922E-3,9.660945E-3,7.431103E-2,-1.354951E-2,3.7418193E-1],"split_indices":[19,18,20,16,16,19,15,0,0,0,0,0,0,0,0],"split_type":[0,0,0,0,0,0,0,0,0,0,0,0,0,0,0],"sum_hessian":[1.507E3,4.39E2,1.068E3,4.16E2,2.3E1,1.047E3,2.1E1,6.2E1,3.54E2,1.1E1,1.2E1,7.39E2,3.08E2,6E0,1.5E1],"tree_param":{"num_deleted":"0","num_feature":"21","num_nodes":"15","size_leaf_vector":"1"}},{"base_weights":[2.2104685E-3,-2.9360785E0,9.842361E-1,-1.0621437E0,-3.3074937E0,5.188681E-1,3.7447112E0,-1.4259747E-1,-2.0063238E-2,-1.20072655E-1,-4.4936195E-2,-6.9111194E-3,3.701485E-2,5.27261E-2,1.7989132E-1],"categories":[],"categories_nodes":[],"categories_segments":[],"categories_sizes":[],"default_left":[0,0,0,0,0,0,0,0,0,0,0,0,0,0,0],"id":12,"left_children":[1,3,5,7,9,11,13,-1,-1,-1,-1,-1,-1,-1,-1],"loss_changes":[4.354187E3,2.5957764E2,1.4509812E3,8.9747025E1,3.9013525E2,5.193541E2,7.1879736E2,0E0,0E0,0E0,0E0,0E0,0E0,0E0,0E0],"parents":[2147483647,0,0,1,1,2,2,3,3,4,4,5,5,6,6],"right_children":[2,4,6,8,10,12,14,-1,-1,-1,-1,-1,-1,-1,-1],"split_conditions":[1.3142858E1,8E0,2.4E1,-1.6E1,5.7E1,1.6E1,1.91E1,-1.4259747E-1,-2.0063238E-2,-1.20072655E-1,-4.4936195E-2,-6.9111194E-3,3.701485E-2,5.27261E-2,1.7989132E-1],"split_indices":[18,16,20,16,16,20,19,0,0,0,0,0,0,0,0],"split_type":[0,0,0,0,0,0,0,0,0,0,0,0,0,0,0],"sum_hessian":[1.507E3,3.77E2,1.13E3,6.3E1,3.14E2,9.68E2,1.62E2,5E0,5.8E1,2.26E2,8.8E1,4.73E2,4.95E2,8.7E1,7.5E1],"tree_param":{"num_deleted":"0","num_feature":"21","num_nodes":"15","size_leaf_vector":"1"}},{"base_weights":[2.1012684E-3,-2.5720222E0,1.0616076E0,-2.7357411E0,3.4952612E0,9.037497E-1,8.533129E0,-1.0953253E-1,-6.04003E-2,1.1895509E-1,-2.510599E-2,8.95192E-3,7.051608E-2,-1.6736886E-2,3.5931394E-1],"categories":[],"categories_nodes":[],"categories_segments":[],"categories_sizes":[],"default_left":[0,0,0,0,0,0,0,0,0,0,0,0,0,0,0],"id":13,"left_children":[1,3,5,7,9,11,13,-1,-1,-1,-1,-1,-1,-1,-1],"loss_changes":[4.115499E3,4.4662695E2,1.2531079E3,2.7632202E2,2.7746765E1,9.171533E2,6.9549133E2,0E0,0E0,0E0,0E0,0E0,0E0,0E0,0E0],"parents":[2147483647,0,0,1,1,2,2,3,3,4,4,5,5,6,6],"right_children":[2,4,6,8,10,12,14,-1,-1,-1,-1,-1,-1,-1,-1],"split_conditions":[1.41E1,2.1E1,3.5E1,1.0766666E1,1E0,1.8433332E1,5.6E1,-1.0953253E-1,-6.04003E-2,1.1895509E-1,-2.510599E-2,8.95192E-3,7.051608E-2,-1.6736886E-2,3.5931394E-1],"split_indices":[19,20,20,19,12,19,15,0,0,0,0,0,0,0,0],"split_type":[0,0,0,0,0,0,0,0,0,0,0,0,0,0,0],"sum_hessian":[1.507E3,4.39E2,1.068E3,4.28E2,1.1E1,1.047E3,2.1E1,1.87E2,2.41E2,1E1,1E0,7.39E2,3.08E2,6E0,1.5E1],"tree_param":{"num_deleted":"0","num_feature":"21","num_nodes":"15","size_leaf_vector":"1"}},{"base_weights":[2.2676333E-3,-2.7718263E0,9.294164E-1,-9.722879E-1,-3.1286473E0,4.8545757E-1,3.5629544E0,-1.3752255E-1,-1.765521E-2,-1.1397116E-1,-4.1508604E-2,-7.0912507E-3,3.522884E-2,5.0091155E-2,1.7124769E-1],"categories":[],"categories_nodes":[],"categories_segments":[],"categories_sizes":[],"default_left":[0,0,0,0,0,0,0,0,0,0,0,0,0,0,0],"id":14,"left_children":[1,3,5,7,9,11,13,-1,-1,-1,-1,-1,-1,-1,-1],"loss_changes":[3.881149E3,2.3967676E2,1.3206157E3,8.601511E1,3.6324658E2,4.820887E2,6.525083E2,0E0,0E0,0E0,0E0,0E0,0E0,0E0,0E0],"parents":[2147483647,0,0,1,1,2,2,3,3,4,4,5,5,6,6],"right_children":[2,4,6,8,10,12,14,-1,-1,-1,-1,-1,-1,-1,-1],"split_conditions":[1.3142858E1,8E0,2.4E1,-1.6E1,5.7E1,1.6E1,1.91E1,-1.3752255E-1,-1.765521E-2,-1.1397116E-1,-4.1508604E-2,-7.0912507E-3,3.522884E-2,5.0091155E-2,1.7124769E-1],"split_indices":[18,16,20,16,16,20,19,0,0,0,0,0,0,0,0],"split_type":[0,0,0,0,0,0,0,0,0,0,0,0,0,0,0],"sum_hessian":[1.507E3,3.77E2,1.13E3,6.3E1,3.14E2,9.68E2,1.62E2,5E0,5.8E1,2.26E2,8.8E1,4.73E2,4.95E2,8.7E1,7.5E1],"tree_param":{"num_deleted":"0","num_feature":"21","num_nodes":"15","size_leaf_vector":"1"}},{"base_weights":[2.1591338E-3,-2.431634E0,1.0039054E0,-2.5890625E0,3.3990648E0,8.527918E-1,8.156778E0,-8.307053E-2,2.1237938E-2,1.15834445E-1,-2.5257826E-2,8.290684E-3,6.691478E-2,-1.9671526E-2,3.450734E-1],"categories":[],"categories_nodes":[],"categories_segments":[],"categories_sizes":[],"default_left":[0,0,0,0,0,0,0,0,0,0,0,0,0,0,0],"id":15,"left_children":[1,3,5,7,9,11,13,-1,-1,-1,-1,-1,-1,-1,-1],"loss_changes":[3.6790105E3,4.1268408E2,1.1485227E3,2.5649097E2,2.6767136E1,8.31659E2,6.561836E2,0E0,0E0,0E0,0E0,0E0,0E0,0E0,0E0],"parents":[2147483647,0,0,1,1,2,2,3,3,4,4,5,5,6,6],"right_children":[2,4,6,8,10,12,14,-1,-1,-1,-1,-1,-1,-1,-1],"split_conditions":[1.41E1,2.1E1,3.5E1,1.4714286E1,1E0,1.8433332E1,5.6E1,-8.307053E-2,2.1237938E-2,1.15834445E-1,-2.5257826E-2,8.290684E-3,6.691478E-2,-1.9671526E-2,3.450734E-1],"split_indices":[19,20,20,18,12,19,15,0,0,0,0,0,0,0,0],"split_type":[0,0,0,0,0,0,0,0,0,0,0,0,0,0,0],"sum_hessian":[1.507E3,4.39E2,1.068E3,4.28E2,1.1E1,1.047E3,2.1E1,4.06E2,2.2E1,1E1,1E0,7.39E2,3.08E2,6E0,1.5E1],"tree_param":{"num_deleted":"0","num_feature":"21","num_nodes":"15","size_leaf_vector":"1"}},{"base_weights":[2.378952E-3,-2.3586195E0,9.741628E-1,-2.5115345E0,3.3046408E0,6.058739E-1,3.7506335E0,-2.0423986E-2,-8.492024E-2,1.18709624E-1,8.581256E-4,-8.208674E-3,3.902983E-2,7.436837E-2,3.0909145E-1],"categories":[],"categories_nodes":[],"categories_segments":[],"categories_sizes":[],"default_left":[0,0,0,0,0,0,0,0,0,0,0,0,0,0,0],"id":16,"left_children":[1,3,5,7,9,11,13,-1,-1,-1,-1,-1,-1,-1,-1],"loss_changes":[3.4622227E3,3.8933862E2,1.0908264E3,2.4872119E2,2.5532166E1,5.7808734E2,1.0160376E3,0E0,0E0,0E0,0E0,0E0,0E0,0E0,0E0],"parents":[2147483647,0,0,1,1,2,2,3,3,4,4,5,5,6,6],"right_children":[2,4,6,8,10,12,14,-1,-1,-1,-1,-1,-1,-1,-1],"split_conditions":[1.41E1,2.1E1,2.1142857E1,8E0,1E0,1.6E1,1E0,-2.0423986E-2,-8.492024E-2,1.18709624E-1,8.581256E-4,-8.208674E-3,3.902983E-2,7.436837E-2,3.0909145E-1],"split_indices":[19,20,18,16,0,20,9,0,0,0,0,0,0,0,0],"split_type":[0,0,0,0,0,0,0,0,0,0,0,0,0,0,0],"sum_hessian":[1.507E3,4.39E2,1.068E3,4.28E2,1.1E1,9.44E2,1.24E2,6.4E1,3.64E2,9E0,2E0,4.17E2,5.27E2,1.05E2,1.9E1],"tree_param":{"num_deleted":"0","num_feature":"21","num_nodes":"15","size_leaf_vector":"1"}},{"base_weights":[2.5915473E-3,-2.5497148E0,8.556147E-1,-3.963787E0,-2.1133296E0,4.399521E-1,3.3213904E0,-1.3237602E-1,-4.4571493E-2,-9.144066E-2,-3.7860747E-2,-6.995201E-3,3.2470025E-2,4.8614506E-2,1.6345923E-1],"categories":[],"categories_nodes":[],"categories_segments":[],"categories_sizes":[],"default_left":[0,0,0,0,0,0,0,0,0,0,0,0,0,0,0],"id":17,"left_children":[1,3,5,7,9,11,13,-1,-1,-1,-1,-1,-1,-1,-1],"loss_changes":[3.2853635E3,2.248794E2,1.1577354E3,9.130261E1,2.2770435E2,4.192516E2,5.8094604E2,0E0,0E0,0E0,0E0,0E0,0E0,0E0,0E0],"parents":[2147483647,0,0,1,1,2,2,3,3,4,4,5,5,6,6],"right_children":[2,4,6,8,10,12,14,-1,-1,-1,-1,-1,-1,-1,-1],"split_conditions":[1.3142858E1,8E0,2.4E1,1E0,1.0766666E1,1.6E1,1.92E1,-1.3237602E-1,-4.4571493E-2,-9.144066E-2,-3.7860747E-2,-6.995201E-3,3.2470025E-2,4.8614506E-2,1.6345923E-1],"split_indices":[18,20,20,2,19,20,19,0,0,0,0,0,0,0,0],"split_type":[0,0,0,0,0,0,0,0,0,0,0,0,0,0,0],"sum_hessian":[1.507E3,3.77E2,1.13E3,8.7E1,2.9E2,9.68E2,1.62E2,7.3E1,1.4E1,1.37E2,1.53E2,4.73E2,4.95E2,9.1E1,7.1E1],"tree_param":{"num_deleted":"0","num_feature":"21","num_nodes":"15","size_leaf_vector":"1"}},{"base_weights":[2.4680041E-3,-2.4740336E0,8.30156E-1,-3.8468843E0,-2.0503743E0,4.2677957E-1,3.2230494E0,-1.2845841E-1,-4.332348E-2,-8.8717334E-2,-3.6732297E-2,1.6078388E-3,4.5700837E-2,6.1226383E-2,1.8556519E-1],"categories":[],"categories_nodes":[],"categories_segments":[],"categories_sizes":[],"default_left":[0,0,0,0,0,0,0,0,0,0,0,0,0,0,0],"id":18,"left_children":[1,3,5,7,9,11,13,-1,-1,-1,-1,-1,-1,-1,-1],"loss_changes":[3.093108E3,2.1196509E2,1.0903073E3,8.580762E1,2.1435046E2,3.9646008E2,5.5822314E2,0E0,0E0,0E0,0E0,0E0,0E0,0E0,0E0],"parents":[2147483647,0,0,1,1,2,2,3,3,4,4,5,5,6,6],"right_children":[2,4,6,8,10,12,14,-1,-1,-1,-1,-1,-1,-1,-1],"split_conditions":[1.3142858E1,8E0,2.4E1,1E0,1.0766666E1,1E0,2.1928572E1,-1.2845841E-1,-4.332348E-2,-8.8717334E-2,-3.6732297E-2,1.6078388E-3,4.5700837E-2,6.1226383E-2,1.8556519E-1],"split_indices":[18,20,20,2,19,10,18,0,0,0,0,0,0,0,0],"split_type":[0,0,0,0,0,0,0,0,0,0,0,0,0,0,0],"sum_hessian":[1.507E3,3.77E2,1.13E3,8.7E1,2.9E2,9.68E2,1.62E2,7.3E1,1.4E1,1.37E2,1.53E2,7.23E2,2.45E2,1.17E2,4.5E1],"tree_param":{"num_deleted":"0","num_feature":"21","num_nodes":"15","size_leaf_vector":"1"}},{"base_weights":[2.3919677E-3,-2.174057E0,8.982153E-1,-2.3194315E0,3.2042527E0,7.577708E-1,7.5476527E0,-2.1857155E-2,-7.996086E-2,1.098066E-1,-2.717079E-2,6.8038264E-3,6.080739E-2,-2.7699867E-2,3.234594E-1],"categories":[],"categories_nodes":[],"categories_segments":[],"categories_sizes":[],"default_left":[0,0,0,0,0,0,0,0,0,0,0,0,0,0,0],"id":19,"left_children":[1,3,5,7,9,11,13,-1,-1,-1,-1,-1,-1,-1,-1],"loss_changes":[2.942121E3,3.514546E2,9.9259515E2,2.3414844E2,2.5803062E1,7.057714E2,6.127096E2,0E0,0E0,0E0,0E0,0E0,0E0,0E0,0E0],"parents":[2147483647,0,0,1,1,2,2,3,3,4,4,5,5,6,6],"right_children":[2,4,6,8,10,12,14,-1,-1,-1,-1,-1,-1,-1,-1],"split_conditions":[1.41E1,2.1E1,3.5E1,1.2E1,1E0,1.8433332E1,5.6E1,-2.1857155E-2,-7.996086E-2,1.098066E-1,-2.717079E-2,6.8038264E-3,6.080739E-2,-2.7699867E-2,3.234594E-1],"split_indices":[19,20,20,16,12,19,15,0,0,0,0,0,0,0,0],"split_type":[0,0,0,0,0,0,0,0,0,0,0,0,0,0,0],"sum_hessian":[1.507E3,4.39E2,1.068E3,4.28E2,1.1E1,1.047E3,2.1E1,7.7E1,3.51E2,1E1,1E0,7.39E2,3.08E2,6E0,1.5E1],"tree_param":{"num_deleted":"0","num_feature":"21","num_nodes":"15","size_leaf_vector":"1"}},{"base_weights":[2.5484506E-3,-2.1088789E0,8.716088E-1,-2.317748E0,1.6080924E0,7.351022E-1,7.3346667E0,-1.8755682E-2,-7.834766E-2,6.983051E-2,-7.715354E-2,-5.9144846E-3,4.2621784E-2,-2.6987571E-2,3.1436208E-1],"categories":[],"categories_nodes":[],"categories_segments":[],"categories_sizes":[],"default_left":[0,0,0,0,0,0,0,0,0,0,0,0,0,0,0],"id":20,"left_children":[1,3,5,7,9,11,13,-1,-1,-1,-1,-1,-1,-1,-1],"loss_changes":[2.7689543E3,3.453258E2,9.3773346E2,2.0575903E2,7.817357E1,6.701346E2,5.789857E2,0E0,0E0,0E0,0E0,0E0,0E0,0E0,0E0],"parents":[2147483647,0,0,1,1,2,2,3,3,4,4,5,5,6,6],"right_children":[2,4,6,8,10,12,14,-1,-1,-1,-1,-1,-1,-1,-1],"split_conditions":[1.41E1,1.4928572E1,3.5E1,8E0,1.4E1,1.6E1,5.6E1,-1.8755682E-2,-7.834766E-2,6.983051E-2,-7.715354E-2,-5.9144846E-3,4.2621784E-2,-2.6987571E-2,3.1436208E-1],"split_indices":[19,18,20,16,19,20,15,0,0,0,0,0,0,0,0],"split_type":[0,0,0,0,0,0,0,0,0,0,0,0,0,0,0],"sum_hessian":[1.507E3,4.39E2,1.068E3,4.16E2,2.3E1,1.047E3,2.1E1,6.2E1,3.54E2,2E1,3E0,4.44E2,6.03E2,6E0,1.5E1],"tree_param":{"num_deleted":"0","num_feature":"21","num_nodes":"15","size_leaf_vector":"1"}},{"base_weights":[2.6176937E-3,-2.2772288E0,7.6458E-1,-2.6810958E0,-9.356712E-1,3.8739464E-1,3.0021756E0,-2.1075826E-2,-9.681357E-2,-7.8596376E-2,-9.271652E-3,7.0990867E-4,4.368938E-2,4.265764E-2,1.4939076E-1],"categories":[],"categories_nodes":[],"categories_segments":[],"categories_sizes":[],"default_left":[0,0,0,0,0,0,0,0,0,0,0,0,0,0,0],"id":21,"left_children":[1,3,5,7,9,11,13,-1,-1,-1,-1,-1,-1,-1,-1],"loss_changes":[2.6213743E3,2.0229602E2,9.5338763E2,3.1103247E2,9.311662E1,3.7671143E2,5.022909E2,0E0,0E0,0E0,0E0,0E0,0E0,0E0,0E0],"parents":[2147483647,0,0,1,1,2,2,3,3,4,4,5,5,6,6],"right_children":[2,4,6,8,10,12,14,-1,-1,-1,-1,-1,-1,-1,-1],"split_conditions":[1.3142858E1,5.7E1,2.4E1,8E0,1.0533334E1,1E0,1.92E1,-2.1075826E-2,-9.681357E-2,-7.8596376E-2,-9.271652E-3,7.0990867E-4,4.368938E-2,4.265764E-2,1.4939076E-1],"split_indices":[18,16,20,16,19,10,19,0,0,0,0,0,0,0,0],"split_type":[0,0,0,0,0,0,0,0,0,0,0,0,0,0,0],"sum_hessian":[1.507E3,3.77E2,1.13E3,2.89E2,8.8E1,9.68E2,1.62E2,6.3E1,2.26E2,2.3E1,6.5E1,7.23E2,2.45E2,9.1E1,7.1E1],"tree_param":{"num_deleted":"0","num_feature":"21","num_nodes":"15","size_leaf_vector":"1"}},{"base_weights":[2.5595638E-3,-1.5397655E0,1.0693891E0,-2.2310991E0,-1.795012E-1,6.354593E-1,3.211659E0,-1.4682549E-2,-7.604961E-2,1.8953068E-2,-6.474557E-2,6.8333577E-3,5.3399354E-2,8.052716E-2,2.7159917E-1],"categories":[],"categories_nodes":[],"categories_segments":[],"categories_sizes":[],"default_left":[0,0,0,0,0,0,0,0,0,0,0,0,0,0,0],"id":22,"left_children":[1,3,5,7,9,11,13,-1,-1,-1,-1,-1,-1,-1,-1],"loss_changes":[2.4829067E3,5.798241E2,8.271576E2,2.1523328E2,3.3686023E2,3.4627722E2,4.3784924E2,0E0,0E0,0E0,0E0,0E0,0E0,0E0,0E0],"parents":[2147483647,0,0,1,1,2,2,3,3,4,4,5,5,6,6],"right_children":[2,4,6,8,10,12,14,-1,-1,-1,-1,-1,-1,-1,-1],"split_conditions":[1.4928572E1,1.4033334E1,2.4E1,8E0,1E0,1E0,3.9E1,-1.4682549E-2,-7.604961E-2,1.8953068E-2,-6.474557E-2,6.8333577E-3,5.3399354E-2,8.052716E-2,2.7159917E-1],"split_indices":[18,19,20,16,7,10,20,0,0,0,0,0,0,0,0],"split_type":[0,0,0,0,0,0,0,0,0,0,0,0,0,0,0],"sum_hessian":[1.507E3,6.16E2,8.91E2,4.08E2,2.08E2,7.42E2,1.49E2,6.1E1,3.47E2,1.48E2,6E1,5.48E2,1.94E2,1.38E2,1.1E1],"tree_param":{"num_deleted":"0","num_feature":"21","num_nodes":"15","size_leaf_vector":"1"}},{"base_weights":[2.6656159E-3,-1.4937937E0,1.0377696E0,-2.1643877E0,-1.7433545E-1,6.1647624E-1,3.1176574E0,-1.4249171E-2,-7.377468E-2,1.8388284E-2,-6.2835045E-2,6.6287206E-3,5.180558E-2,7.812875E-2,2.641302E-1],"categories":[],"categories_nodes":[],"categories_segments":[],"categories_sizes":[],"default_left":[0,0,0,0,0,0,0,0,0,0,0,0,0,0,0],"id":23,"left_children":[1,3,5,7,9,11,13,-1,-1,-1,-1,-1,-1,-1,-1],"loss_changes":[2.3374285E3,5.455571E2,7.796867E2,2.0250806E2,3.1723013E2,3.2592532E2,4.1497314E2,0E0,0E0,0E0,0E0,0E0,0E0,0E0,0E0],"parents":[2147483647,0,0,1,1,2,2,3,3,4,4,5,5,6,6],"right_children":[2,4,6,8,10,12,14,-1,-1,-1,-1,-1,-1,-1,-1],"split_conditions":[1.4928572E1,1.4033334E1,2.4E1,8E0,1E0,1E0,3.9E1,-1.4249171E-2,-7.377468E-2,1.8388284E-2,-6.2835045E-2,6.6287206E-3,5.180558E-2,7.812875E-2,2.641302E-1],"split_indices":[18,19,20,16,7,10,20,0,0,0,0,0,0,0,0],"split_type":[0,0,0,0,0,0,0,0,0,0,0,0,0,0,0],"sum_hessian":[1.507E3,6.16E2,8.91E2,4.08E2,2.08E2,7.42E2,1.49E2,6.1E1,3.47E2,1.48E2,6E1,5.48E2,1.94E2,1.38E2,1.1E1],"tree_param":{"num_deleted":"0","num_feature":"21","num_nodes":"15","size_leaf_vector":"1"}},{"base_weights":[2.763511E-3,-2.087963E0,7.015185E-1,-3.4012747E0,-1.6836352E0,1.5183417E-1,2.058402E0,-1.1460802E-1,-3.3224784E-2,-7.537573E-2,-2.7897954E-2,3.0925663E-3,2.3822238E-1,-1.3318388E-1,7.027394E-2],"categories":[],"categories_nodes":[],"categories_segments":[],"categories_sizes":[],"default_left":[0,0,0,0,0,0,0,0,0,0,0,0,0,0,0],"id":24,"left_children":[1,3,5,7,9,11,13,-1,-1,-1,-1,-1,-1,-1,-1],"loss_changes":[2.2045105E3,1.9499463E2,8.432524E2,8.034387E1,1.7946191E2,3.0521857E2,6.1213086E2,0E0,0E0,0E0,0E0,0E0,0E0,0E0,0E0],"parents":[2147483647,0,0,1,1,2,2,3,3,4,4,5,5,6,6],"right_children":[2,4,6,8,10,12,14,-1,-1,-1,-1,-1,-1,-1,-1],"split_conditions":[1.3142858E1,8E0,1.8433332E1,1E0,1.0766666E1,3.4E1,1.6357143E1,-1.1460802E-1,-3.3224784E-2,-7.537573E-2,-2.7897954E-2,3.0925663E-3,2.3822238E-1,-1.3318388E-1,7.027394E-2],"split_indices":[18,20,19,2,19,20,18,0,0,0,0,0,0,0,0],"split_type":[0,0,0,0,0,0,0,0,0,0,0,0,0,0,0],"sum_hessian":[1.507E3,3.77E2,1.13E3,8.7E1,2.9E2,8.05E2,3.25E2,7.3E1,1.4E1,1.37E2,1.53E2,8.01E2,4E0,1.3E1,3.12E2],"tree_param":{"num_deleted":"0","num_feature":"21","num_nodes":"15","size_leaf_vector":"1"}},{"base_weights":[2.6324282E-3,-1.4119829E0,9.8112464E-1,-2.0462477E0,-1.640104E-1,5.770075E-1,2.9763107E0,-1.2326779E-2,-6.995171E-2,-4.1832566E-2,2.9986821E-2,2.3290555E-1,1.5533961E-2,7.441918E-2,2.5409433E-1],"categories":[],"categories_nodes":[],"categories_segments":[],"categories_sizes":[],"default_left":[0,0,0,0,0,0,0,0,0,0,0,0,0,0,0],"id":25,"left_children":[1,3,5,7,9,11,13,-1,-1,-1,-1,-1,-1,-1,-1],"loss_changes":[2.088744E3,4.880475E2,7.174924E2,1.8998584E2,3.006124E2,3.1212988E2,3.8743518E2,0E0,0E0,0E0,0E0,0E0,0E0,0E0,0E0],"parents":[2147483647,0,0,1,1,2,2,3,3,4,4,5,5,6,6],"right_children":[2,4,6,8,10,12,14,-1,-1,-1,-1,-1,-1,-1,-1],"split_conditions":[1.4928572E1,1.4033334E1,2.4E1,8E0,5.1E1,-1.3E1,3.9E1,-1.2326779E-2,-6.995171E-2,-4.1832566E-2,2.9986821E-2,2.3290555E-1,1.5533961E-2,7.441918E-2,2.5409433E-1],"split_indices":[18,19,20,16,15,16,20,0,0,0,0,0,0,0,0],"split_type":[0,0,0,0,0,0,0,0,0,0,0,0,0,0,0],"sum_hessian":[1.507E3,6.16E2,8.91E2,4.08E2,2.08E2,7.42E2,1.49E2,6.1E1,3.47E2,1.01E2,1.07E2,5E0,7.37E2,1.38E2,1.1E1],"tree_param":{"num_deleted":"0","num_feature":"21","num_nodes":"15","size_leaf_vector":"1"}},{"base_weights":[2.873826E-3,-1.3697758E0,9.5233786E-1,-1.985061E0,-1.5914673E-1,5.6003183E-1,2.8892114E0,-1.1962927E-2,-6.785919E-2,1.7629929E-2,-5.9421465E-2,5.358794E-3,4.892888E-2,7.220267E-2,2.4710672E-1],"categories":[],"categories_nodes":[],"categories_segments":[],"categories_sizes":[],"default_left":[0,0,0,0,0,0,0,0,0,0,0,0,0,0,0],"id":26,"left_children":[1,3,5,7,9,11,13,-1,-1,-1,-1,-1,-1,-1,-1],"loss_changes":[1.9666528E3,4.5927637E2,6.761656E2,1.787572E2,2.8548083E2,3.0319348E2,3.671787E2,0E0,0E0,0E0,0E0,0E0,0E0,0E0,0E0],"parents":[2147483647,0,0,1,1,2,2,3,3,4,4,5,5,6,6],"right_children":[2,4,6,8,10,12,14,-1,-1,-1,-1,-1,-1,-1,-1],"split_conditions":[1.4928572E1,1.4033334E1,2.4E1,8E0,1E0,1E0,3.9E1,-1.1962927E-2,-6.785919E-2,1.7629929E-2,-5.9421465E-2,5.358794E-3,4.892888E-2,7.220267E-2,2.4710672E-1],"split_indices":[18,19,20,16,7,10,20,0,0,0,0,0,0,0,0],"split_type":[0,0,0,0,0,0,0,0,0,0,0,0,0,0,0],"sum_hessian":[1.507E3,6.16E2,8.91E2,4.08E2,2.08E2,7.42E2,1.49E2,6.1E1,3.47E2,1.48E2,6E1,5.48E2,1.94E2,1.38E2,1.1E1],"tree_param":{"num_deleted":"0","num_feature":"21","num_nodes":"15","size_leaf_vector":"1"}},{"base_weights":[2.9546157E-3,-1.0440978E0,1.1906958E0,-2.155649E0,-2.502764E-1,6.427214E-1,3.2918663E0,-7.609388E-2,-2.6198396E-2,-1.8252518E-2,5.722949E-2,1.6958486E-2,2.010521E-1,7.333681E-2,3.0070326E-1],"categories":[],"categories_nodes":[],"categories_segments":[],"categories_sizes":[],"default_left":[0,0,0,0,0,0,0,0,0,0,0,0,0,0,0],"id":27,"left_children":[1,3,5,7,9,11,13,-1,-1,-1,-1,-1,-1,-1,-1],"loss_changes":[1.876633E3,7.071237E2,8.119153E2,1.6089172E2,3.6362332E2,2.5990277E2,8.0823804E2,0E0,0E0,0E0,0E0,0E0,0E0,0E0,0E0],"parents":[2147483647,0,0,1,1,2,2,3,3,4,4,5,5,6,6],"right_children":[2,4,6,8,10,12,14,-1,-1,-1,-1,-1,-1,-1,-1],"split_conditions":[1.6E1,1.3357142E1,1.9333334E1,5.7E1,6.3E1,3.5E1,1E0,-7.609388E-2,-2.6198396E-2,-1.8252518E-2,5.722949E-2,1.6958486E-2,2.010521E-1,7.333681E-2,3.0070326E-1],"split_indices":[20,18,19,16,16,20,9,0,0,0,0,0,0,0,0],"split_type":[0,0,0,0,0,0,0,0,0,0,0,0,0,0,0],"sum_hessian":[1.507E3,8.01E2,7.06E2,3.33E2,4.68E2,5.61E2,1.45E2,2.56E2,7.7E1,4.02E2,6.6E1,5.55E2,6E0,1.3E2,1.5E1],"tree_param":{"num_deleted":"0","num_feature":"21","num_nodes":"15","size_leaf_vector":"1"}},{"base_weights":[3.2166215E-3,-1.0128537E0,1.1558124E0,-2.091286E0,-2.426849E-1,6.2382793E-1,3.1956716E0,-7.381996E-2,-2.5422521E-2,-1.77063E-2,5.553824E-2,1.6450655E-2,1.9588219E-1,7.1153484E-2,2.9224598E-1],"categories":[],"categories_nodes":[],"categories_segments":[],"categories_sizes":[],"default_left":[0,0,0,0,0,0,0,0,0,0,0,0,0,0,0],"id":28,"left_children":[1,3,5,7,9,11,13,-1,-1,-1,-1,-1,-1,-1,-1],"loss_changes":[1.7672173E3,6.6561346E2,7.652241E2,1.5137415E2,3.4238556E2,2.469089E2,7.642825E2,0E0,0E0,0E0,0E0,0E0,0E0,0E0,0E0],"parents":[2147483647,0,0,1,1,2,2,3,3,4,4,5,5,6,6],"right_children":[2,4,6,8,10,12,14,-1,-1,-1,-1,-1,-1,-1,-1],"split_conditions":[1.6E1,1.3357142E1,1.9333334E1,5.7E1,6.3E1,3.5E1,1E0,-7.381996E-2,-2.5422521E-2,-1.77063E-2,5.553824E-2,1.6450655E-2,1.9588219E-1,7.1153484E-2,2.9224598E-1],"split_indices":[20,18,19,16,16,20,9,0,0,0,0,0,0,0,0],"split_type":[0,0,0,0,0,0,0,0,0,0,0,0,0,0,0],"sum_hessian":[1.507E3,8.01E2,7.06E2,3.33E2,4.68E2,5.61E2,1.45E2,2.56E2,7.7E1,4.02E2,6.6E1,5.55E2,6E0,1.3E2,1.5E1],"tree_param":{"num_deleted":"0","num_feature":"21","num_nodes":"15","size_leaf_vector":"1"}},{"base_weights":[3.4609942E-3,-1.2645926E0,8.8057494E-1,-1.8332113E0,-1.4579083E-1,7.5098723E-1,5.9710455E0,-8.393255E-3,-6.314115E-2,-3.9041597E-2,2.8408652E-2,7.6227556E-3,4.989068E-2,-5.1747657E-2,2.6894522E-1],"categories":[],"categories_nodes":[],"categories_segments":[],"categories_sizes":[],"default_left":[0,0,0,0,0,0,0,0,0,0,0,0,0,0,0],"id":29,"left_children":[1,3,5,7,9,11,13,-1,-1,-1,-1,-1,-1,-1,-1],"loss_changes":[1.6783528E3,3.922505E2,5.839348E2,1.7190613E2,2.651518E2,3.943026E2,5.22347E2,0E0,0E0,0E0,0E0,0E0,0E0,0E0,0E0],"parents":[2147483647,0,0,1,1,2,2,3,3,4,4,5,5,6,6],"right_children":[2,4,6,8,10,12,14,-1,-1,-1,-1,-1,-1,-1,-1],"split_conditions":[1.4928572E1,1.4033334E1,3.5E1,8E0,5.1E1,1.8433332E1,5.6E1,-8.393255E-3,-6.314115E-2,-3.9041597E-2,2.8408652E-2,7.6227556E-3,4.989068E-2,-5.1747657E-2,2.6894522E-1],"split_indices":[18,19,20,16,15,19,15,0,0,0,0,0,0,0,0],"split_type":[0,0,0,0,0,0,0,0,0,0,0,0,0,0,0],"sum_hessian":[1.507E3,6.16E2,8.91E2,4.08E2,2.08E2,8.7E2,2.1E1,6.1E1,3.47E2,1.01E2,1.07E2,5.64E2,3.06E2,6E0,1.5E1],"tree_param":{"num_deleted":"0","num_feature":"21","num_nodes":"15","size_leaf_vector":"1"}},{"base_weights":[3.484619E-3,-9.655643E-1,1.1027403E0,-1.9773477E0,-2.4296038E-1,5.977583E-1,3.039022E0,-7.009892E-2,-2.3046175E-2,-1.7384527E-2,5.3544957E-2,1.5776E-2,1.8667826E-1,6.7291826E-2,2.809805E-1],"categories":[],"categories_nodes":[],"categories_segments":[],"categories_sizes":[],"default_left":[0,0,0,0,0,0,0,0,0,0,0,0,0,0,0],"id":30,"left_children":[1,3,5,7,9,11,13,-1,-1,-1,-1,-1,-1,-1,-1],"loss_changes":[1.6074354E3,5.8587683E2,6.894791E2,1.4330261E2,3.210802E2,2.2398894E2,7.142538E2,0E0,0E0,0E0,0E0,0E0,0E0,0E0,0E0],"parents":[2147483647,0,0,1,1,2,2,3,3,4,4,5,5,6,6],"right_children":[2,4,6,8,10,12,14,-1,-1,-1,-1,-1,-1,-1,-1],"split_conditions":[1.6E1,1.3357142E1,1.9333334E1,5.7E1,6.3E1,3.5E1,1E0,-7.009892E-2,-2.3046175E-2,-1.7384527E-2,5.3544957E-2,1.5776E-2,1.8667826E-1,6.7291826E-2,2.809805E-1],"split_indices":[20,18,19,16,16,20,9,0,0,0,0,0,0,0,0],"split_type":[0,0,0,0,0,0,0,0,0,0,0,0,0,0,0],"sum_hessian":[1.507E3,8.01E2,7.06E2,3.33E2,4.68E2,5.61E2,1.45E2,2.56E2,7.7E1,4.02E2,6.6E1,5.55E2,6E0,1.3E2,1.5E1],"tree_param":{"num_deleted":"0","num_feature":"21","num_nodes":"15","size_leaf_vector":"1"}},{"base_weights":[3.7076164E-3,-9.366685E-1,1.0704374E0,-1.9183062E0,-2.3559463E-1,5.801861E-1,2.9502373E0,-6.3056365E-2,1.01149315E-2,-1.6864292E-2,5.1962584E-2,1.5303583E-2,1.8187799E-1,6.528849E-2,2.730779E-1],"categories":[],"categories_nodes":[],"categories_segments":[],"categories_sizes":[],"default_left":[0,0,0,0,0,0,0,0,0,0,0,0,0,0,0],"id":31,"left_children":[1,3,5,7,9,11,13,-1,-1,-1,-1,-1,-1,-1,-1],"loss_changes":[1.5137185E3,5.5148486E2,6.498414E2,1.389989E2,3.0232642E2,2.1279097E2,6.7539026E2,0E0,0E0,0E0,0E0,0E0,0E0,0E0,0E0],"parents":[2147483647,0,0,1,1,2,2,3,3,4,4,5,5,6,6],"right_children":[2,4,6,8,10,12,14,-1,-1,-1,-1,-1,-1,-1,-1],"split_conditions":[1.6E1,1.3357142E1,1.9333334E1,4.1E-1,6.3E1,3.5E1,1E0,-6.3056365E-2,1.01149315E-2,-1.6864292E-2,5.1962584E-2,1.5303583E-2,1.8187799E-1,6.528849E-2,2.730779E-1],"split_indices":[20,18,19,17,16,20,9,0,0,0,0,0,0,0,0],"split_type":[0,0,0,0,0,0,0,0,0,0,0,0,0,0,0],"sum_hessian":[1.507E3,8.01E2,7.06E2,3.33E2,4.68E2,5.61E2,1.45E2,3.08E2,2.5E1,4.02E2,6.6E1,5.55E2,6E0,1.3E2,1.5E1],"tree_param":{"num_deleted":"0","num_feature":"21","num_nodes":"15","size_leaf_vector":"1"}},{"base_weights":[3.939851E-3,-1.1676781E0,8.143483E-1,-1.693399E0,-1.3328809E-1,4.723295E-1,2.5030525E0,-5.40246E-3,-5.8744404E-2,1.6875708E-2,-5.492126E-2,6.761262E-2,7.1634334E-3,6.2407494E-2,2.1575786E-1],"categories":[],"categories_nodes":[],"categories_segments":[],"categories_sizes":[],"default_left":[0,0,0,0,0,0,0,0,0,0,0,0,0,0,0],"id":32,"left_children":[1,3,5,7,9,11,13,-1,-1,-1,-1,-1,-1,-1,-1],"loss_changes":[1.4327803E3,3.3529913E2,5.140088E2,1.6351208E2,2.4787659E2,3.0858606E2,2.8240942E2,0E0,0E0,0E0,0E0,0E0,0E0,0E0,0E0],"parents":[2147483647,0,0,1,1,2,2,3,3,4,4,5,5,6,6],"right_children":[2,4,6,8,10,12,14,-1,-1,-1,-1,-1,-1,-1,-1],"split_conditions":[1.4928572E1,1.4033334E1,2.4E1,8E0,1E0,1.5133333E1,3.9E1,-5.40246E-3,-5.8744404E-2,1.6875708E-2,-5.492126E-2,6.761262E-2,7.1634334E-3,6.2407494E-2,2.1575786E-1],"split_indices":[18,19,20,16,7,19,20,0,0,0,0,0,0,0,0],"split_type":[0,0,0,0,0,0,0,0,0,0,0,0,0,0,0],"sum_hessian":[1.507E3,6.16E2,8.91E2,4.08E2,2.08E2,7.42E2,1.49E2,6.1E1,3.47E2,1.48E2,6E1,8.5E1,6.57E2,1.38E2,1.1E1],"tree_param":{"num_deleted":"0","num_feature":"21","num_nodes":"15","size_leaf_vector":"1"}},{"base_weights":[3.987886E-3,-8.9202064E-1,1.020388E0,-1.8131377E0,-2.34142E-1,5.504063E-1,2.8225067E0,-6.738382E-2,-2.5818335E-2,-1.6474808E-2,4.9924914E-2,1.449618E-2,1.7428194E-1,4.250391E-1,7.2094254E-2],"categories":[],"categories_nodes":[],"categories_segments":[],"categories_sizes":[],"default_left":[0,0,0,0,0,0,0,0,0,0,0,0,0,0,0],"id":33,"left_children":[1,3,5,7,9,11,13,-1,-1,-1,-1,-1,-1,-1,-1],"loss_changes":[1.3742507E3,4.8557397E2,5.972492E2,1.3582007E2,2.8137634E2,1.9580687E2,6.6060425E2,0E0,0E0,0E0,0E0,0E0,0E0,0E0,0E0],"parents":[2147483647,0,0,1,1,2,2,3,3,4,4,5,5,6,6],"right_children":[2,4,6,8,10,12,14,-1,-1,-1,-1,-1,-1,-1,-1],"split_conditions":[1.6E1,1.3357142E1,1.9333334E1,6.9E1,6.3E1,3.5E1,1.94E1,-6.738382E-2,-2.5818335E-2,-1.6474808E-2,4.9924914E-2,1.449618E-2,1.7428194E-1,4.250391E-1,7.2094254E-2],"split_indices":[20,18,19,15,16,20,19,0,0,0,0,0,0,0,0],"split_type":[0,0,0,0,0,0,0,0,0,0,0,0,0,0,0],"sum_hessian":[1.507E3,8.01E2,7.06E2,3.33E2,4.68E2,5.61E2,1.45E2,2.28E2,1.05E2,4.02E2,6.6E1,5.55E2,6E0,4E0,1.41E2],"tree_param":{"num_deleted":"0","num_feature":"21","num_nodes":"15","size_leaf_vector":"1"}},{"base_weights":[4.283614E-3,-8.653346E-1,9.907468E-1,-1.7590227E0,-2.2704631E-1,5.342303E-1,2.7412367E0,-5.8086846E-2,1.2439542E-2,-1.5981784E-2,4.8449524E-2,7.6464145E-3,5.2859794E-2,4.1483817E-1,6.994667E-2],"categories":[],"categories_nodes":[],"categories_segments":[],"categories_sizes":[],"default_left":[0,0,0,0,0,0,0,0,0,0,0,0,0,0,0],"id":34,"left_children":[1,3,5,7,9,11,13,-1,-1,-1,-1,-1,-1,-1,-1],"loss_changes":[1.2944895E3,4.57086E2,5.6351886E2,1.2945544E2,2.6494095E2,1.9230301E2,6.3089355E2,0E0,0E0,0E0,0E0,0E0,0E0,0E0,0E0],"parents":[2147483647,0,0,1,1,2,2,3,3,4,4,5,5,6,6],"right_children":[2,4,6,8,10,12,14,-1,-1,-1,-1,-1,-1,-1,-1],"split_conditions":[1.6E1,1.3357142E1,1.9333334E1,4.1E-1,6.3E1,8.1E1,1.94E1,-5.8086846E-2,1.2439542E-2,-1.5981784E-2,4.8449524E-2,7.6464145E-3,5.2859794E-2,4.1483817E-1,6.994667E-2],"split_indices":[20,18,19,17,16,15,19,0,0,0,0,0,0,0,0],"split_type":[0,0,0,0,0,0,0,0,0,0,0,0,0,0,0],"sum_hessian":[1.507E3,8.01E2,7.06E2,3.33E2,4.68E2,5.61E2,1.45E2,3.08E2,2.5E1,4.02E2,6.6E1,4.58E2,1.03E2,4E0,1.41E2],"tree_param":{"num_deleted":"0","num_feature":"21","num_nodes":"15","size_leaf_vector":"1"}},{"base_weights":[4.5077554E-3,-1.0791287E0,7.540584E-1,-2.6887443E0,-7.7370286E-1,6.396459E-1,5.2494807E0,-9.684937E-2,-4.0743403E-2,-5.587695E-2,-1.1380535E-2,5.9602316E-3,4.3473665E-2,-6.276237E-2,2.4399962E-1],"categories":[],"categories_nodes":[],"categories_segments":[],"categories_sizes":[],"default_left":[0,0,0,0,0,0,0,0,0,0,0,0,0,0,0],"id":35,"left_children":[1,3,5,7,9,11,13,-1,-1,-1,-1,-1,-1,-1,-1],"loss_changes":[1.2256724E3,3.0124817E2,4.55427E2,6.597626E1,2.2257867E2,3.1062073E2,4.82797E2,0E0,0E0,0E0,0E0,0E0,0E0,0E0,0E0],"parents":[2147483647,0,0,1,1,2,2,3,3,4,4,5,5,6,6],"right_children":[2,4,6,8,10,12,14,-1,-1,-1,-1,-1,-1,-1,-1],"split_conditions":[1.4928572E1,8E0,3.5E1,1E0,1.0766666E1,1.8433332E1,5.6E1,-9.684937E-2,-4.0743403E-2,-5.587695E-2,-1.1380535E-2,5.9602316E-3,4.3473665E-2,-6.276237E-2,2.4399962E-1],"split_indices":[18,20,20,8,19,19,15,0,0,0,0,0,0,0,0],"split_type":[0,0,0,0,0,0,0,0,0,0,0,0,0,0,0],"sum_hessian":[1.507E3,6.16E2,8.91E2,9.7E1,5.19E2,8.7E2,2.1E1,6.8E1,2.9E1,1.37E2,3.82E2,5.64E2,3.06E2,6E0,1.5E1],"tree_param":{"num_deleted":"0","num_feature":"21","num_nodes":"15","size_leaf_vector":"1"}},{"base_weights":[4.389422E-3,-8.236929E-1,9.437354E-1,-1.6592715E0,-2.268764E-1,5.099764E-1,2.6069467E0,-5.9857447E-2,-1.592994E-2,-1.571092E-2,4.685598E-2,2.1755269E-1,1.38246715E-2,4.0383863E-1,6.6191785E-2],"categories":[],"categories_nodes":[],"categories_segments":[],"categories_sizes":[],"default_left":[0,0,0,0,0,0,0,0,0,0,0,0,0,0,0],"id":36,"left_children":[1,3,5,7,9,11,13,-1,-1,-1,-1,-1,-1,-1,-1],"loss_changes":[1.1737839E3,3.9957068E2,5.087235E2,1.2555109E2,2.498271E2,1.8289694E2,6.050704E2,0E0,0E0,0E0,0E0,0E0,0E0,0E0,0E0],"parents":[2147483647,0,0,1,1,2,2,3,3,4,4,5,5,6,6],"right_children":[2,4,6,8,10,12,14,-1,-1,-1,-1,-1,-1,-1,-1],"split_conditions":[1.6E1,1.3357142E1,1.9333334E1,5.7E1,6.3E1,-1.7E1,1.94E1,-5.9857447E-2,-1.592994E-2,-1.571092E-2,4.685598E-2,2.1755269E-1,1.38246715E-2,4.0383863E-1,6.6191785E-2],"split_indices":[20,18,19,16,16,16,19,0,0,0,0,0,0,0,0],"split_type":[0,0,0,0,0,0,0,0,0,0,0,0,0,0,0],"sum_hessian":[1.507E3,8.01E2,7.06E2,3.33E2,4.68E2,5.61E2,1.45E2,2.56E2,7.7E1,4.02E2,6.6E1,3E0,5.58E2,4E0,1.41E2],"tree_param":{"num_deleted":"0","num_feature":"21","num_nodes":"15","size_leaf_vector":"1"}},{"base_weights":[4.6932325E-3,-7.990378E-1,9.1641545E-1,-1.6097202E0,-2.2000377E-1,4.9508902E-1,2.5319567E0,-5.3396776E-2,1.4238739E-2,-1.5240767E-2,4.5471285E-2,6.6788252E-3,5.0784808E-2,5.4305267E-2,2.4849878E-1],"categories":[],"categories_nodes":[],"categories_segments":[],"categories_sizes":[],"default_left":[0,0,0,0,0,0,0,0,0,0,0,0,0,0,0],"id":37,"left_children":[1,3,5,7,9,11,13,-1,-1,-1,-1,-1,-1,-1,-1],"loss_changes":[1.1057637E3,3.7611493E2,4.799803E2,1.1931384E2,2.3523401E2,1.8302483E2,5.910819E2,0E0,0E0,0E0,0E0,0E0,0E0,0E0,0E0],"parents":[2147483647,0,0,1,1,2,2,3,3,4,4,5,5,6,6],"right_children":[2,4,6,8,10,12,14,-1,-1,-1,-1,-1,-1,-1,-1],"split_conditions":[1.6E1,1.3357142E1,1.9333334E1,4.1E-1,6.3E1,8.1E1,1E0,-5.3396776E-2,1.4238739E-2,-1.5240767E-2,4.5471285E-2,6.6788252E-3,5.0784808E-2,5.4305267E-2,2.4849878E-1],"split_indices":[20,18,19,17,16,15,9,0,0,0,0,0,0,0,0],"split_type":[0,0,0,0,0,0,0,0,0,0,0,0,0,0,0],"sum_hessian":[1.507E3,8.01E2,7.06E2,3.33E2,4.68E2,5.61E2,1.45E2,3.08E2,2.5E1,4.02E2,6.6E1,4.58E2,1.03E2,1.3E2,1.5E1],"tree_param":{"num_deleted":"0","num_feature":"21","num_nodes":"15","size_leaf_vector":"1"}},{"base_weights":[4.785281E-3,-9.9828583E-1,6.986082E-1,-2.5151553E0,-7.1049446E-1,5.8978736E-1,4.9751716E0,-9.103691E-2,-3.710033E-2,-3.4844313E-2,3.372839E-3,2.2201161E-1,1.6257592E-2,-6.3389905E-2,2.3295891E-1],"categories":[],"categories_nodes":[],"categories_segments":[],"categories_sizes":[],"default_left":[0,0,0,0,0,0,0,0,0,0,0,0,0,0,0],"id":38,"left_children":[1,3,5,7,9,11,13,-1,-1,-1,-1,-1,-1,-1,-1],"loss_changes":[1.0501957E3,2.6755945E2,4.1218417E2,6.132428E1,1.931149E2,2.7994208E2,4.5149945E2,0E0,0E0,0E0,0E0,0E0,0E0,0E0,0E0],"parents":[2147483647,0,0,1,1,2,2,3,3,4,4,5,5,6,6],"right_children":[2,4,6,8,10,12,14,-1,-1,-1,-1,-1,-1,-1,-1],"split_conditions":[1.4928572E1,8E0,3.5E1,1E0,1.4166667E1,-1.3E1,5.6E1,-9.103691E-2,-3.710033E-2,-3.4844313E-2,3.372839E-3,2.2201161E-1,1.6257592E-2,-6.3389905E-2,2.3295891E-1],"split_indices":[18,20,20,8,19,16,15,0,0,0,0,0,0,0,0],"split_type":[0,0,0,0,0,0,0,0,0,0,0,0,0,0,0],"sum_hessian":[1.507E3,6.16E2,8.91E2,9.7E1,5.19E2,8.7E2,2.1E1,6.8E1,2.9E1,3.35E2,1.84E2,5E0,8.65E2,6E0,1.5E1],"tree_param":{"num_deleted":"0","num_feature":"21","num_nodes":"15","size_leaf_vector":"1"}},{"base_weights":[4.806127E-3,-7.619726E-1,8.7461054E-1,-1.5177537E0,-2.2211573E-1,4.6956193E-1,2.42778E0,-5.7614695E-2,-1.9001191E-2,-1.5038903E-2,4.3813575E-2,2.9470372E-1,1.3061331E-2,3.889575E-1,6.1189353E-2],"categories":[],"categories_nodes":[],"categories_segments":[],"categories_sizes":[],"default_left":[0,0,0,0,0,0,0,0,0,0,0,0,0,0,0],"id":39,"left_children":[1,3,5,7,9,11,13,-1,-1,-1,-1,-1,-1,-1,-1],"loss_changes":[1.0064233E3,3.2688983E2,4.4364014E2,1.17745056E2,2.2104073E2,1.7542578E2,5.7068945E2,0E0,0E0,0E0,0E0,0E0,0E0,0E0,0E0],"parents":[2147483647,0,0,1,1,2,2,3,3,4,4,5,5,6,6],"right_children":[2,4,6,8,10,12,14,-1,-1,-1,-1,-1,-1,-1,-1],"split_conditions":[1.6E1,1.3357142E1,1.9333334E1,6.9E1,6.3E1,-2E1,1.94E1,-5.7614695E-2,-1.9001191E-2,-1.5038903E-2,4.3813575E-2,2.9470372E-1,1.3061331E-2,3.889575E-1,6.1189353E-2],"split_indices":[20,18,19,15,16,16,19,0,0,0,0,0,0,0,0],"split_type":[0,0,0,0,0,0,0,0,0,0,0,0,0,0,0],"sum_hessian":[1.507E3,8.01E2,7.06E2,3.33E2,4.68E2,5.61E2,1.45E2,2.28E2,1.05E2,4.02E2,6.6E1,1E0,5.6E2,4E0,1.41E2],"tree_param":{"num_deleted":"0","num_feature":"21","num_nodes":"15","size_leaf_vector":"1"}},{"base_weights":[5.1325797E-3,-7.391733E-1,8.4944403E-1,-1.4724509E0,-2.153911E-1,2.9702127E-1,1.9367938E0,-5.364119E-2,-1.2412449E-2,-1.4588862E-2,4.2518783E-2,-2.849785E-3,5.0841946E-2,4.525337E-2,1.8221481E-1],"categories":[],"categories_nodes":[],"categories_segments":[],"categories_sizes":[],"default_left":[0,0,0,0,0,0,0,0,0,0,0,0,0,0,0],"id":40,"left_children":[1,3,5,7,9,11,13,-1,-1,-1,-1,-1,-1,-1,-1],"loss_changes":[9.4829425E2,3.0771313E2,4.2410324E2,1.1085455E2,2.0812843E2,2.576844E2,4.1259546E2,0E0,0E0,0E0,0E0,0E0,0E0,0E0,0E0],"parents":[2147483647,0,0,1,1,2,2,3,3,4,4,5,5,6,6],"right_children":[2,4,6,8,10,12,14,-1,-1,-1,-1,-1,-1,-1,-1],"split_conditions":[1.6E1,1.3357142E1,1.8433332E1,5.7E1,6.3E1,8.1E1,1E0,-5.364119E-2,-1.2412449E-2,-1.4588862E-2,4.2518783E-2,-2.849785E-3,5.0841946E-2,4.525337E-2,1.8221481E-1],"split_indices":[20,18,19,16,16,15,9,0,0,0,0,0,0,0,0],"split_type":[0,0,0,0,0,0,0,0,0,0,0,0,0,0,0],"sum_hessian":[1.507E3,8.01E2,7.06E2,3.33E2,4.68E2,4.69E2,2.37E2,2.56E2,7.7E1,4.02E2,6.6E1,3.67E2,1.02E2,2.16E2,2.1E1],"tree_param":{"num_deleted":"0","num_feature":"21","num_nodes":"15","size_leaf_vector":"1"}},{"base_weights":[5.1359916E-3,-9.221038E-1,6.465058E-1,-2.351313E0,-6.5097964E-1,5.6981546E-1,6.2229776E0,-8.566462E-2,-3.340003E-2,-3.206039E-2,3.3351856E-3,2.1499701E-1,1.5719453E-2,-3.0655785E-2,2.3322392E-1],"categories":[],"categories_nodes":[],"categories_segments":[],"categories_sizes":[],"default_left":[0,0,0,0,0,0,0,0,0,0,0,0,0,0,0],"id":41,"left_children":[1,3,5,7,9,11,13,-1,-1,-1,-1,-1,-1,-1,-1],"loss_changes":[8.974092E2,2.3755267E2,3.77928E2,5.7988403E1,1.6566142E2,2.6261838E2,1.4279831E2,0E0,0E0,0E0,0E0,0E0,0E0,0E0,0E0],"parents":[2147483647,0,0,1,1,2,2,3,3,4,4,5,5,6,6],"right_children":[2,4,6,8,10,12,14,-1,-1,-1,-1,-1,-1,-1,-1],"split_conditions":[1.4928572E1,8E0,3.9E1,1E0,1.4166667E1,-1.3E1,4.9E1,-8.566462E-2,-3.340003E-2,-3.206039E-2,3.3351856E-3,2.1499701E-1,1.5719453E-2,-3.0655785E-2,2.3322392E-1],"split_indices":[18,20,20,8,19,16,15,0,0,0,0,0,0,0,0],"split_type":[0,0,0,0,0,0,0,0,0,0,0,0,0,0,0],"sum_hessian":[1.507E3,6.16E2,8.91E2,9.7E1,5.19E2,8.8E2,1.1E1,6.8E1,2.9E1,3.35E2,1.84E2,5E0,8.75E2,2E0,9E0],"tree_param":{"num_deleted":"0","num_feature":"21","num_nodes":"15","size_leaf_vector":"1"}},{"base_weights":[5.1708417E-3,-7.0521253E-1,8.110015E-1,-1.3878888E0,-2.175385E-1,4.295929E-1,2.2736084E0,-4.6507575E-2,1.7853664E-2,-1.440391E-2,4.0955357E-2,2.8710097E-1,1.1887227E-2,3.7569386E-1,5.6900956E-2],"categories":[],"categories_nodes":[],"categories_segments":[],"categories_sizes":[],"default_left":[0,0,0,0,0,0,0,0,0,0,0,0,0,0,0],"id":42,"left_children":[1,3,5,7,9,11,13,-1,-1,-1,-1,-1,-1,-1,-1],"loss_changes":[8.638245E2,2.6670273E2,3.9342392E2,1.08460266E2,1.9557588E2,1.6753476E2,5.4026654E2,0E0,0E0,0E0,0E0,0E0,0E0,0E0,0E0],"parents":[2147483647,0,0,1,1,2,2,3,3,4,4,5,5,6,6],"right_children":[2,4,6,8,10,12,14,-1,-1,-1,-1,-1,-1,-1,-1],"split_conditions":[1.6E1,1.3357142E1,1.9333334E1,4.1E-1,6.3E1,-2E1,1.94E1,-4.6507575E-2,1.7853664E-2,-1.440391E-2,4.0955357E-2,2.8710097E-1,1.1887227E-2,3.7569386E-1,5.6900956E-2],"split_indices":[20,18,19,17,16,16,19,0,0,0,0,0,0,0,0],"split_type":[0,0,0,0,0,0,0,0,0,0,0,0,0,0,0],"sum_hessian":[1.507E3,8.01E2,7.06E2,3.33E2,4.68E2,5.61E2,1.45E2,3.08E2,2.5E1,4.02E2,6.6E1,1E0,5.6E2,4E0,1.41E2],"tree_param":{"num_deleted":"0","num_feature":"21","num_nodes":"15","size_leaf_vector":"1"}},{"base_weights":[5.499916E-3,-6.219883E-1,8.762304E-1,-1.5187712E0,-2.7193993E-1,5.4290515E-1,2.7782102E0,2.9038233E-3,-5.986342E-2,-1.940055E-2,3.260359E-2,1.1954014E-2,1.4104337E-1,4.249583E-2,1.3511653E-1],"categories":[],"categories_nodes":[],"categories_segments":[],"categories_sizes":[],"default_left":[0,0,0,0,0,0,0,0,0,0,0,0,0,0,0],"id":43,"left_children":[1,3,5,7,9,11,13,-1,-1,-1,-1,-1,-1,-1,-1],"loss_changes":[8.244757E2,2.748925E2,3.9916574E2,1.8963812E2,3.22502E2,3.218776E2,2.1450323E2,0E0,0E0,0E0,0E0,0E0,0E0,0E0,0E0],"parents":[2147483647,0,0,1,1,2,2,3,3,4,4,5,5,6,6],"right_children":[2,4,6,8,10,12,14,-1,-1,-1,-1,-1,-1,-1,-1],"split_conditions":[1.6333334E1,1.1433333E1,1E0,1.8E1,1E0,3.5E1,1.9E1,2.9038233E-3,-5.986342E-2,-1.940055E-2,3.260359E-2,1.1954014E-2,1.4104337E-1,4.249583E-2,1.3511653E-1],"split_indices":[19,19,4,16,10,20,18,0,0,0,0,0,0,0,0],"split_type":[0,0,0,0,0,0,0,0,0,0,0,0,0,0,0],"sum_hessian":[1.507E3,8.76E2,6.31E2,2.45E2,6.31E2,5.38E2,9.3E1,5.6E1,1.89E2,4.95E2,1.36E2,5.21E2,1.7E1,5.3E1,4E1],"tree_param":{"num_deleted":"0","num_feature":"21","num_nodes":"15","size_leaf_vector":"1"}},{"base_weights":[5.5251387E-3,-6.72444E-1,7.7458555E-1,-1.3141384E0,-2.1402527E-1,2.6517138E-1,1.7773169E0,-6.7352474E-2,-2.9159738E-2,-1.40907625E-2,3.9809577E-2,-3.4892417E-3,4.8766576E-2,4.1091815E-2,1.7150542E-1],"categories":[],"categories_nodes":[],"categories_segments":[],"categories_sizes":[],"default_left":[0,0,0,0,0,0,0,0,0,0,0,0,0,0,0],"id":44,"left_children":[1,3,5,7,9,11,13,-1,-1,-1,-1,-1,-1,-1,-1],"loss_changes":[7.867909E2,2.3563889E2,3.6066827E2,1.0420343E2,1.8540244E2,2.4409906E2,3.743291E2,0E0,0E0,0E0,0E0,0E0,0E0,0E0,0E0],"parents":[2147483647,0,0,1,1,2,2,3,3,4,4,5,5,6,6],"right_children":[2,4,6,8,10,12,14,-1,-1,-1,-1,-1,-1,-1,-1],"split_conditions":[1.6E1,1.3357142E1,1.8433332E1,8E0,6.3E1,8.1E1,1E0,-6.7352474E-2,-2.9159738E-2,-1.40907625E-2,3.9809577E-2,-3.4892417E-3,4.8766576E-2,4.1091815E-2,1.7150542E-1],"split_indices":[20,18,19,20,16,15,9,0,0,0,0,0,0,0,0],"split_type":[0,0,0,0,0,0,0,0,0,0,0,0,0,0,0],"sum_hessian":[1.507E3,8.01E2,7.06E2,3.33E2,4.68E2,4.69E2,2.37E2,8.8E1,2.45E2,4.02E2,6.6E1,3.67E2,1.02E2,2.16E2,2.1E1],"tree_param":{"num_deleted":"0","num_feature":"21","num_nodes":"15","size_leaf_vector":"1"}},{"base_weights":[5.483203E-3,-5.898458E-1,8.315877E-1,-1.6061745E0,-3.1207818E-1,5.086018E-1,2.674756E0,1.0959294E-1,-5.398887E-2,-8.11993E-2,-5.6305053E-3,1.1087148E-2,1.3536662E-1,5.922919E-2,1.7898159E-1],"categories":[],"categories_nodes":[],"categories_segments":[],"categories_sizes":[],"default_left":[0,0,0,0,0,0,0,0,0,0,0,0,0,0,0],"id":45,"left_children":[1,3,5,7,9,11,13,-1,-1,-1,-1,-1,-1,-1,-1],"loss_changes":[7.4213086E2,2.4707861E2,3.748802E2,1.9785117E2,2.0502313E2,2.9835263E2,2.0492755E2,0E0,0E0,0E0,0E0,0E0,0E0,0E0,0E0],"parents":[2147483647,0,0,1,1,2,2,3,3,4,4,5,5,6,6],"right_children":[2,4,6,8,10,12,14,-1,-1,-1,-1,-1,-1,-1,-1],"split_conditions":[1.6333334E1,1.0766666E1,1E0,1.6E1,7E0,3.5E1,2.1428572E1,1.0959294E-1,-5.398887E-2,-8.11993E-2,-5.6305053E-3,1.1087148E-2,1.3536662E-1,5.922919E-2,1.7898159E-1],"split_indices":[19,19,4,15,20,20,18,0,0,0,0,0,0,0,0],"split_type":[0,0,0,0,0,0,0,0,0,0,0,0,0,0,0],"sum_hessian":[1.507E3,8.76E2,6.31E2,1.87E2,6.89E2,5.38E2,9.3E1,6E0,1.81E2,3.3E1,6.56E2,5.21E2,1.7E1,7.8E1,1.5E1],"tree_param":{"num_deleted":"0","num_feature":"21","num_nodes":"15","size_leaf_vector":"1"}},{"base_weights":[5.552956E-3,-6.399524E-1,7.3778737E-1,-8.469502E-1,6.1672664E-1,-4.94226E-2,1.3283172E0,-3.5868067E-2,-1.2149175E-3,-1.1240079E-2,4.109552E-2,1.5978647E-2,-3.780137E-2,2.8706264E-2,9.260865E-2],"categories":[],"categories_nodes":[],"categories_segments":[],"categories_sizes":[],"default_left":[0,0,0,0,0,0,0,0,0,0,0,0,0,0,0],"id":46,"left_children":[1,3,5,7,9,11,13,-1,-1,-1,-1,-1,-1,-1,-1],"loss_changes":[7.1324524E2,2.0914642E2,3.2872946E2,1.9367877E2,8.563069E1,2.1488052E2,2.6095166E2,0E0,0E0,0E0,0E0,0E0,0E0,0E0,0E0],"parents":[2147483647,0,0,1,1,2,2,3,3,4,4,5,5,6,6],"right_children":[2,4,6,8,10,12,14,-1,-1,-1,-1,-1,-1,-1,-1],"split_conditions":[1.6E1,6.3E1,1.6366667E1,1.5928572E1,1.3714286E1,1E0,1E0,-3.5868067E-2,-1.2149175E-3,-1.1240079E-2,4.109552E-2,1.5978647E-2,-3.780137E-2,2.8706264E-2,9.260865E-2],"split_indices":[20,16,19,18,18,9,4,0,0,0,0,0,0,0,0],"split_type":[0,0,0,0,0,0,0,0,0,0,0,0,0,0,0],"sum_hessian":[1.507E3,8.01E2,7.06E2,6.88E2,1.13E2,3.03E2,4.03E2,4.8E2,2.08E2,4.9E1,6.4E1,2.05E2,9.8E1,3.34E2,6.9E1],"tree_param":{"num_deleted":"0","num_feature":"21","num_nodes":"15","size_leaf_vector":"1"}},{"base_weights":[5.4476387E-3,-6.2076306E-1,7.157949E-1,-1.5956502E0,-3.618626E-1,3.7297E-1,2.0305333E0,-4.3828607E-2,-2.5550938E-1,-1.8408772E-2,1.8625809E-2,2.8298256E-1,1.0200195E-2,3.621016E-1,4.9881887E-2],"categories":[],"categories_nodes":[],"categories_segments":[],"categories_sizes":[],"default_left":[0,0,0,0,0,0,0,0,0,0,0,0,0,0,0],"id":47,"left_children":[1,3,5,7,9,11,13,-1,-1,-1,-1,-1,-1,-1,-1],"loss_changes":[6.712436E2,2.0184634E2,3.179053E2,1.4418005E2,1.5748846E2,1.6462975E2,5.190466E2,0E0,0E0,0E0,0E0,0E0,0E0,0E0,0E0],"parents":[2147483647,0,0,1,1,2,2,3,3,4,4,5,5,6,6],"right_children":[2,4,6,8,10,12,14,-1,-1,-1,-1,-1,-1,-1,-1],"split_conditions":[1.6E1,9E0,1.9333334E1,1.9233334E1,6.1E1,-2E1,1.94E1,-4.3828607E-2,-2.5550938E-1,-1.8408772E-2,1.8625809E-2,2.8298256E-1,1.0200195E-2,3.621016E-1,4.9881887E-2],"split_indices":[20,20,19,19,16,16,19,0,0,0,0,0,0,0,0],"split_type":[0,0,0,0,0,0,0,0,0,0,0,0,0,0,0],"sum_hessian":[1.507E3,8.01E2,7.06E2,1.67E2,6.34E2,5.61E2,1.45E2,1.65E2,2E0,5.05E2,1.29E2,1E0,5.6E2,4E0,1.41E2],"tree_param":{"num_deleted":"0","num_feature":"21","num_nodes":"15","size_leaf_vector":"1"}},{"base_weights":[5.553431E-3,-4.8587722E-1,8.6981434E-1,-9.500538E-1,1.6033813E-1,7.617315E-1,5.625031E0,2.0570584E-2,-3.8955394E-2,-1.0795201E-2,7.670131E-2,1.4753053E-2,6.883121E-2,-3.910244E-2,2.1423185E-1],"categories":[],"categories_nodes":[],"categories_segments":[],"categories_sizes":[],"default_left":[0,0,0,0,0,0,0,0,0,0,0,0,0,0,0],"id":48,"left_children":[1,3,5,7,9,11,13,-1,-1,-1,-1,-1,-1,-1,-1],"loss_changes":[6.4090686E2,2.8871198E2,2.7684995E2,3.2008408E2,5.0327585E2,2.2064536E2,1.3535263E2,0E0,0E0,0E0,0E0,0E0,0E0,0E0,0E0],"parents":[2147483647,0,0,1,1,2,2,3,3,4,4,5,5,6,6],"right_children":[2,4,6,8,10,12,14,-1,-1,-1,-1,-1,-1,-1,-1],"split_conditions":[1.6928572E1,6.7E1,3.9E1,6E0,1E0,1E0,4.9E1,2.0570584E-2,-3.8955394E-2,-1.0795201E-2,7.670131E-2,1.4753053E-2,6.883121E-2,-3.910244E-2,2.1423185E-1],"split_indices":[18,15,20,16,10,4,15,0,0,0,0,0,0,0,0],"split_type":[0,0,0,0,0,0,0,0,0,0,0,0,0,0,0],"sum_hessian":[1.507E3,9.61E2,5.46E2,5.59E2,4.02E2,5.35E2,1.1E1,9.8E1,4.61E2,3.31E2,7.1E1,4.56E2,7.9E1,2E0,9E0],"tree_param":{"num_deleted":"0","num_feature":"21","num_nodes":"15","size_leaf_vector":"1"}},{"base_weights":[5.5900146E-3,-5.368868E-1,7.583536E-1,-1.878471E0,-3.519842E-1,4.5777306E-1,2.4738276E0,-6.620296E-2,-4.526332E-3,2.7842924E-1,-1.1295477E-2,9.801013E-3,1.2700342E-1,5.4258637E-2,1.6811006E-1],"categories":[],"categories_nodes":[],"categories_segments":[],"categories_sizes":[],"default_left":[0,0,0,0,0,0,0,0,0,0,0,0,0,0,0],"id":49,"left_children":[1,3,5,7,9,11,13,-1,-1,-1,-1,-1,-1,-1,-1],"loss_changes":[6.162092E2,2.1688954E2,3.247508E2,5.978595E1,1.8592792E2,2.6536133E2,1.8557214E2,0E0,0E0,0E0,0E0,0E0,0E0,0E0,0E0],"parents":[2147483647,0,0,1,1,2,2,3,3,4,4,5,5,6,6],"right_children":[2,4,6,8,10,12,14,-1,-1,-1,-1,-1,-1,-1,-1],"split_conditions":[1.6333334E1,8E0,1E0,1E0,-2E1,3.5E1,2.1428572E1,-6.620296E-2,-4.526332E-3,2.7842924E-1,-1.1295477E-2,9.801013E-3,1.2700342E-1,5.4258637E-2,1.6811006E-1],"split_indices":[19,20,4,2,16,20,18,0,0,0,0,0,0,0,0],"split_type":[0,0,0,0,0,0,0,0,0,0,0,0,0,0,0],"sum_hessian":[1.507E3,8.76E2,6.31E2,1.05E2,7.71E2,5.38E2,9.3E1,8.8E1,1.7E1,1E0,7.7E2,5.21E2,1.7E1,7.8E1,1.5E1],"tree_param":{"num_deleted":"0","num_feature":"21","num_nodes":"15","size_leaf_vector":"1"}},{"base_weights":[5.7904627E-3,-5.833107E-1,6.740413E-1,-7.780026E-1,5.9849674E-1,2.2584057E-1,1.5563115E0,-3.299362E-2,-1.0114004E-3,-1.03134345E-2,3.9423548E-2,-4.483856E-3,4.6936028E-2,3.5126645E-2,1.5861735E-1],"categories":[],"categories_nodes":[],"categories_segments":[],"categories_sizes":[],"default_left":[0,0,0,0,0,0,0,0,0,0,0,0,0,0,0],"id":50,"left_children":[1,3,5,7,9,11,13,-1,-1,-1,-1,-1,-1,-1,-1],"loss_changes":[5.940436E2,1.8499652E2,2.7922043E2,1.649791E2,7.732361E1,2.363689E2,3.3605066E2,0E0,0E0,0E0,0E0,0E0,0E0,0E0,0E0],"parents":[2147483647,0,0,1,1,2,2,3,3,4,4,5,5,6,6],"right_children":[2,4,6,8,10,12,14,-1,-1,-1,-1,-1,-1,-1,-1],"split_conditions":[1.6E1,6.3E1,1.8433332E1,1.5928572E1,1.3714286E1,8.1E1,1E0,-3.299362E-2,-1.0114004E-3,-1.03134345E-2,3.9423548E-2,-4.483856E-3,4.6936028E-2,3.5126645E-2,1.5861735E-1],"split_indices":[20,16,19,18,18,15,9,0,0,0,0,0,0,0,0],"split_type":[0,0,0,0,0,0,0,0,0,0,0,0,0,0,0],"sum_hessian":[1.507E3,8.01E2,7.06E2,6.88E2,1.13E2,4.69E2,2.37E2,4.8E2,2.08E2,4.9E1,6.4E1,3.67E2,1.02E2,2.16E2,2.1E1],"tree_param":{"num_deleted":"0","num_feature":"21","num_nodes":"15","size_leaf_vector":"1"}},{"base_weights":[5.7702665E-3,-5.6581765E-1,6.541546E-1,-1.472272E0,-3.251087E-1,-5.6089308E-2,1.1869763E0,-4.015841E-2,-2.5131828E-1,-3.971389E-2,-3.1213502E-3,1.5442865E-2,-3.7300654E-2,3.9838318E-2,-9.465136E-2],"categories":[],"categories_nodes":[],"categories_segments":[],"categories_sizes":[],"default_left":[0,0,0,0,0,0,0,0,0,0,0,0,0,0,0],"id":51,"left_children":[1,3,5,7,9,11,13,-1,-1,-1,-1,-1,-1,-1,-1],"loss_changes":[5.592479E2,1.7451105E2,2.67619E2,1.4383517E2,1.400535E2,2.0667679E2,2.514718E2,0E0,0E0,0E0,0E0,0E0,0E0,0E0,0E0],"parents":[2147483647,0,0,1,1,2,2,3,3,4,4,5,5,6,6],"right_children":[2,4,6,8,10,12,14,-1,-1,-1,-1,-1,-1,-1,-1],"split_conditions":[1.6E1,9E0,1.6366667E1,1.9233334E1,1.0766666E1,1E0,2.67E1,-4.015841E-2,-2.5131828E-1,-3.971389E-2,-3.1213502E-3,1.5442865E-2,-3.7300654E-2,3.9838318E-2,-9.465136E-2],"split_indices":[20,20,19,19,19,9,19,0,0,0,0,0,0,0,0],"split_type":[0,0,0,0,0,0,0,0,0,0,0,0,0,0,0],"sum_hessian":[1.507E3,8.01E2,7.06E2,1.67E2,6.34E2,3.03E2,4.03E2,1.65E2,2E0,1.14E2,5.2E2,2.05E2,9.8E1,3.91E2,1.2E1],"tree_param":{"num_deleted":"0","num_feature":"21","num_nodes":"15","size_leaf_vector":"1"}},{"base_weights":[5.324297E-3,-7.085445E-1,4.9910423E-1,-1.8851323E0,-4.8544034E-1,4.3357798E-1,5.2682304E0,-7.1610294E-2,-2.0039285E-2,-2.54318E-2,5.2552223E-3,6.1222594E-2,7.3759337E-3,4.9577113E-2,2.5825387E-1],"categories":[],"categories_nodes":[],"categories_segments":[],"categories_sizes":[],"default_left":[0,0,0,0,0,0,0,0,0,0,0,0,0,0,0],"id":52,"left_children":[1,3,5,7,9,11,13,-1,-1,-1,-1,-1,-1,-1,-1],"loss_changes":[5.3191473E2,1.610484E2,2.7646844E2,5.827014E1,1.2460093E2,2.6528583E2,1.3069962E2,0E0,0E0,0E0,0E0,0E0,0E0,0E0,0E0],"parents":[2147483647,0,0,1,1,2,2,3,3,4,4,5,5,6,6],"right_children":[2,4,6,8,10,12,14,-1,-1,-1,-1,-1,-1,-1,-1],"split_conditions":[1.4928572E1,8E0,3.9E1,1E0,1.4166667E1,1.5133333E1,5E1,-7.1610294E-2,-2.0039285E-2,-2.54318E-2,5.2552223E-3,6.1222594E-2,7.3759337E-3,4.9577113E-2,2.5825387E-1],"split_indices":[18,20,20,8,19,19,16,0,0,0,0,0,0,0,0],"split_type":[0,0,0,0,0,0,0,0,0,0,0,0,0,0,0],"sum_hessian":[1.507E3,6.16E2,8.91E2,9.7E1,5.19E2,8.8E2,1.1E1,6.8E1,2.9E1,3.35E2,1.84E2,9.1E1,7.89E2,6E0,5E0],"tree_param":{"num_deleted":"0","num_feature":"21","num_nodes":"15","size_leaf_vector":"1"}},{"base_weights":[5.340165E-3,-5.406402E-1,6.2467664E-1,-7.2785807E-1,5.9562093E-1,3.155535E-1,1.8103106E0,-2.3975903E-2,6.968323E-2,3.5955803E-3,5.7713307E-2,1.1796908E-1,7.086393E-3,3.4862283E-1,4.3563705E-2],"categories":[],"categories_nodes":[],"categories_segments":[],"categories_sizes":[],"default_left":[0,0,0,0,0,0,0,0,0,0,0,0,0,0,0],"id":53,"left_children":[1,3,5,7,9,11,13,-1,-1,-1,-1,-1,-1,-1,-1],"loss_changes":[5.1026123E2,1.7104175E2,2.585491E2,1.518021E2,7.1805405E1,1.603394E2,4.9616583E2,0E0,0E0,0E0,0E0,0E0,0E0,0E0,0E0],"parents":[2147483647,0,0,1,1,2,2,3,3,4,4,5,5,6,6],"right_children":[2,4,6,8,10,12,14,-1,-1,-1,-1,-1,-1,-1,-1],"split_conditions":[1.6E1,6.3E1,1.9333334E1,2.1928572E1,1.6033333E1,-8E0,1.94E1,-2.3975903E-2,6.968323E-2,3.5955803E-3,5.7713307E-2,1.1796908E-1,7.086393E-3,3.4862283E-1,4.3563705E-2],"split_indices":[20,16,19,18,19,16,19,0,0,0,0,0,0,0,0],"split_type":[0,0,0,0,0,0,0,0,0,0,0,0,0,0,0],"sum_hessian":[1.507E3,8.01E2,7.06E2,6.88E2,1.13E2,5.61E2,1.45E2,6.73E2,1.5E1,8.4E1,2.9E1,1.1E1,5.5E2,4E0,1.41E2],"tree_param":{"num_deleted":"0","num_feature":"21","num_nodes":"15","size_leaf_vector":"1"}},{"base_weights":[5.5942535E-3,-4.779686E-1,6.766054E-1,-1.6848968E0,-3.1163135E-1,3.8580462E-1,2.3368714E0,-6.0035754E-2,-8.216587E-4,2.7140054E-1,-1.0065088E-2,7.870119E-3,1.183477E-1,5.109753E-2,1.595795E-1],"categories":[],"categories_nodes":[],"categories_segments":[],"categories_sizes":[],"default_left":[0,0,0,0,0,0,0,0,0,0,0,0,0,0,0],"id":54,"left_children":[1,3,5,7,9,11,13,-1,-1,-1,-1,-1,-1,-1,-1],"loss_changes":[4.8963333E2,1.7553894E2,3.0423224E2,5.5516876E1,1.7549843E2,2.3582053E2,1.6857513E2,0E0,0E0,0E0,0E0,0E0,0E0,0E0,0E0],"parents":[2147483647,0,0,1,1,2,2,3,3,4,4,5,5,6,6],"right_children":[2,4,6,8,10,12,14,-1,-1,-1,-1,-1,-1,-1,-1],"split_conditions":[1.6333334E1,8E0,1E0,1E0,-2E1,3.5E1,2.1428572E1,-6.0035754E-2,-8.216587E-4,2.7140054E-1,-1.0065088E-2,7.870119E-3,1.183477E-1,5.109753E-2,1.595795E-1],"split_indices":[19,20,4,2,16,20,18,0,0,0,0,0,0,0,0],"split_type":[0,0,0,0,0,0,0,0,0,0,0,0,0,0,0],"sum_hessian":[1.507E3,8.76E2,6.31E2,1.05E2,7.71E2,5.38E2,9.3E1,8.8E1,1.7E1,1E0,7.7E2,5.21E2,1.7E1,7.8E1,1.5E1],"tree_param":{"num_deleted":"0","num_feature":"21","num_nodes":"15","size_leaf_vector":"1"}},{"base_weights":[5.782887E-3,-4.1282856E-1,7.419775E-1,-8.4909594E-1,1.9442342E-1,4.416222E-1,2.1308255E0,2.184479E-2,-3.5557244E-2,-9.437799E-3,7.616567E-2,2.1486761E-2,-3.513245E-2,3.0526077E-2,2.0881198E-1],"categories":[],"categories_nodes":[],"categories_segments":[],"categories_sizes":[],"default_left":[0,0,0,0,0,0,0,0,0,0,0,0,0,0,0],"id":55,"left_children":[1,3,5,7,9,11,13,-1,-1,-1,-1,-1,-1,-1,-1],"loss_changes":[4.6504102E2,2.5502217E2,2.2723886E2,2.9776797E2,4.8172092E2,2.0056573E2,5.144588E2,0E0,0E0,0E0,0E0,0E0,0E0,0E0,0E0],"parents":[2147483647,0,0,1,1,2,2,3,3,4,4,5,5,6,6],"right_children":[2,4,6,8,10,12,14,-1,-1,-1,-1,-1,-1,-1,-1],"split_conditions":[1.6928572E1,6.7E1,2.6E1,6E0,1E0,1E0,1E0,2.184479E-2,-3.5557244E-2,-9.437799E-3,7.616567E-2,2.1486761E-2,-3.513245E-2,3.0526077E-2,2.0881198E-1],"split_indices":[18,15,20,16,10,1,9,0,0,0,0,0,0,0,0],"split_type":[0,0,0,0,0,0,0,0,0,0,0,0,0,0,0],"sum_hessian":[1.507E3,9.61E2,5.46E2,5.59E2,4.02E2,4.5E2,9.6E1,9.8E1,4.61E2,3.31E2,7.1E1,3.85E2,6.5E1,7.9E1,1.7E1],"tree_param":{"num_deleted":"0","num_feature":"21","num_nodes":"15","size_leaf_vector":"1"}},{"base_weights":[5.7941917E-3,-8.5068303E-1,3.5831448E-1,-9.47261E-1,3.8795786E0,3.0631188E-1,4.913352E0,6.555516E-3,-3.8296238E-2,4.049916E-2,1.475816E-1,8.692314E-4,3.48531E-2,4.3510232E-2,2.4403916E-1],"categories":[],"categories_nodes":[],"categories_segments":[],"categories_sizes":[],"default_left":[0,0,0,0,0,0,0,0,0,0,0,0,0,0,0],"id":56,"left_children":[1,3,5,7,9,11,13,-1,-1,-1,-1,-1,-1,-1,-1],"loss_changes":[4.556086E2,2.0468411E2,2.5171312E2,1.6610983E2,1.7031723E1,2.5097748E2,1.2206625E2,0E0,0E0,0E0,0E0,0E0,0E0,0E0,0E0],"parents":[2147483647,0,0,1,1,2,2,3,3,4,4,5,5,6,6],"right_children":[2,4,6,8,10,12,14,-1,-1,-1,-1,-1,-1,-1,-1],"split_conditions":[1.41E1,2.2E1,3.9E1,1.8E1,7E0,1E0,5E1,6.555516E-3,-3.8296238E-2,4.049916E-2,1.475816E-1,8.692314E-4,3.48531E-2,4.3510232E-2,2.4403916E-1],"split_indices":[19,20,20,16,16,10,16,0,0,0,0,0,0,0,0],"split_type":[0,0,0,0,0,0,0,0,0,0,0,0,0,0,0],"sum_hessian":[1.507E3,4.39E2,1.068E3,4.31E2,8E0,1.057E3,1.1E1,9.5E1,3.36E2,3E0,5E0,7.99E2,2.58E2,6E0,5E0],"tree_param":{"num_deleted":"0","num_feature":"21","num_nodes":"15","size_leaf_vector":"1"}},{"base_weights":[5.9384066E-3,-4.9835378E-1,5.779842E-1,-7.1626866E-1,4.232377E-1,-6.518658E-2,1.0605237E0,-1.870703E-2,-1.2377652E-1,-4.5950862E-4,4.6670303E-2,2.000745E-2,-2.9968472E-2,3.599058E-2,-9.6520044E-2],"categories":[],"categories_nodes":[],"categories_segments":[],"categories_sizes":[],"default_left":[0,0,0,0,0,0,0,0,0,0,0,0,0,0,0],"id":57,"left_children":[1,3,5,7,9,11,13,-1,-1,-1,-1,-1,-1,-1,-1],"loss_changes":[4.353132E2,1.6136755E2,2.1949034E2,2.0255975E2,7.6505844E1,2.0848337E2,2.443678E2,0E0,0E0,0E0,0E0,0E0,0E0,0E0,0E0],"parents":[2147483647,0,0,1,1,2,2,3,3,4,4,5,5,6,6],"right_children":[2,4,6,8,10,12,14,-1,-1,-1,-1,-1,-1,-1,-1],"split_conditions":[1.6E1,6.1E1,1.6366667E1,6E1,1.59E1,1.5133333E1,2.67E1,-1.870703E-2,-1.2377652E-1,-4.5950862E-4,4.6670303E-2,2.000745E-2,-2.9968472E-2,3.599058E-2,-9.6520044E-2],"split_indices":[20,16,19,16,19,19,19,0,0,0,0,0,0,0,0],"split_type":[0,0,0,0,0,0,0,0,0,0,0,0,0,0,0],"sum_hessian":[1.507E3,8.01E2,7.06E2,6.48E2,1.53E2,3.03E2,4.03E2,6.32E2,1.6E1,1.11E2,4.2E1,1.7E2,1.33E2,3.91E2,1.2E1],"tree_param":{"num_deleted":"0","num_feature":"21","num_nodes":"15","size_leaf_vector":"1"}},{"base_weights":[5.6499327E-3,-8.144956E-1,3.4321624E-1,-9.0804356E-1,3.766305E0,2.926433E-1,4.773462E0,6.7468933E-3,-3.684257E-2,3.9137777E-2,1.4339186E-1,7.116254E-4,3.366486E-2,-4.6120014E-2,1.8568063E-1],"categories":[],"categories_nodes":[],"categories_segments":[],"categories_sizes":[],"default_left":[0,0,0,0,0,0,0,0,0,0,0,0,0,0,0],"id":58,"left_children":[1,3,5,7,9,11,13,-1,-1,-1,-1,-1,-1,-1,-1],"loss_changes":[4.1777466E2,1.919707E2,2.3811307E2,1.569144E2,1.6217232E1,2.3598798E2,1.1674002E2,0E0,0E0,0E0,0E0,0E0,0E0,0E0,0E0],"parents":[2147483647,0,0,1,1,2,2,3,3,4,4,5,5,6,6],"right_children":[2,4,6,8,10,12,14,-1,-1,-1,-1,-1,-1,-1,-1],"split_conditions":[1.41E1,2.2E1,3.9E1,1.8E1,7E0,1E0,4.9E1,6.7468933E-3,-3.684257E-2,3.9137777E-2,1.4339186E-1,7.116254E-4,3.366486E-2,-4.6120014E-2,1.8568063E-1],"split_indices":[19,20,20,16,16,10,15,0,0,0,0,0,0,0,0],"split_type":[0,0,0,0,0,0,0,0,0,0,0,0,0,0,0],"sum_hessian":[1.507E3,4.39E2,1.068E3,4.31E2,8E0,1.057E3,1.1E1,9.5E1,3.36E2,3E0,5E0,7.99E2,2.58E2,2E0,9E0],"tree_param":{"num_deleted":"0","num_feature":"21","num_nodes":"15","size_leaf_vector":"1"}},{"base_weights":[5.6969207E-3,-4.7574067E-1,5.5181754E-1,-6.884473E-1,4.2375502E-1,1.6527285E-1,1.3128434E0,-1.795529E-2,-1.1990411E-1,1.301865E-4,4.5189936E-2,-6.1947037E-3,4.4757262E-2,4.856408E-2,-7.5497724E-2],"categories":[],"categories_nodes":[],"categories_segments":[],"categories_sizes":[],"default_left":[0,0,0,0,0,0,0,0,0,0,0,0,0,0,0],"id":59,"left_children":[1,3,5,7,9,11,13,-1,-1,-1,-1,-1,-1,-1,-1],"loss_changes":[3.967504E2,1.5373737E2,2.0776157E2,1.90715E2,6.991704E1,2.321093E2,2.829267E2,0E0,0E0,0E0,0E0,0E0,0E0,0E0,0E0],"parents":[2147483647,0,0,1,1,2,2,3,3,4,4,5,5,6,6],"right_children":[2,4,6,8,10,12,14,-1,-1,-1,-1,-1,-1,-1,-1],"split_conditions":[1.6E1,6.1E1,1.8433332E1,6E1,1.59E1,8.1E1,6.1E1,-1.795529E-2,-1.1990411E-1,1.301865E-4,4.5189936E-2,-6.1947037E-3,4.4757262E-2,4.856408E-2,-7.5497724E-2],"split_indices":[20,16,19,16,19,15,16,0,0,0,0,0,0,0,0],"split_type":[0,0,0,0,0,0,0,0,0,0,0,0,0,0,0],"sum_hessian":[1.507E3,8.01E2,7.06E2,6.48E2,1.53E2,4.69E2,2.37E2,6.32E2,1.6E1,1.11E2,4.2E1,3.67E2,1.02E2,2.2E2,1.7E1],"tree_param":{"num_deleted":"0","num_feature":"21","num_nodes":"15","size_leaf_vector":"1"}},{"base_weights":[5.47213E-3,-7.7653986E-1,3.2734287E-1,-8.6756825E-1,3.6791036E0,2.7854678E-1,4.602251E0,7.0281737E-3,-3.5366137E-2,3.839657E-2,1.3996194E-1,5.477854E-4,3.2443423E-2,3.801356E-2,2.317859E-1],"categories":[],"categories_nodes":[],"categories_segments":[],"categories_sizes":[],"default_left":[0,0,0,0,0,0,0,0,0,0,0,0,0,0,0],"id":60,"left_children":[1,3,5,7,9,11,13,-1,-1,-1,-1,-1,-1,-1,-1],"loss_changes":[3.79828E2,1.8165146E2,2.2171008E2,1.4845496E2,1.5325844E1,2.2108618E2,1.15235245E2,0E0,0E0,0E0,0E0,0E0,0E0,0E0,0E0],"parents":[2147483647,0,0,1,1,2,2,3,3,4,4,5,5,6,6],"right_children":[2,4,6,8,10,12,14,-1,-1,-1,-1,-1,-1,-1,-1],"split_conditions":[1.41E1,2.2E1,3.9E1,1.8E1,7E0,1E0,5E1,7.0281737E-3,-3.5366137E-2,3.839657E-2,1.3996194E-1,5.477854E-4,3.2443423E-2,3.801356E-2,2.317859E-1],"split_indices":[19,20,20,16,16,10,16,0,0,0,0,0,0,0,0],"split_type":[0,0,0,0,0,0,0,0,0,0,0,0,0,0,0],"sum_hessian":[1.507E3,4.39E2,1.068E3,4.31E2,8E0,1.057E3,1.1E1,9.5E1,3.36E2,3E0,5E0,7.99E2,2.58E2,6E0,5E0],"tree_param":{"num_deleted":"0","num_feature":"21","num_nodes":"15","size_leaf_vector":"1"}},{"base_weights":[5.6083347E-3,-4.541249E-1,5.2710825E-1,-6.279238E-1,6.002748E-1,2.6017767E-1,1.5509977E0,-2.0825459E-2,6.6073425E-2,2.97611E-2,-2.9786147E-2,2.5678895E-4,4.1045476E-2,3.3522302E-1,3.603701E-2],"categories":[],"categories_nodes":[],"categories_segments":[],"categories_sizes":[],"default_left":[0,0,0,0,0,0,0,0,0,0,0,0,0,0,0],"id":61,"left_children":[1,3,5,7,9,11,13,-1,-1,-1,-1,-1,-1,-1,-1],"loss_changes":[3.6178363E2,1.4734622E2,1.9282481E2,1.3074072E2,7.213623E1,1.5667053E2,4.779865E2,0E0,0E0,0E0,0E0,0E0,0E0,0E0,0E0],"parents":[2147483647,0,0,1,1,2,2,3,3,4,4,5,5,6,6],"right_children":[2,4,6,8,10,12,14,-1,-1,-1,-1,-1,-1,-1,-1],"split_conditions":[1.6E1,6.3E1,1.9333334E1,2.1928572E1,1E0,8.1E1,1.94E1,-2.0825459E-2,6.6073425E-2,2.97611E-2,-2.9786147E-2,2.5678895E-4,4.1045476E-2,3.3522302E-1,3.603701E-2],"split_indices":[20,16,19,18,0,15,19,0,0,0,0,0,0,0,0],"split_type":[0,0,0,0,0,0,0,0,0,0,0,0,0,0,0],"sum_hessian":[1.507E3,8.01E2,7.06E2,6.88E2,1.13E2,5.61E2,1.45E2,6.73E2,1.5E1,9.1E1,2.2E1,4.58E2,1.03E2,4E0,1.41E2],"tree_param":{"num_deleted":"0","num_feature":"21","num_nodes":"15","size_leaf_vector":"1"}},{"base_weights":[5.743428E-3,-3.561861E-1,6.422525E-1,-7.756118E-1,2.2752261E-1,3.6808363E-1,1.9103751E0,2.1773787E-2,-3.2869875E-2,-8.157615E-3,7.5820506E-2,1.9050267E-2,-3.5958044E-2,-6.853268E-2,9.298567E-2],"categories":[],"categories_nodes":[],"categories_segments":[],"categories_sizes":[],"default_left":[0,0,0,0,0,0,0,0,0,0,0,0,0,0,0],"id":62,"left_children":[1,3,5,7,9,11,13,-1,-1,-1,-1,-1,-1,-1,-1],"loss_changes":[3.4762888E2,2.356957E2,1.8947762E2,2.6988962E2,4.635864E2,1.8936382E2,4.9093915E2,0E0,0E0,0E0,0E0,0E0,0E0,0E0,0E0],"parents":[2147483647,0,0,1,1,2,2,3,3,4,4,5,5,6,6],"right_children":[2,4,6,8,10,12,14,-1,-1,-1,-1,-1,-1,-1,-1],"split_conditions":[1.6928572E1,6.7E1,2.6E1,6E0,1E0,1E0,3.2E1,2.1773787E-2,-3.2869875E-2,-8.157615E-3,7.5820506E-2,1.9050267E-2,-3.5958044E-2,-6.853268E-2,9.298567E-2],"split_indices":[18,15,20,16,10,1,15,0,0,0,0,0,0,0,0],"split_type":[0,0,0,0,0,0,0,0,0,0,0,0,0,0,0],"sum_hessian":[1.507E3,9.61E2,5.46E2,5.59E2,4.02E2,4.5E2,9.6E1,9.8E1,4.61E2,3.31E2,7.1E1,3.85E2,6.5E1,2.1E1,7.5E1],"tree_param":{"num_deleted":"0","num_feature":"21","num_nodes":"15","size_leaf_vector":"1"}},{"base_weights":[5.6136344E-3,-7.3482245E-1,3.103716E-1,-8.2354265E-1,3.6053944E0,2.6386976E-1,4.38442E0,7.3326547E-3,-3.3759784E-2,3.7446786E-2,1.3727821E-1,2.5335844E-3,3.9737243E-2,3.43891E-2,2.2294456E-1],"categories":[],"categories_nodes":[],"categories_segments":[],"categories_sizes":[],"default_left":[0,0,0,0,0,0,0,0,0,0,0,0,0,0,0],"id":63,"left_children":[1,3,5,7,9,11,13,-1,-1,-1,-1,-1,-1,-1,-1],"loss_changes":[3.40514E2,1.7239775E2,2.0136592E2,1.3950607E2,1.4877861E1,2.012345E2,1.0988231E2,0E0,0E0,0E0,0E0,0E0,0E0,0E0,0E0],"parents":[2147483647,0,0,1,1,2,2,3,3,4,4,5,5,6,6],"right_children":[2,4,6,8,10,12,14,-1,-1,-1,-1,-1,-1,-1,-1],"split_conditions":[1.41E1,2.2E1,3.9E1,1.8E1,7E0,1E0,5E1,7.3326547E-3,-3.3759784E-2,3.7446786E-2,1.3727821E-1,2.5335844E-3,3.9737243E-2,3.43891E-2,2.2294456E-1],"split_indices":[19,20,20,16,16,4,16,0,0,0,0,0,0,0,0],"split_type":[0,0,0,0,0,0,0,0,0,0,0,0,0,0,0],"sum_hessian":[1.507E3,4.39E2,1.068E3,4.31E2,8E0,1.057E3,1.1E1,9.5E1,3.36E2,3E0,5E0,9.05E2,1.52E2,6E0,5E0],"tree_param":{"num_deleted":"0","num_feature":"21","num_nodes":"15","size_leaf_vector":"1"}},{"base_weights":[5.7424577E-3,-3.8709515E-1,5.508577E-1,-1.4758527E0,-2.3710112E-1,2.7703705E-1,2.1150968E0,-5.3395957E-2,3.2793554E-3,2.663943E-1,-7.813295E-3,-4.532724E-3,3.251198E-2,2.9533543E-2,1.0657956E-1],"categories":[],"categories_nodes":[],"categories_segments":[],"categories_sizes":[],"default_left":[0,0,0,0,0,0,0,0,0,0,0,0,0,0,0],"id":64,"left_children":[1,3,5,7,9,11,13,-1,-1,-1,-1,-1,-1,-1,-1],"loss_changes":[3.2313907E2,1.4287045E2,2.701129E2,5.1276993E1,1.6659998E2,1.863176E2,1.492869E2,0E0,0E0,0E0,0E0,0E0,0E0,0E0,0E0],"parents":[2147483647,0,0,1,1,2,2,3,3,4,4,5,5,6,6],"right_children":[2,4,6,8,10,12,14,-1,-1,-1,-1,-1,-1,-1,-1],"split_conditions":[1.6333334E1,8E0,1E0,1E0,-2E1,6.7E1,1.9E1,-5.3395957E-2,3.2793554E-3,2.663943E-1,-7.813295E-3,-4.532724E-3,3.251198E-2,2.9533543E-2,1.0657956E-1],"split_indices":[19,20,4,2,16,15,18,0,0,0,0,0,0,0,0],"split_type":[0,0,0,0,0,0,0,0,0,0,0,0,0,0,0],"sum_hessian":[1.507E3,8.76E2,6.31E2,1.05E2,7.71E2,5.38E2,9.3E1,8.8E1,1.7E1,1E0,7.7E2,3.52E2,1.86E2,5.3E1,4E1],"tree_param":{"num_deleted":"0","num_feature":"21","num_nodes":"15","size_leaf_vector":"1"}},{"base_weights":[5.8169696E-3,-4.1805303E-1,4.8663437E-1,-6.180645E-1,4.2756712E-1,5.566931E-1,-3.2962432E0,-1.39707895E-2,-7.4230015E-2,3.4264345E-2,-5.9237666E-3,1.2302075E-2,3.1678265E-1,-1.14197314E-1,4.241647E-2],"categories":[],"categories_nodes":[],"categories_segments":[],"categories_sizes":[],"default_left":[0,0,0,0,0,0,0,0,0,0,0,0,0,0,0],"id":65,"left_children":[1,3,5,7,9,11,13,-1,-1,-1,-1,-1,-1,-1,-1],"loss_changes":[3.0753998E2,1.359095E2,1.8920653E2,1.8241254E2,6.9006485E1,1.014984E3,3.663063E1,0E0,0E0,0E0,0E0,0E0,0E0,0E0,0E0],"parents":[2147483647,0,0,1,1,2,2,3,3,4,4,5,5,6,6],"right_children":[2,4,6,8,10,12,14,-1,-1,-1,-1,-1,-1,-1,-1],"split_conditions":[1.6E1,6.1E1,2.67E1,5.8E1,8.4E1,2.5966667E1,3.2142857E1,-1.39707895E-2,-7.4230015E-2,3.4264345E-2,-5.9237666E-3,1.2302075E-2,3.1678265E-1,-1.14197314E-1,4.241647E-2],"split_indices":[20,16,19,16,15,19,18,0,0,0,0,0,0,0,0],"split_type":[0,0,0,0,0,0,0,0,0,0,0,0,0,0,0],"sum_hessian":[1.507E3,8.01E2,7.06E2,6.48E2,1.53E2,6.94E2,1.2E1,6E2,4.8E1,7.1E1,8.2E1,6.85E2,9E0,1.1E1,1E0],"tree_param":{"num_deleted":"0","num_feature":"21","num_nodes":"15","size_leaf_vector":"1"}},{"base_weights":[5.7731606E-3,-6.899754E-1,2.921376E-1,-7.75933E-1,3.5126557E0,4.9179167E-2,1.0290787E0,7.8465305E-3,-3.207525E-2,3.6503226E-2,1.3373402E-1,-3.476174E-3,8.930227E-2,1.6833895E-1,1.1941577E-2],"categories":[],"categories_nodes":[],"categories_segments":[],"categories_sizes":[],"default_left":[0,0,0,0,0,0,0,0,0,0,0,0,0,0,0],"id":66,"left_children":[1,3,5,7,9,11,13,-1,-1,-1,-1,-1,-1,-1,-1],"loss_changes":[3.0065192E2,1.6167482E2,1.9134964E2,1.3170868E2,1.4105339E1,3.8932025E2,7.64014E2,0E0,0E0,0E0,0E0,0E0,0E0,0E0,0E0],"parents":[2147483647,0,0,1,1,2,2,3,3,4,4,5,5,6,6],"right_children":[2,4,6,8,10,12,14,-1,-1,-1,-1,-1,-1,-1,-1],"split_conditions":[1.41E1,2.2E1,1E0,1.8E1,7E0,2.1928572E1,1.55E1,7.8465305E-3,-3.207525E-2,3.6503226E-2,1.3373402E-1,-3.476174E-3,8.930227E-2,1.6833895E-1,1.1941577E-2],"split_indices":[19,20,10,16,16,18,19,0,0,0,0,0,0,0,0],"split_type":[0,0,0,0,0,0,0,0,0,0,0,0,0,0,0],"sum_hessian":[1.507E3,4.39E2,1.068E3,4.31E2,8E0,8.04E2,2.64E2,9.5E1,3.36E2,3E0,5E0,7.62E2,4.2E1,3.1E1,2.33E2],"tree_param":{"num_deleted":"0","num_feature":"21","num_nodes":"15","size_leaf_vector":"1"}}]},"name":"gbtree"},"learner_model_param":{"base_score":"1.5775713E1","boost_from_average":"1","num_class":"0","num_feature":"21","num_target":"1"},"objective":{"name":"reg:squarederror","reg_loss_param":{"scale_pos_weight":"1"}}},"version":[3,0,4]}